{"weights": [[[-0.032152049243450165, 0.032735422253608704, 0.022949613630771637, 0.07248436659574509, -0.0449385792016983, 0.0032493621110916138, -0.07540538907051086, 0.060536064207553864, -0.0828435942530632, 0.036764539778232574, 0.015090271830558777, 0.05143611878156662, -0.011073445901274681, -0.10348380357027054, 0.0968371331691742, -0.058243755251169205, -0.05916866660118103, -0.07746677100658417, -0.034838031977415085, -0.02629080042243004, -0.06559650599956512, -0.06561331450939178, -0.07742396742105484, 0.06814221292734146, -0.02053193747997284, -0.052725110203027725, -0.07130526006221771, 0.014188677072525024, 0.021931692957878113, 0.006571494042873383, -0.020755529403686523, -0.07899671047925949, -0.004071000963449478, -0.011072017252445221, -0.10887385159730911, 0.08783029764890671, 0.02673650160431862, 0.5512547492980957, 0.4454805552959442, -0.6019649505615234, -0.5745840668678284, -0.4496857523918152, -0.25016698241233826, -0.5898941159248352, -0.4110596776008606, -0.41938480734825134, 0.3322993218898773, -0.05385490134358406, -0.05756784975528717, 0.024294206872582436, 0.01629037782549858, -0.16784337162971497, -0.005261048674583435, 0.025308027863502502, 0.03404306620359421, -0.0377705916762352, 0.06328869611024857, 0.055689625442028046, 0.08112782984972, -0.39611679315567017, -0.37694311141967773, 0.7531251311302185, 0.5586645007133484, 0.5914044380187988, 0.5843090415000916, 0.6617116332054138, 0.6256929039955139, 0.45045965909957886, -0.11115476489067078, -0.39592763781547546, -0.3348717987537384, -0.05186063051223755, -0.15430748462677002, 0.9125675559043884, 1.2493336200714111, 1.1070432662963867, 1.3138676881790161, 1.3659331798553467, 0.6435573697090149, 0.12840591371059418, -0.4330500662326813, -0.3878103196620941, 0.08396627753973007, -0.06819696724414825, -0.03873772546648979, 0.04111889749765396, -0.4568570852279663, -0.4578677713871002, -0.41689532995224, 0.4923786222934723, 0.5814917683601379, 0.3700524568557739, 0.5303295850753784, 0.5314983129501343, 0.16039036214351654, 0.36197584867477417, 0.19010046124458313, -0.06559879332780838, -0.1482466757297516, -0.1250324249267578, -0.38009682297706604, -0.11850131303071976, 0.2895553410053253, 0.40499642491340637, 0.09227151423692703, 0.22777226567268372, 0.6522547006607056, 0.5731058716773987, 0.35739049315452576, -0.35163286328315735, -0.37709301710128784, -0.015067078173160553, -0.042009152472019196, -0.21017523109912872, -0.43961361050605774, -0.8294402956962585, -0.4935767352581024, -0.20659036934375763, -0.20251938700675964, -0.4346519708633423, -0.1930331140756607, 0.311551034450531, 0.4208233058452606, -0.17413534224033356, 0.15609195828437805, -0.14367322623729706, 0.08376286923885345, -0.4163998067378998, -0.48986315727233887, -0.27086493372917175, -0.42249050736427307, -0.4007193446159363, 0.2035907357931137, 0.4067649841308594, -0.2645934820175171, 0.30234798789024353, 0.6341701149940491, 0.7125195264816284, -0.3539888262748718, 0.5723146796226501, 0.054823242127895355, 0.04213941842317581, 0.024283336475491524, -0.28072139620780945, -0.8096668124198914, -1.196234107017517, -0.9826276898384094, -0.6323226094245911, 0.06843485683202744, -0.03448766842484474, -0.2831610441207886, 0.3406098186969757, 0.8674878478050232, 0.3118755519390106, 0.3061550259590149, -0.5243666172027588, -0.5584049820899963, -0.2107793241739273, -0.16030210256576538, 0.22731074690818787, 0.38881826400756836, -0.021061554551124573, 0.1108778864145279, 0.29127246141433716, 0.9187266230583191, 0.7181581854820251, 0.28589123487472534, 0.6281257271766663, 0.0010237321257591248, -0.23137588798999786, 0.053258057683706284, -0.7900922894477844, -0.6402106881141663, -1.146959662437439, -0.7708894610404968, -0.5138639807701111, -0.0387360081076622, 0.17723818123340607, -0.19135133922100067, 0.03830403834581375, 0.10628816485404968, -0.13648773729801178, -0.13626480102539062, -0.3069866895675659, -0.31104207038879395, -0.12180668860673904, -0.09028060734272003, -0.15767809748649597, 0.4543844759464264, 0.16016556322574615, -0.18215671181678772, 0.3407512307167053, 0.6406385898590088, 0.4426112174987793, 0.23633639514446259, 0.15883782505989075, 0.05273508280515671, -0.8098105192184448, 0.30678924918174744, -0.6271143555641174, -0.5729395747184753, -0.08032678812742233, -0.23951007425785065, -0.05553869530558586, 0.044928036630153656, 0.08667542040348053, 0.04367419332265854, -0.172454833984375, -0.4558432102203369, -0.13007590174674988, -0.0710466280579567, -0.03672739490866661, 0.058712154626846313, -0.08119401335716248, -0.009730002842843533, -0.19833864271640778, -0.15112103521823883, -0.2053130716085434, 0.06997033953666687, -0.36588573455810547, 0.4259414076805115, 0.20142565667629242, 0.8006457686424255, -0.18260015547275543, -0.5858429670333862, -0.0570620521903038, -0.1519222855567932, -0.15013320744037628, -0.060585953295230865, 0.2552372217178345, -0.35383638739585876, -0.03749806061387062, -0.16465526819229126, -0.1536162793636322, -0.4583171308040619, -0.49007439613342285, -0.4769822061061859, -0.07945827394723892, -0.3013783097267151, -0.24752509593963623, -0.35315632820129395, -0.2718519866466522, 0.026012636721134186, 0.02506781928241253, -0.2524505853652954, 0.4609377086162567, 0.2845785617828369, -0.4369686543941498, 0.06241598352789879, 0.5122997164726257, 0.9510056376457214, 0.36385902762413025, -0.08814433217048645, -0.7497203946113586, 0.4140579402446747, -0.12503719329833984, -0.17889665067195892, -0.18567270040512085, -0.02109798602759838, -0.06875906139612198, 0.11693796515464783, -0.1708582490682602, -0.3153044581413269, -0.4631800353527069, -0.16207464039325714, -0.5517153143882751, -0.6389563679695129, -0.6458829045295715, -0.6675354838371277, -0.471791535615921, -0.07274968177080154, -0.06724178045988083, 0.15695351362228394, 0.38068118691444397, 0.11921393126249313, -0.1802922636270523, -0.30279478430747986, 0.12303657084703445, 0.802619993686676, 0.32649287581443787, -0.25307756662368774, -0.6838434934616089, -0.8403031826019287, -0.31701183319091797, 0.26042112708091736, 0.02841145545244217, -0.19615185260772705, -0.3771207332611084, -0.37621623277664185, -0.19130297005176544, -0.3020314574241638, -0.13650085031986237, -0.19981145858764648, -1.4896687269210815, -1.533187747001648, -1.298161506652832, -0.7034962177276611, -0.6266453862190247, -0.31521227955818176, -0.15745647251605988, -0.09694960713386536, -0.07657675445079803, -0.003175907302647829, 0.1342002898454666, 0.26843515038490295, 0.4375312626361847, 0.06699587404727936, -0.05182009935379028, -0.17613378167152405, -0.8652844429016113, -0.17839588224887848, -0.6043227910995483, -0.5888729691505432, 0.1196945533156395, -0.10898837447166443, -0.21986715495586395, 0.022824754938483238, 0.11149347573518753, 0.1724940836429596, -0.24488000571727753, -0.44979575276374817, -1.4552111625671387, -1.5463268756866455, -1.0587451457977295, -0.2985178232192993, -0.22626423835754395, -0.4531378149986267, -0.18570220470428467, 0.08697737753391266, 0.0836004987359047, 0.12321099638938904, 0.03732474893331528, 0.34772950410842896, 0.9310207366943359, -0.1991700828075409, -0.1467600017786026, -0.13616827130317688, -0.7209063768386841, -0.3027890920639038, 0.0889270156621933, 0.05317886918783188, 0.23756009340286255, 0.052212148904800415, 0.11050309240818024, 0.28165456652641296, 0.022081900388002396, -0.05133730545639992, -0.17703233659267426, -0.47550177574157715, -0.3779839873313904, -0.2458406388759613, 0.2732558250427246, 0.33672481775283813, -0.15281999111175537, -0.5183696746826172, -0.09065578132867813, 0.2268598973751068, 0.29086771607398987, 0.21556225419044495, 0.5406767725944519, 0.3589073717594147, 0.22012481093406677, -0.3034224212169647, 0.0030969653744250536, 0.04443439096212387, -0.5888367295265198, -0.6724541783332825, 0.08371379971504211, 0.8736745119094849, 0.34338250756263733, 0.23820224404335022, 0.530239999294281, 0.38811323046684265, 0.40847325325012207, 0.5050603151321411, 0.17928633093833923, 0.3363046646118164, 0.784298300743103, 1.0394270420074463, 1.2074670791625977, 0.6704108119010925, 0.16674980521202087, 0.07218074053525925, 0.14499923586845398, 0.2128557711839676, 0.07893279194831848, 0.17661240696907043, -0.20487584173679352, -0.015940099954605103, 0.30785682797431946, 0.5984507203102112, 0.4375170171260834, 0.4258367717266083, -0.26448854804039, -0.6731785535812378, 0.08010032773017883, 0.5207140445709229, 0.3779500424861908, 0.37514832615852356, 0.5723718404769897, 0.4805871248245239, 0.565619945526123, 0.30348679423332214, 0.4951561689376831, 0.5138912200927734, 1.0916942358016968, 1.12702214717865, 0.7021263241767883, 0.6659448146820068, 0.15802280604839325, -0.29064106941223145, -0.25440287590026855, -0.042281702160835266, 0.05617116391658783, -0.29889029264450073, -0.21266858279705048, -0.642013430595398, -0.0719866156578064, -0.17570936679840088, 0.2020561248064041, 0.23891125619411469, -0.3339462876319885, -0.40847066044807434, -0.4656771719455719, 0.11476470530033112, 0.32452139258384705, 0.05015210434794426, 0.16896502673625946, 0.6416634321212769, 0.36814552545547485, 0.264597624540329, 0.1095522940158844, 0.6805110573768616, 0.9014955163002014, 0.5784565806388855, 0.4646948277950287, 0.42683568596839905, 0.23836398124694824, -0.08688948303461075, 2.2649765014648438e-06, -0.04304103925824165, 0.23481395840644836, 0.08589804917573929, -0.12411738932132721, -0.6052318811416626, 0.42012903094291687, 0.4368032217025757, 0.7172531485557556, -0.21512053906917572, -0.6891658306121826, -0.4594368636608124, -0.23249010741710663, 0.160689115524292, 0.2237383872270584, 0.1683390587568283, 0.22332318127155304, 0.3552896976470947, -0.012877100147306919, 0.07842591404914856, 0.4093523919582367, 0.8847292065620422, 0.7084537744522095, 0.20423981547355652, 0.3149777054786682, 0.35820430517196655, 0.4875163435935974, 0.36055707931518555, -0.11125707626342773, -0.04643036052584648, 0.05284799635410309, 0.26642122864723206, 0.05908013880252838, -0.3206217586994171, 1.3706066608428955, 1.0413665771484375, 0.19065776467323303, -0.07244697213172913, -0.5564897656440735, -0.10084167122840881, 0.050150301307439804, 0.280967116355896, 0.18532219529151917, 0.5496090054512024, 0.15951021015644073, 0.44085341691970825, 0.03586161136627197, 0.13268513977527618, 0.4577901065349579, 0.8374161720275879, 0.3746049106121063, 0.019040076062083244, 0.24694688618183136, 0.3993039131164551, 0.09891127049922943, 0.0663343295454979, -0.07074543833732605, -0.09243079274892807, -0.07882730662822723, -0.44481033086776733, -0.11779816448688507, -0.40412941575050354, 0.03835446387529373, -0.253128319978714, -0.05905381217598915, 0.2717951238155365, -0.4015450179576874, -0.3565268814563751, 0.2601848542690277, 0.4375056028366089, 0.38053104281425476, 0.5183149576187134, 0.333312064409256, 0.2479112148284912, 0.3091675341129303, 0.4367291033267975, 0.8058042526245117, 0.9006233811378479, 0.3590179681777954, 0.11165634542703629, -0.044006627053022385, -0.26987433433532715, -0.40773069858551025, -0.3493741452693939, -0.04389103502035141, -0.2498214691877365, -0.14001646637916565, -0.4883307218551636, -0.31438148021698, 0.7327454686164856, 0.13690169155597687, -0.2755540907382965, 0.19233445823192596, -0.013518503867089748, -0.77169269323349, -0.9057889580726624, 0.16504058241844177, 0.4544089138507843, 0.6792120337486267, 0.3069528341293335, 0.46684542298316956, 0.42070430517196655, 0.26593515276908875, 0.6027510166168213, 0.8079107999801636, 0.34711623191833496, -0.05735329911112785, -0.07028260827064514, -0.06821545213460922, -0.20135632157325745, -0.4910622239112854, 0.3362632393836975, 0.08864296227693558, 0.08428022265434265, -0.15471535921096802, -0.5643135905265808, -0.04651351273059845, -0.10028865188360214, -0.09007924050092697, 0.15726879239082336, -0.4630771577358246, 0.04079749435186386, -0.6942710280418396, -0.67986661195755, -0.2792845666408539, 0.28109726309776306, 0.43796923756599426, 0.3616639971733093, 0.42606019973754883, 0.3759830594062805, 0.035687405616045, 0.21910260617733002, 0.07098482549190521, -0.3612917363643646, -0.31324678659439087, -0.44338181614875793, -0.03155108168721199, -0.09866597503423691, -0.01011054590344429, 0.2051970660686493, 0.15670980513095856, 0.12642915546894073, -0.07986390590667725, -0.37263086438179016, -0.29048699140548706, 0.03186682239174843, 0.4400162398815155, -0.3814379870891571, -0.33257901668548584, -0.023213770240545273, -0.17014047503471375, -0.8210228085517883, -0.13950787484645844, -0.05197322368621826, -0.0019895960576832294, 0.13114185631275177, 0.20265628397464752, 0.5101620554924011, -0.10454776883125305, -0.1488330364227295, -0.25031203031539917, -0.3150155544281006, -0.31491902470588684, -0.3363226354122162, -0.14599406719207764, -0.12676571309566498, 0.38741543889045715, -0.09890730679035187, 0.07565337419509888, 0.38726019859313965, 0.21559759974479675, 0.046425711363554, -0.2501247227191925, -0.22324992716312408, 0.029382875189185143, -0.5104244947433472, -0.17291688919067383, 0.09094124287366867, 0.02873939648270607, -0.47188276052474976, 0.2820463478565216, 0.28082719445228577, 0.08892282843589783, -0.008151024580001831, -0.380645751953125, -0.19282230734825134, -0.4837893843650818, -0.27267223596572876, -0.35802096128463745, -0.3512292206287384, -0.44386398792266846, -0.519733726978302, -0.3386141359806061, -0.024235613644123077, 0.18794815242290497, -0.08401387929916382, -0.09356199949979782, -0.0977603867650032, -0.11217497289180756, 0.5846579074859619, 0.20303963124752045, 0.43808287382125854, -0.05853532999753952, -0.3779854476451874, -0.27818673849105835, 0.0748615637421608, -0.02158408612012863, -0.2955854833126068, 0.4689891040325165, -0.20504222810268402, -0.45909062027931213, -0.6087329387664795, -0.55572909116745, -0.23611204326152802, -0.47177934646606445, -0.42765143513679504, -0.5345558524131775, -0.3879546523094177, -0.3471304476261139, -0.3696374297142029, -0.36533069610595703, -0.32096585631370544, -0.2119126319885254, 0.06248374655842781, 0.30973243713378906, 0.3001028597354889, 0.8188197612762451, 0.9850720167160034, 0.45002222061157227, -0.34410375356674194, -0.01968008279800415, -0.3041723370552063, -0.002033606171607971, -0.03229379653930664, 0.03809480369091034, -0.6405383944511414, -0.8348788022994995, -0.5726031064987183, -0.7104713320732117, -0.641913652420044, 0.03283017501235008, 0.2253420650959015, 0.16093698143959045, 0.1789182871580124, 0.388937771320343, 0.26034390926361084, 0.09141568839550018, -0.3434184789657593, -0.11342925578355789, -0.1275208741426468, -0.057362474501132965, 0.5511395335197449, 0.5365573763847351, 0.6747530698776245, 0.6739746332168579, 0.5985408425331116, 0.7578681707382202, -0.3727947175502777, 0.34009483456611633, -0.5561440587043762, 0.049524419009685516, 0.025229565799236298, -0.04419449716806412, 0.22643285989761353, -0.13545402884483337, -0.43576759099960327, -0.5348280668258667, 0.11209523677825928, 0.09470091760158539, 0.11087970435619354, 0.16982074081897736, 0.41563349962234497, 0.12167193740606308, -0.054217152297496796, 0.5285571813583374, 0.6417679786682129, 0.4528844654560089, 0.10144921392202377, 0.5386747717857361, 0.2657875120639801, 0.5630967617034912, 0.6678625345230103, 1.034287929534912, 0.788444459438324, 0.13247089087963104, -0.7206502556800842, -0.25398150086402893, 0.029563402757048607, 0.03914414346218109, -0.03655698522925377, -0.02825646847486496, 0.022746741771697998, 0.1819600909948349, 0.7626325488090515, 0.07136383652687073, 0.5392858982086182, 0.5892467498779297, 0.48070409893989563, 0.34827545285224915, 0.18598054349422455, 0.42424726486206055, 0.8393579125404358, 0.6149135828018188, 0.867919385433197, 0.7228427529335022, 0.5537114143371582, 0.587813138961792, 0.1327412873506546, 0.07286760210990906, 0.6569803953170776, 1.2572611570358276, 0.47158297896385193, 0.019384950399398804, 0.41947653889656067, -0.26550614833831787, 0.03551048785448074, -0.02367354929447174, -0.012203685939311981, -0.07220287621021271, -0.07853608578443527, 0.04859859496355057, -0.3438912332057953, -0.4495111107826233, 0.33731886744499207, 0.13698682188987732, 0.1110311895608902, 0.15143413841724396, -0.2677597403526306, 0.3664914667606354, 0.5459567308425903, -0.15181748569011688, 0.38287094235420227, 0.5152376890182495, 0.14816322922706604, -0.254324346780777, -0.14486688375473022, 0.3129338026046753, 0.5419073104858398, 0.4097926616668701, 0.21182793378829956, -0.418294221162796, -0.03429717198014259, -0.05845598876476288, 0.00024184584617614746, -0.008941330015659332], [-0.06351256370544434, 0.07048355787992477, 0.001653432846069336, -0.0691162645816803, -0.0024325773119926453, 0.04314927011728287, -0.04417724162340164, 0.06372147053480148, -0.03560667484998703, 0.07025755196809769, -0.06186288222670555, 0.04815027862787247, 0.2111833244562149, 0.3094169497489929, -0.03452660143375397, -0.05154810845851898, -0.08026646077632904, -0.03907610476016998, 0.022335022687911987, -0.06761421263217926, 0.049554817378520966, -0.032084640115499496, -0.061510562896728516, 0.056205861270427704, 0.07641872018575668, 0.06284724920988083, 0.023600861430168152, -0.031267404556274414, -0.0465097650885582, -0.06729937344789505, -0.07584500312805176, -0.08138410747051239, 0.17948965728282928, 0.22078648209571838, 0.6512398719787598, 0.9186754822731018, 0.5768921971321106, 1.1677114963531494, 1.57158625125885, 2.128607749938965, 2.1029958724975586, 1.239691972732544, 0.3188427984714508, 0.6764279007911682, -0.02521401084959507, 0.3592962920665741, 0.5753434300422668, 0.5260828137397766, 0.39358189702033997, 0.6486867666244507, 0.37372395396232605, 0.36678457260131836, 0.010598793625831604, 0.06441780179738998, 0.030876994132995605, -0.0502551794052124, 0.0356648713350296, -0.06515216082334518, 0.06371347606182098, 0.2894817590713501, 0.36468854546546936, 0.39066722989082336, 0.14485342800617218, 1.2489591836929321, 1.4785914421081543, 0.6199918389320374, 0.7956460118293762, 1.4823353290557861, 1.4909809827804565, 1.2272496223449707, 0.8571361303329468, 0.5687063336372375, 0.1924109011888504, 0.30353137850761414, 0.536746621131897, 0.3538559079170227, 0.28311535716056824, -0.05036979913711548, -0.1632518321275711, -0.2720419764518738, -0.26137396693229675, -0.11930003762245178, -0.03064388781785965, -0.03165099769830704, -0.012576349079608917, -0.005556195974349976, -0.31479278206825256, 0.16051238775253296, 0.11936237663030624, 0.9824820160865784, 0.9371566772460938, 0.6635397672653198, 0.971351146697998, 0.9655799865722656, 0.2171037346124649, 0.04319549351930618, 0.4364233911037445, 0.7103607654571533, -0.02388819493353367, 0.16844618320465088, -0.30827030539512634, -0.35522517561912537, -0.028760582208633423, 0.046227481216192245, -0.6404209136962891, -0.6075032949447632, -0.062039364129304886, 0.02315848134458065, -0.5185117125511169, -0.28651130199432373, 0.13355033099651337, 0.08411995321512222, -0.04639945551753044, 0.024436742067337036, -0.24494151771068573, -0.52760910987854, 0.3368927538394928, 0.5870776176452637, 0.329115092754364, 0.5448243618011475, 1.4899084568023682, 1.260761022567749, 0.7947295904159546, 0.31411194801330566, 0.4108223021030426, 0.24251839518547058, 0.2901846170425415, 0.5523496866226196, 0.33918890357017517, 0.1530539095401764, -0.1733972281217575, -0.36309921741485596, -0.34409359097480774, -0.4479080140590668, -0.2795679271221161, -0.1929372102022171, -0.2175300419330597, -0.23673485219478607, 0.8166700005531311, 0.7628867030143738, -0.032200887799263, 0.03193163126707077, 0.39401355385780334, 0.34823447465896606, 0.6124328970909119, 0.1337396800518036, 0.4563907980918884, 0.20221036672592163, 0.02825108915567398, 0.306198388338089, 0.3718816637992859, 0.7522133588790894, 0.4903546869754791, 0.2134203165769577, 0.04895307123661041, 0.19544613361358643, 0.7073574662208557, 0.27899420261383057, 0.199391707777977, -0.14096584916114807, 0.2598380446434021, 0.6789013743400574, 0.4172546863555908, 0.4136947691440582, 0.2769979238510132, 0.20517730712890625, 0.7399945259094238, 0.2956504821777344, -0.05532291531562805, 0.018064336851239204, 0.26844337582588196, -0.02612438052892685, -0.10203592479228973, -0.6132853031158447, -0.49655207991600037, -0.34983035922050476, 0.09389165043830872, 0.04575878754258156, 0.12273699045181274, 0.021888330578804016, -0.11448296904563904, -0.09554524719715118, -0.19479532539844513, 0.007433956488966942, -0.17069996893405914, -0.2537040710449219, 0.2599771022796631, 0.2749587893486023, 0.5032963156700134, 0.1013190969824791, -0.047421861439943314, 0.33656731247901917, 0.48454123735427856, 0.30184534192085266, 0.2972860038280487, 0.2674316465854645, 0.0007139464723877609, -0.3278830349445343, -0.13160422444343567, -0.4284376800060272, -0.042078714817762375, -0.2562457025051117, -0.36198776960372925, 0.069119393825531, -0.17768652737140656, -0.17907443642616272, -0.0776936262845993, 0.07375674694776535, -0.1968255341053009, -0.42388612031936646, 0.026234213262796402, -0.044964179396629333, -0.21379399299621582, -0.10206837952136993, 0.44202449917793274, 0.36116448044776917, 0.11091142147779465, 0.06875235587358475, 0.30359527468681335, 0.10547467321157455, 0.33067765831947327, -0.0022088338155299425, 0.16352775692939758, 0.2776626646518707, 0.31311413645744324, -0.574201226234436, 0.11726140975952148, 0.2718256711959839, -0.010137686505913734, -0.01450252067297697, 0.28758901357650757, 0.050694167613983154, -0.11002487689256668, 0.07379867136478424, 0.13434121012687683, -0.2986641824245453, -0.21739625930786133, 0.18849912285804749, -0.10540289431810379, -0.2375895231962204, -0.00455492315813899, 0.028078120201826096, 0.20603317022323608, 0.3196670413017273, 0.11904653161764145, -0.19682593643665314, -0.04995017871260643, 0.057892587035894394, 0.055076900869607925, -0.49497658014297485, 0.6307231783866882, 0.6495628952980042, -0.15801136195659637, -0.3674555718898773, 0.49028122425079346, -0.05731608718633652, -0.2014514058828354, 0.04444221779704094, 0.3596840500831604, 0.3177565336227417, -0.1015213131904602, 0.10546126216650009, -0.14196768403053284, -0.3545111417770386, -0.30812206864356995, -0.22663292288780212, -0.27338019013404846, -0.14972643554210663, 0.016465291380882263, -0.20283323526382446, -0.19988209009170532, -0.031161395832896233, -0.0248679481446743, 0.1947561651468277, -0.5516748428344727, 0.21391235291957855, 0.5309484004974365, 0.3539126515388489, 0.45786401629447937, -0.24923278391361237, -0.17833194136619568, 0.12849478423595428, 0.31698644161224365, -0.24648602306842804, -0.19230087101459503, -0.21832209825515747, -0.07254590839147568, 0.2407916933298111, 0.3363162875175476, 0.11261474341154099, 0.06652826815843582, -0.413210391998291, -0.4745839536190033, -0.46330544352531433, 0.08265270292758942, 0.04535241425037384, -0.1587252914905548, -0.19387094676494598, -0.22088412940502167, -0.1302284449338913, 0.20126938819885254, 0.3063122630119324, 0.3249945640563965, 0.44720596075057983, 0.9380569458007812, -0.408407986164093, 0.42805734276771545, 0.16088995337486267, -0.42945703864097595, 0.3029070794582367, -0.519119381904602, -0.006608998402953148, 0.1421729475259781, 0.03249729797244072, 0.08039036393165588, -0.06225370615720749, 0.2019873410463333, 0.1858872026205063, -0.28084811568260193, -0.6488393545150757, -0.6927959322929382, -0.2793620228767395, 0.08540219068527222, -0.4462265372276306, -0.5870305895805359, -0.5118013024330139, -0.13948392868041992, -0.21127942204475403, -0.23680011928081512, 0.2137768715620041, 0.05217033997178078, 0.033379506319761276, 0.35280412435531616, -0.1314995288848877, 0.9849439859390259, -0.11082307994365692, -0.1940460205078125, -0.619812548160553, -0.35306814312934875, 0.43605342507362366, 0.22684746980667114, 0.491021066904068, -0.061449114233255386, 0.17333869636058807, 0.04450618103146553, 0.2236684262752533, -0.1412002444267273, -0.20947140455245972, -0.07737719267606735, 0.09231284260749817, -0.2986212372779846, -0.5708366632461548, -0.6774026155471802, -0.27790459990501404, -0.4116435945034027, -0.6171596050262451, 0.04033401235938072, 0.17108558118343353, 0.04574365168809891, 0.010537197813391685, -0.19809208810329437, 0.0756705105304718, -0.4293457567691803, -0.016900422051548958, 0.18698559701442719, 0.3272773027420044, -0.6379830837249756, 0.4195815920829773, 0.4125017523765564, 0.3398715853691101, -0.10331680625677109, -0.3921167850494385, 0.227701798081398, 0.21527743339538574, -0.18519669771194458, 0.16301916539669037, 0.39771768450737, -0.05522344261407852, -0.23095425963401794, -0.4925715923309326, -0.8033276200294495, -0.5954346060752869, -0.5258951783180237, -0.28222566843032837, -0.08973453938961029, -0.35804152488708496, -0.10183007270097733, -0.0745953842997551, -0.23130059242248535, 0.29948756098747253, -0.14251139760017395, 0.4890252351760864, 0.07389538735151291, 0.4025937020778656, -0.24711300432682037, 0.16653020679950714, 0.13121630251407623, -0.1652115136384964, 0.016588089987635612, -0.11515185236930847, 0.31157276034355164, -0.31622734665870667, -0.005908731371164322, 0.3791292607784271, 0.2083621621131897, 0.10896588116884232, 0.13117912411689758, -0.2389829158782959, -0.5127341747283936, -0.5783554911613464, -0.3114928603172302, -0.04085807502269745, -0.44673988223075867, -0.21471062302589417, -0.2168179750442505, 0.021577484905719757, -0.2597273290157318, -0.07528137415647507, 0.16019751131534576, 0.2946513891220093, -0.27358478307724, 0.08364199101924896, 0.5300037264823914, -0.22696147859096527, -0.2757668197154999, -0.27795761823654175, -0.3422347903251648, 0.18499410152435303, -0.10668090730905533, 0.00517919659614563, -0.13091102242469788, 0.32545745372772217, 0.3559768497943878, 0.3253612518310547, 0.3964129388332367, -0.3892759084701538, -0.3056970238685608, -0.334473580121994, -0.4048812985420227, 0.0335429348051548, -0.19185084104537964, -0.4275297522544861, -0.1087886169552803, -0.40586337447166443, -0.21506066620349884, 0.08165326714515686, -0.7229833602905273, -0.1666543185710907, -0.3910306692123413, 0.1430247724056244, 0.6891378164291382, -0.12388265132904053, -0.8086827993392944, -0.3080277740955353, -0.5008054375648499, -0.37470951676368713, -0.5029113292694092, 0.013911423273384571, 0.3099473714828491, 0.22996343672275543, 0.010911736637353897, 0.41326093673706055, 0.21635639667510986, -0.2522314488887787, -0.3911176323890686, -0.4385196566581726, -0.39405182003974915, -0.049138061702251434, -0.32381609082221985, -0.4159749150276184, 0.14307336509227753, -0.07280534505844116, 0.13266126811504364, 0.6770802140235901, 0.31385111808776855, -0.03983110934495926, -0.06468885391950607, 0.3888624608516693, 0.5090299248695374, -0.28929272294044495, -0.5700483322143555, -0.011818948201835155, -0.36637017130851746, -0.32192882895469666, -0.7235219478607178, -0.19659870862960815, -0.1371350735425949, -0.09341137111186981, -0.06419137865304947, 0.14249368011951447, -0.24399815499782562, -0.7312578558921814, -0.7057007551193237, -0.6042604446411133, -0.4073425233364105, -0.0021511188242584467, 0.26946553587913513, -0.054059118032455444, 0.2051974982023239, -0.49260932207107544, 0.1924845278263092, -1.0045744180679321, -0.5962523221969604, 0.007845476269721985, -0.4707667827606201, 0.21372100710868835, 0.38500621914863586, -0.09528633207082748, -0.5858555436134338, -0.5236995220184326, -0.23932002484798431, -0.027336301282048225, -0.4327748715877533, -0.6843425035476685, -0.6382197141647339, -0.49576863646507263, 0.09847525507211685, -0.07777506113052368, -0.8955733180046082, -0.7153935432434082, -0.8922483325004578, -0.4370116591453552, 0.026042675599455833, -0.019984539598226547, 0.12463252991437912, -0.42723459005355835, -0.3244773745536804, -0.5655718445777893, 0.39431050419807434, -0.7434836626052856, -0.6038766503334045, -0.010575777851045132, 0.22304216027259827, -0.40566486120224, 0.617802083492279, 0.050280552357435226, -0.427116334438324, -0.32820937037467957, -0.10356057435274124, -0.013981522060930729, -0.20997992157936096, -0.6430717706680298, -0.4044743776321411, -0.9483388066291809, -0.47875866293907166, -0.2918349802494049, -0.9583736062049866, -0.26852846145629883, -0.14374077320098877, 0.4500761330127716, 0.6253324151039124, 0.004806968383491039, 0.07746806740760803, -0.3898513615131378, -0.028925852850079536, 0.3865317404270172, 0.20850002765655518, -0.48071274161338806, 0.37945836782455444, 0.2010708898305893, -0.028873741626739502, 0.1716589480638504, 0.2085360884666443, 0.3992474377155304, -0.05887596309185028, 0.6733937859535217, 0.3223952353000641, 0.2520906925201416, 0.42553138732910156, 0.05161867290735245, -0.06217353790998459, -0.4093393385410309, 0.05926315486431122, -0.15835553407669067, 0.07481380552053452, 0.5958696007728577, 0.43310976028442383, 0.6626564860343933, 0.653956413269043, 0.1363927274942398, 0.7894556522369385, 0.6028841733932495, 0.34445059299468994, 0.0985468402504921, -0.11767761409282684, -0.045782122761011124, 0.568017303943634, 0.007919696159660816, 0.0726761743426323, 0.322725385427475, 0.3944331109523773, 1.0008817911148071, 0.12418254464864731, 0.3062037229537964, 1.052728533744812, 0.7154746651649475, 1.0836960077285767, 0.8876805901527405, 0.5729550123214722, 0.5403229594230652, 0.515143096446991, 0.9526419639587402, 1.2727155685424805, 1.1095894575119019, 0.34685131907463074, 0.7578528523445129, 0.31547126173973083, 0.26059961318969727, 0.6893911957740784, 0.10146249085664749, 0.2187749743461609, 0.3798602819442749, -0.22662188112735748, 0.24213527143001556, 0.9469524025917053, -0.052528709173202515, 0.015623560175299644, 0.16272114217281342, 0.5031791925430298, 0.5166735053062439, -0.2673329710960388, 0.2594939172267914, 0.11322761327028275, 0.6662746071815491, 0.6543144583702087, 0.7030443549156189, 0.5806558132171631, 0.9078119993209839, 0.967506468296051, 1.3516826629638672, 1.0535906553268433, 0.9397602081298828, 0.42416444420814514, 0.6480652093887329, 0.4877622425556183, 0.518359363079071, 0.18226096034049988, 0.3377925157546997, 0.17454227805137634, 0.5770067572593689, -0.1185394823551178, 0.47111499309539795, 0.565284252166748, -0.014872899278998375, 0.030602946877479553, -0.0366642028093338, 0.8443852663040161, 0.5317856669425964, -0.2844163477420807, 0.01737012155354023, -0.09251640737056732, 0.03426697477698326, 0.40411654114723206, 0.4486989974975586, 0.22450341284275055, 0.6198279857635498, 1.0539973974227905, 1.286979079246521, 1.064192295074463, 1.1894477605819702, 1.0045777559280396, 0.9810647964477539, 0.9230440855026245, 0.5339341163635254, 0.268218994140625, 0.24571505188941956, 0.07146138697862625, 0.5010119080543518, 0.26998403668403625, 0.6548449993133545, 0.6423207521438599, 0.008598178625106812, 0.01355963945388794, 0.04772419482469559, -0.05380277335643768, 0.37811514735221863, -0.4040474593639374, -0.37236136198043823, -0.03141375631093979, 0.01857038214802742, 0.062191467732191086, 0.17580655217170715, 0.0953657403588295, 0.257997065782547, 0.9180559515953064, 0.9444721937179565, 1.1615135669708252, 1.2149921655654907, 1.0406312942504883, 0.1798059642314911, 0.3858351409435272, 0.2731807231903076, -0.1074366644024849, -0.1284509301185608, 0.21208710968494415, -0.3649776875972748, -0.1162073165178299, 0.5014920234680176, 0.6759111285209656, -0.028807010501623154, 0.06634695082902908, -0.0679117739200592, -0.09212960302829742, -0.28636083006858826, -0.2246960699558258, 0.11543673276901245, 0.22826039791107178, -0.06572426110506058, 0.15008291602134705, 0.08348619192838669, -0.2634712755680084, -0.47819769382476807, 0.0931696891784668, 0.39782029390335083, 0.11625442653894424, 0.24763880670070648, 0.0904192179441452, -0.07828221470117569, 0.16237948834896088, 0.3537222445011139, 0.03930966556072235, -0.6671350002288818, -0.31126368045806885, 0.4853076636791229, 0.1406109482049942, -0.003286392195150256, 0.521126925945282, 0.05638829618692398, 0.004297859966754913, 0.0352473184466362, -0.06022261455655098, -0.5293260216712952, 0.3342756927013397, 0.1930726170539856, -0.5845385193824768, -0.07550379633903503, -0.302971214056015, -0.564199686050415, -0.26478782296180725, -0.1426316797733307, 0.01525141578167677, -0.2786746919155121, -1.0664631128311157, -1.0155847072601318, -0.7072862386703491, -0.11994490772485733, -0.0075866784900426865, -0.3250363767147064, -0.27894407510757446, 0.04515817016363144, 0.031972259283065796, -0.557335376739502, 0.08864064514636993, -0.012113160453736782, -0.025033410638570786, -0.05850157141685486, -0.0035698488354682922, -0.05447525903582573, -0.013393223285675049, 0.025225289165973663, -0.08975234627723694, -0.1331690102815628, -0.07943013310432434, -0.5110660791397095, -0.6175309419631958, -0.6871343851089478, -0.9264799952507019, -0.35105273127555847, -0.08045905083417892, -1.2984917163848877, -1.5936232805252075, -0.8004270195960999, -1.0515413284301758, -1.555756688117981, -0.949184238910675, -0.793563961982727, -0.7896889448165894, -0.6172522902488708, -0.13257403671741486, -0.2114991992712021, 0.07167413085699081, 0.07241817563772202, -0.009615160524845123, 0.045275457203388214], [-0.08294974267482758, -0.06116905435919762, 0.04880920797586441, 0.08117067068815231, -0.02254509925842285, -0.004055626690387726, 0.0373598113656044, -0.018567129969596863, -0.05970652028918266, -0.0033596307039260864, -0.06878912448883057, 0.042384497821331024, 0.1279737800359726, 0.20730765163898468, 0.022069187834858894, -0.039956651628017426, -0.06808289885520935, -0.040415532886981964, 0.007955975830554962, -0.05276525020599365, 0.05461423844099045, -0.015833884477615356, 0.030714161694049835, 0.02503284066915512, 0.0074088722467422485, 0.03941138833761215, -0.03394802659749985, -0.028123419731855392, -0.0033917054533958435, -0.004153020679950714, 0.03750471770763397, -0.0734572559595108, 0.1685217171907425, 0.3057129681110382, 0.7083907723426819, 0.7707350850105286, 0.5818831324577332, 0.9262531995773315, 1.0102049112319946, 1.3867040872573853, 1.3646525144577026, 1.2916405200958252, 0.04159368947148323, 0.7236777544021606, 0.673090398311615, 0.8554905652999878, 0.7610781192779541, 0.33824026584625244, 0.6368357539176941, 0.6319891810417175, 0.7006629705429077, 0.5316492319107056, 0.07032866030931473, -0.05981408804655075, 0.04543439298868179, 0.016776002943515778, 0.03931986540555954, 0.08146914094686508, 0.013051255606114864, 0.39306560158729553, 0.415703684091568, 0.3879357874393463, 0.554348349571228, 1.1930749416351318, 1.239212155342102, 1.3283907175064087, 1.5217427015304565, 2.6440420150756836, 1.3967105150222778, 0.8907861709594727, 1.2384788990020752, 0.5257803797721863, 0.040137212723493576, -0.39851683378219604, -0.1476539820432663, 0.95713210105896, 0.45262154936790466, 0.03404320403933525, -0.06460019201040268, 0.7256826758384705, 0.6546183228492737, 0.29524344205856323, -0.051886193454265594, 0.007640033960342407, -0.02522604539990425, -0.05444670468568802, -0.09858328849077225, 0.6090989112854004, 0.2029017060995102, 0.9045724272727966, 1.1637699604034424, 1.6247268915176392, 1.33267343044281, 1.26442289352417, 1.0208415985107422, 0.8673574328422546, 1.095626711845398, 2.0825889110565186, 1.216687798500061, 0.7698240280151367, 0.4025506377220154, -0.3338147699832916, -0.9004035592079163, -0.560802698135376, -0.47777530550956726, -0.6964341998100281, -0.5433186888694763, -0.39096495509147644, -0.31726354360580444, 0.1619936227798462, -0.2004808634519577, 0.011867210268974304, -0.06454911082983017, 0.12188159674406052, 0.1763303279876709, -0.19899700582027435, -0.28354573249816895, 0.2461693435907364, 0.977303147315979, 1.2690505981445312, 1.4185714721679688, 1.7700902223587036, 0.712329626083374, 0.2592552900314331, 0.7590816617012024, 0.6393649578094482, 0.7057925462722778, 0.5339435935020447, 0.2629419267177582, 0.373130738735199, -0.025076964870095253, -0.42508748173713684, -0.11414919793605804, -0.5949327349662781, -0.9003081321716309, -0.8291400074958801, -0.8314346075057983, -0.1759214997291565, 0.3450601100921631, 0.7430047988891602, -0.026893623173236847, -0.021543122828006744, 0.3754828870296478, 0.5240752100944519, 0.12194003909826279, -0.28005748987197876, 0.2353636473417282, -0.26922208070755005, -0.6240215301513672, -0.19690126180648804, 0.007879826240241528, 0.15924546122550964, 0.169602170586586, 0.19727163016796112, -0.0232254546135664, 0.019393112510442734, 0.07180295139551163, -0.012847987934947014, 0.04015686735510826, 0.2088039666414261, 0.01762644201517105, 0.18329431116580963, 0.052677370607852936, -0.035504840314388275, -0.48740819096565247, -0.15314653515815735, 0.33391889929771423, 0.36647114157676697, -0.049764715135097504, 0.18728706240653992, -0.18838009238243103, 0.0461578443646431, -0.02791121043264866, 0.34964004158973694, -0.04016146436333656, -0.11044582724571228, -0.09869730472564697, 0.04116656631231308, -0.05103547126054764, -0.03224201872944832, 0.008707323111593723, -0.09914640337228775, -0.12090335041284561, 0.2672770023345947, 0.19089752435684204, -0.08039739727973938, -0.13740283250808716, -0.31999480724334717, 0.054228849709033966, -0.25885653495788574, -0.13358569145202637, 0.13270865380764008, 0.02334689348936081, 0.017626632004976273, 0.08408238738775253, -0.19318318367004395, 0.05884396284818649, -0.48383304476737976, -0.5785401463508606, -0.033711813390254974, 0.41170534491539, 0.24491076171398163, -0.2642563581466675, -0.04372463375329971, -0.05166710168123245, -0.14690351486206055, -0.040385402739048004, 0.0918179526925087, -0.06266766041517258, 0.05800554156303406, 0.20272494852542877, 0.4665640890598297, -0.026822658255696297, -0.17148646712303162, -0.1335344761610031, -0.4011111557483673, -0.3211621046066284, -0.43452125787734985, 0.013392899185419083, -0.0653814896941185, 0.0346594862639904, 0.44924041628837585, -0.12556278705596924, 0.0811895951628685, 0.4578106701374054, -0.5121095776557922, -0.009570173919200897, -0.0510840117931366, -0.3971352279186249, -0.5252945423126221, -0.20634078979492188, 0.15463607013225555, -0.06593092530965805, 0.04565015807747841, 0.20598718523979187, -0.006684853229671717, 0.3054318428039551, 0.5479283332824707, 0.29730024933815, -0.01006537675857544, -0.2200758010149002, -0.20498326420783997, -0.008922187611460686, -0.20809724926948547, -0.06442702561616898, -0.14514900743961334, 0.46546053886413574, 0.02127397060394287, -0.22151432931423187, 0.46492019295692444, 0.3474555015563965, 0.6557047367095947, 0.04010012373328209, -0.3722414970397949, 0.2719573974609375, -0.48408129811286926, -0.4850335419178009, -0.2543025612831116, -0.08428136259317398, 0.1772361397743225, -0.13310948014259338, -0.16859762370586395, -0.13525861501693726, 0.1340743601322174, 0.0028749017510563135, 0.16370046138763428, 0.10634451359510422, 0.07566449791193008, 0.17310884594917297, -0.34988150000572205, -0.18640433251857758, -0.2711186110973358, -0.26703429222106934, -0.09618182480335236, -0.17885920405387878, -0.3403376340866089, -0.0431581549346447, 0.04001890867948532, 0.055395301431417465, -0.5097423791885376, -0.026804916560649872, 0.09215744584798813, 0.014856304973363876, -0.31404194235801697, 0.6901715993881226, -0.08532572537660599, 0.1567220687866211, 0.29664987325668335, -0.027874013409018517, -0.31268396973609924, -0.02879060059785843, 0.10785579681396484, 0.08099180459976196, -0.12315354496240616, 0.3401007652282715, 0.279310941696167, 0.06373190879821777, 0.20373861491680145, -0.18876317143440247, -0.117823027074337, -0.03395098075270653, -0.031882401555776596, 0.14514604210853577, -0.00992844719439745, 0.9442581534385681, -0.0996084213256836, -0.21029895544052124, -0.3027282655239105, -0.25237423181533813, 0.6411210894584656, -0.3956185281276703, 0.3920271396636963, 0.3548670709133148, -0.3256088197231293, 0.10399659723043442, -0.04405253753066063, -0.15343356132507324, -0.31199005246162415, -0.09280147403478622, -0.01077190414071083, -0.11589530855417252, -0.00919850543141365, 0.20455984771251678, 0.04781699925661087, -0.13461247086524963, -0.3924589157104492, -0.0396709069609642, 0.23098954558372498, 0.24389904737472534, 0.0373346246778965, -0.4544190764427185, -0.1277683526277542, 0.6589177846908569, 0.24762891232967377, -0.17838145792484283, -0.3638956844806671, -0.1691434234380722, 0.41740596294403076, -0.20402327179908752, 0.09604356437921524, 0.16812889277935028, 0.2636348009109497, -0.09049605578184128, -0.2345067411661148, -0.22378143668174744, -0.019941335543990135, -0.08110024780035019, 0.23569297790527344, 0.4541628360748291, 0.49846330285072327, 0.2564491927623749, -0.3109613060951233, -0.27036190032958984, -0.31486180424690247, 0.11366799473762512, 0.2904604375362396, 0.2640027105808258, 0.30850061774253845, -0.1760360598564148, -0.18941915035247803, 0.2069912701845169, -0.06623305380344391, -0.40405377745628357, -0.5045357942581177, 0.1664646416902542, 0.6938496232032776, -0.5039627552032471, -0.20750926434993744, -0.16786985099315643, 0.3840973973274231, 0.13782121241092682, -0.14020490646362305, 0.1983841061592102, 0.5041754245758057, -0.05159560218453407, 0.24922588467597961, 0.5824794173240662, 0.4622800946235657, -0.09699288755655289, -0.23381875455379486, -0.372546911239624, -0.29341670870780945, 0.22846747934818268, 0.47633013129234314, -0.04725007712841034, -0.031156599521636963, 0.025653142482042313, 0.5076092481613159, 0.09843625128269196, -0.1170881986618042, 0.5908852219581604, 0.4503878057003021, 0.3370283246040344, 0.4378521740436554, -0.4310857355594635, -0.6989604234695435, -0.38590142130851746, 0.20930495858192444, 0.5582965612411499, -0.24204620718955994, 0.05917162820696831, 0.020551523193717003, -0.1263301819562912, 0.49735304713249207, 0.6400592923164368, 0.5567051768302917, 0.32042109966278076, -0.02304156869649887, -0.19497424364089966, -0.15462826192378998, 0.06712498515844345, -0.08582298457622528, -0.22343756258487701, 0.10815759748220444, 0.22401297092437744, 0.08293923735618591, 0.15270018577575684, 0.7614694237709045, 0.9801158308982849, 0.4274735152721405, 0.056383658200502396, 0.29769277572631836, 0.21625003218650818, -0.43992727994918823, -0.044131502509117126, -0.21044211089611053, -0.022695211693644524, -0.2038177251815796, -0.4861997663974762, -0.4620940387248993, -0.4232470691204071, -0.47926002740859985, 0.17229528725147247, 0.722557544708252, 0.4599548280239105, -0.09544648230075836, -0.05443583056330681, -0.26316502690315247, -0.10420136898756027, -0.26773715019226074, -0.5311940312385559, -0.3124490976333618, 0.009956007823348045, 0.00624091736972332, 0.10122396796941757, 0.845361590385437, 0.310692697763443, -0.10158470273017883, -0.4471857249736786, -0.11321339011192322, 0.03814026713371277, -0.017002899199724197, 0.04119943454861641, -0.35358065366744995, -0.4361617863178253, -0.41704484820365906, -0.9332569241523743, -0.7917302250862122, -0.6797100305557251, -0.5900436639785767, -0.4474051594734192, 0.24968144297599792, 0.03571702912449837, -0.06298774480819702, -0.1121448203921318, -0.1768384575843811, -0.2650130093097687, -0.43276137113571167, -0.41374361515045166, -0.38053300976753235, -0.06074066832661629, 0.08120568841695786, 0.05999806895852089, 0.9976908564567566, 0.6876961588859558, 0.6072834134101868, -0.07518327236175537, -0.11031973361968994, -0.3522123694419861, -0.03142181411385536, 0.37946873903274536, -0.13310161232948303, -0.47070908546447754, -0.6752305030822754, -0.41734954714775085, -0.33547160029411316, -0.7891361117362976, -0.6494137644767761, -0.47439858317375183, -0.14340145885944366, -0.30792510509490967, -0.5063168406486511, -0.006550638470798731, -0.10478934645652771, -0.21623684465885162, -0.05075995251536369, 0.024451468139886856, 0.09087448567152023, -0.22026048600673676, 0.04884409159421921, 0.20983636379241943, -0.12667657434940338, 0.07391659170389175, 0.580038845539093, -0.2359093576669693, 0.2825840413570404, -0.6296703219413757, 0.5920342803001404, 0.338686466217041, 0.01903497613966465, -0.2083199918270111, 0.024929484352469444, 0.6311852335929871, 0.3941703140735626, 0.024314034730196, 0.09281633794307709, 0.4200155436992645, 0.12675204873085022, -0.32850655913352966, -0.15230441093444824, -0.2371547669172287, 0.05495791509747505, 0.216425821185112, 0.12541760504245758, 0.037761490792036057, 0.10924792289733887, 0.441290944814682, 0.05399877205491066, 0.8799982666969299, 0.1408313363790512, -0.2985815405845642, -0.3861728012561798, -0.057806678116321564, -0.5186201930046082, -0.6103138327598572, 0.51238614320755, 0.2934463620185852, 0.4012587070465088, 0.19649961590766907, 1.3101649284362793, 1.736630916595459, 1.6500588655471802, 1.643209457397461, 1.2196615934371948, 0.996300220489502, 0.626634955406189, 0.11664491891860962, 0.06524768471717834, -0.09264486283063889, 0.13895845413208008, 0.4122146964073181, 0.09966573864221573, 0.35133352875709534, 0.37442508339881897, 0.8745223879814148, 0.7977409958839417, 0.4463087320327759, -0.2476876974105835, 0.6059536337852478, -0.13955533504486084, -0.00167170912027359, 0.36383599042892456, -0.4053468406200409, -0.05498426407575607, 0.7809394598007202, 0.7489272356033325, 1.073428988456726, 2.3238377571105957, 2.0068750381469727, 2.115938663482666, 2.3557074069976807, 1.9863301515579224, 1.4147366285324097, 0.6585443019866943, 0.24396821856498718, 0.14899842441082, -0.30762743949890137, 0.10775879770517349, 0.2843751013278961, -0.00846895296126604, 0.18296559154987335, 0.25651609897613525, 0.09703674167394638, 0.2690604031085968, 0.17218449711799622, -0.34114566445350647, 0.6893996596336365, -0.46783438324928284, -0.07743784040212631, 0.10970389097929001, -0.3326389789581299, -0.22243446111679077, 0.1847548484802246, 0.004275966435670853, 0.6011519432067871, 0.5711755156517029, 0.7415704727172852, 0.8612271547317505, 0.8694743514060974, 0.843431293964386, 0.5608757734298706, 0.47052547335624695, 0.4094509482383728, 0.1741633266210556, -0.20898590981960297, 0.24729903042316437, -0.051359277218580246, -0.047106657177209854, -0.08754468709230423, -0.36564913392066956, 0.09640534222126007, 0.49831026792526245, -0.2686941921710968, -0.6525578498840332, 0.17744143307209015, -0.08542019128799438, 0.04278681054711342, 0.04506681486964226, 0.02756100334227085, -0.23101286590099335, 0.13477948307991028, -0.08444042503833771, -0.3480408489704132, -0.11727628111839294, -0.21203793585300446, -0.10934591293334961, -0.45627132058143616, -0.1707533597946167, -0.047452446073293686, 0.22610904276371002, 0.15041668713092804, 0.16723604500293732, 0.02912248484790325, 0.026919985190033913, 0.030331263318657875, 0.24352099001407623, -0.0513378381729126, 0.3592432141304016, -0.2431403547525406, 0.17064782977104187, -0.33274322748184204, -0.6611672043800354, -0.32079410552978516, 0.07313290983438492, -0.031264763325452805, 0.045707978308200836, 1.0639241933822632, 0.7172845602035522, -0.09330155700445175, -0.008181501179933548, -0.38249072432518005, -0.3957377076148987, -0.13341081142425537, -0.40419986844062805, -0.5056624412536621, -0.09810379147529602, -0.3510721027851105, -0.19314345717430115, -0.017969416454434395, 0.059007130563259125, 0.21473270654678345, 0.25544142723083496, 0.47752994298934937, 0.3956606686115265, 0.5015566945075989, 0.19023820757865906, -0.173258975148201, 0.00028524064691737294, 0.06405839323997498, -0.5019904971122742, -0.3376832604408264, -0.009334422647953033, -0.027074694633483887, 0.07553058117628098, 0.0352315753698349, 0.46906206011772156, 0.19365599751472473, -0.18373478949069977, -0.022492000833153725, -0.35795852541923523, -0.19125661253929138, -0.35966435074806213, -0.36514854431152344, 0.03364095464348793, 0.042795587331056595, -0.12126652896404266, 0.2321944385766983, 0.14499497413635254, 0.47070416808128357, -0.05238215625286102, 0.3445674180984497, 0.5124480128288269, 0.6477881073951721, 0.13684235513210297, 0.33667951822280884, -0.6339558959007263, -0.3475351333618164, 0.6980757117271423, 0.7072127461433411, 0.02506331354379654, 0.05595477670431137, 0.022277913987636566, 0.32967278361320496, -0.06304984539747238, -0.04965841397643089, -0.380711168050766, 0.024515610188245773, -0.0960807278752327, -0.11842508614063263, -0.10245484113693237, 0.14396122097969055, -0.05317286401987076, -0.21416878700256348, -0.1441531479358673, -0.1324315369129181, 0.12635815143585205, 0.06067275255918503, 0.09299249202013016, 0.2703897953033447, 0.5223903656005859, 0.573174238204956, 0.408700168132782, 0.13745392858982086, 0.032728906720876694, -0.4191378057003021, 0.2646137475967407, 0.43482130765914917, 0.07170885056257248, -0.007158897817134857, 0.03536028414964676, 0.04004063457250595, -0.34400326013565063, 0.28809165954589844, -0.5889859199523926, -0.6436229348182678, -0.5404576659202576, -0.5796594619750977, -0.9595669507980347, -0.4715540409088135, -0.7733030915260315, -0.658790111541748, -1.0145928859710693, -1.2413066625595093, -1.3460172414779663, -0.666519820690155, -0.14822208881378174, -0.010351724922657013, -0.011080918833613396, -0.3608676791191101, -0.4169544279575348, -0.14006121456623077, -0.30196571350097656, 0.12933678925037384, -0.16733545064926147, 0.03187984973192215, 0.08248618990182877, -0.04788980633020401, -0.0635615885257721, -0.032134976238012314, -0.04254201054573059, 0.36438798904418945, 0.04965885728597641, -0.0038095349445939064, -0.17909660935401917, -0.3158521354198456, -0.2874041199684143, -0.7172066569328308, 0.12621302902698517, 0.36756283044815063, -0.10518188029527664, -0.08270081877708435, 0.41884952783584595, -0.03603639453649521, -0.17895959317684174, -0.4039832353591919, -0.3569144010543823, -0.13184002041816711, 0.030566062778234482, 0.07365147024393082, -0.2969381809234619, -0.03738163039088249, 0.08432864397764206, 0.0849015936255455, 0.053592659533023834], [-0.0408783033490181, 0.07205937057733536, -0.027836620807647705, 0.048491381108760834, 0.03866700083017349, -0.07026030123233795, 0.003036215901374817, -0.06357225775718689, -0.0491790845990181, -0.005360588431358337, -0.040148574858903885, -0.03289901465177536, -0.0045192358084023, -0.13917411863803864, -0.11029276251792908, 0.041105423122644424, 0.07181107252836227, 0.055864058434963226, 0.053339339792728424, -0.030790243297815323, -0.07335851341485977, -0.05552830174565315, -0.0734269842505455, -0.05117953196167946, -0.04088680073618889, 0.004084102809429169, -0.031207550317049026, -0.003626324236392975, -0.0820302665233612, -0.07540761679410934, 0.06151210516691208, -0.011030323803424835, -0.11467653512954712, -0.1242825910449028, 0.010433298535645008, 0.044008221477270126, 0.059156399220228195, 0.16565920412540436, -0.08801175653934479, -0.4226421117782593, -0.2831610441207886, -0.1867274045944214, 0.2089308500289917, 0.5151652097702026, 0.1919935792684555, 0.036728598177433014, 0.3846963346004486, 0.21662908792495728, 0.09274811297655106, 0.17823804914951324, -0.025072937831282616, -0.06136421486735344, 0.00841047614812851, 0.06736939400434494, 0.021153144538402557, -0.01879509538412094, 0.04143521934747696, 0.03685860335826874, -0.01511256955564022, -0.47858527302742004, -0.5208834409713745, 0.5339120626449585, -0.09569860994815826, 0.5515567660331726, -0.11262523382902145, -0.3210509717464447, -0.21607673168182373, 0.012117055244743824, -0.5680661201477051, -0.591414749622345, -0.2887963354587555, 0.31142669916152954, 0.6765704154968262, 0.08647988736629486, 0.21879029273986816, 0.31468138098716736, 0.3686813414096832, -0.15866239368915558, 0.41596004366874695, 0.32828640937805176, -0.5863543152809143, -0.12523674964904785, -0.010835990309715271, -0.061363328248262405, 0.027021348476409912, -0.02577652782201767, 0.08831094950437546, -0.3169595003128052, 0.31666260957717896, 0.04995604231953621, -0.03550238907337189, 0.3986886739730835, 0.005764958914369345, -0.12154905498027802, -0.291353702545166, -0.4292818009853363, -0.04826302453875542, -0.165953129529953, -0.12879344820976257, -0.16582903265953064, -0.28764671087265015, -0.520376980304718, -0.08704344928264618, 0.33221811056137085, 0.1752377450466156, -0.10371536016464233, 0.2605600357055664, -0.182014599442482, 0.20910045504570007, -0.3011400103569031, 0.4931870400905609, 0.06436114758253098, 0.0074208080768585205, -0.17133380472660065, -0.27327829599380493, 0.3818548321723938, 0.22518141567707062, -0.4087221920490265, -0.9215702414512634, -0.502950131893158, -0.2540701627731323, -0.6766749620437622, -0.4576263725757599, -0.381468802690506, -0.40830162167549133, -0.33199986815452576, -0.059515032917261124, 0.08128363639116287, -0.01619190350174904, -0.02027924358844757, 0.004404957871884108, 0.16149504482746124, -0.05241284891963005, 0.09124356508255005, 0.47112002968788147, -0.033462099730968475, 0.899687647819519, 0.28743529319763184, 0.6042852401733398, -0.41138046979904175, 0.024423032999038696, 0.07197835296392441, -0.32466986775398254, -0.44506096839904785, -0.5038430690765381, -0.5880317091941833, -0.09324106574058533, -0.06226792931556702, 0.02692989446222782, -0.2650442123413086, -0.3597766160964966, -0.14791034162044525, -0.10545948892831802, -0.16715461015701294, 0.12894010543823242, 0.09597617387771606, -0.2503369450569153, -0.05649251863360405, -0.2345123291015625, -0.17729894816875458, 0.0258113294839859, 0.0939033254981041, 0.42872074246406555, 0.20709148049354553, 0.2871335744857788, 0.7206785082817078, 0.8352293372154236, -0.03685570880770683, 0.0068021416664123535, -0.13699373602867126, -0.19653290510177612, -0.3342374563217163, 0.37717869877815247, 0.2392909824848175, -0.053147878497838974, 0.09003075957298279, -0.31588172912597656, -0.2412504106760025, -0.4469348192214966, -0.35417595505714417, -0.19560247659683228, -0.1048286035656929, 0.12136070430278778, 0.12111637741327286, 0.11300621181726456, -0.14338408410549164, -0.254264235496521, -0.5055838823318481, -0.11742021143436432, 0.1465749889612198, -0.3813324272632599, -0.11299427598714828, 0.06217491626739502, 0.5521301031112671, 0.3618309795856476, 0.027464361861348152, -0.049532629549503326, -0.34525489807128906, 0.33652961254119873, -0.08754576742649078, -0.5048843026161194, -0.2862725257873535, -0.43282729387283325, -0.2914738357067108, -0.07363615930080414, -0.09797204285860062, -0.28799596428871155, -0.45554590225219727, -0.3061083257198334, -0.09555267542600632, 0.21227945387363434, 0.018472829833626747, 0.37650105357170105, 0.18928702175617218, -0.19203490018844604, -0.14034031331539154, -0.0833672285079956, -0.44228872656822205, -0.12684808671474457, 0.18677425384521484, -0.6709320545196533, 0.37362226843833923, 1.0814131498336792, -0.25434979796409607, 0.07940353453159332, -0.48307445645332336, 0.19913095235824585, 0.1902991682291031, -0.7909974455833435, -0.18474435806274414, -0.18614304065704346, -0.1713886260986328, -0.005137450527399778, -0.079420305788517, -0.23930853605270386, 0.037019550800323486, 0.21459147334098816, 0.3958788514137268, 0.36150816082954407, 0.3385610282421112, 0.07119276374578476, -0.34028559923171997, -0.24411225318908691, -0.006545644719153643, -0.17436498403549194, -0.20781216025352478, -0.08761100471019745, 0.061519596725702286, -0.5579482316970825, 0.09298872202634811, 1.4472568035125732, -0.11564125865697861, -0.1592085361480713, -0.18690034747123718, -0.39441588521003723, 0.6661946773529053, -0.6822201013565063, -0.7537170052528381, -0.31021565198898315, 0.056293755769729614, 0.354562371969223, 0.33764219284057617, 0.1476900577545166, 0.7666934132575989, 0.9247090220451355, 0.7867466807365417, 1.0922088623046875, 0.6551181077957153, 0.25981882214546204, -0.17748497426509857, -0.3415006697177887, -0.46467387676239014, -0.27067577838897705, -0.10457094013690948, -0.005024089477956295, 0.020176513120532036, -0.21387824416160583, 0.058163274079561234, 0.702924907207489, 0.014730100519955158, -0.09066767990589142, 0.03753819316625595, -0.33425962924957275, 0.4455815553665161, -0.14477336406707764, -0.6832769513130188, -0.2628116011619568, 0.4194630980491638, 0.5654426217079163, 0.5816516876220703, 0.6402906775474548, 0.42171424627304077, 0.6523401737213135, 0.8856344223022461, 0.7877998948097229, 1.1534267663955688, 0.5812056064605713, -0.09927263110876083, -0.15829287469387054, -0.39674845337867737, 0.09976903349161148, -0.44529449939727783, -0.008098085410892963, 0.023663410916924477, -0.13990134000778198, 0.10791459679603577, -0.01938621886074543, -0.16855815052986145, -0.057265691459178925, -0.4904769957065582, 0.12208010256290436, 0.24752512574195862, -0.1744486391544342, -0.15549953281879425, 0.26272323727607727, 0.5241498947143555, 0.3140154182910919, 0.5014480948448181, 0.5902541279792786, 0.18405531346797943, 0.3723272979259491, 0.4707987606525421, 0.8896149396896362, 1.2581559419631958, 1.24257493019104, 0.6663066148757935, 0.040067244321107864, -0.23609836399555206, -0.1492537260055542, -0.4212265610694885, 0.028612706810235977, 0.0448654368519783, -0.41970083117485046, 0.2528538405895233, 0.9205878973007202, 0.7022961378097534, -0.03563217446208, -0.5830889344215393, -0.3213018774986267, -0.026623662561178207, 0.20295855402946472, 0.3682021200656891, 0.5243673920631409, 0.547624409198761, -0.1799621880054474, 0.02881566435098648, 0.20459505915641785, -0.016274457797408104, 0.17882537841796875, 0.5371719002723694, 1.0719172954559326, 1.5735440254211426, 1.3390227556228638, 0.5775202512741089, 0.11352216452360153, -0.13599611818790436, -0.09549781680107117, -0.5446563363075256, -0.22044511139392853, 0.5174582600593567, -0.5382479429244995, 0.26200225949287415, 0.767106294631958, 0.5269162058830261, -0.09262243658304214, -0.6525367498397827, -0.6905938386917114, -0.08865617215633392, 0.020082227885723114, -0.0062896269373595715, 0.07362758368253708, -0.2744690179824829, -0.14922241866588593, -0.3209914267063141, 0.3322628140449524, 0.2219274938106537, 0.455151230096817, 0.4378218650817871, 0.6819648146629333, 1.1401900053024292, 1.1843652725219727, 0.4593081474304199, 0.2207239419221878, -0.29451143741607666, -0.1611315906047821, -0.25869783759117126, -0.4178740978240967, -0.05891230329871178, -0.16291441023349762, 0.5775489211082458, 0.5618541240692139, -0.29314959049224854, 0.35037946701049805, -0.014483103528618813, -0.017414283007383347, -0.16263942420482635, 0.18133947253227234, -0.16755135357379913, -0.13169589638710022, -0.37068596482276917, -0.15919454395771027, -0.3504893183708191, 0.32868731021881104, 0.34594130516052246, 0.42128267884254456, 0.23625575006008148, 0.42296555638313293, 0.7384145855903625, 0.7331249117851257, 0.3805985450744629, 0.16197249293327332, -0.1226181909441948, -0.2978735566139221, -0.3005136549472809, 0.025107618421316147, 0.17384593188762665, -0.008395950309932232, 0.5401651263237, 0.07160694152116776, -0.37512534856796265, 0.26556098461151123, 0.04115183278918266, -0.12308162450790405, 0.2045840620994568, 0.5661433935165405, 0.02970588393509388, 0.12452232837677002, -0.24125266075134277, -0.06672581285238266, -0.40615931153297424, 0.016784504055976868, 0.3005204498767853, 0.5098916888237, 0.33280429244041443, 0.6564158201217651, 1.0586563348770142, 0.6249688267707825, 0.17928467690944672, -0.024108953773975372, -0.4589439630508423, -0.3167549669742584, -0.08315914869308472, 0.20662900805473328, 0.08540111780166626, 0.29020968079566956, 0.005056019406765699, -0.022073786705732346, -0.21091553568840027, -0.11107010394334793, -0.17156554758548737, -0.08532048761844635, 0.3767048418521881, 0.17626000940799713, 0.0919024646282196, -0.18414945900440216, -0.1649826020002365, -0.07493440806865692, 0.053228266537189484, 0.24395310878753662, 0.24309833347797394, 0.4246419072151184, 0.4542136490345001, 0.872498631477356, 0.949151873588562, 0.7694544792175293, -0.042285989969968796, -0.43376901745796204, -0.6414228081703186, 0.03855258598923683, -0.2563129961490631, 0.13845881819725037, 0.4365362823009491, 0.8120219707489014, -0.08351405709981918, -0.6595104336738586, -0.47796881198883057, 0.013681024312973022, -0.03821006044745445, -0.4592660069465637, 0.1586177945137024, -0.6087579131126404, -0.11596132069826126, -0.12370242178440094, -0.04606355354189873, -0.04686189442873001, -0.10171808302402496, 0.05901112034916878, 0.2789872884750366, 0.49916717410087585, 0.5241930484771729, 1.0217585563659668, 0.8559040427207947, 0.3213919401168823, -0.20250211656093597, -0.275794118642807, -0.36746373772621155, 0.23595109581947327, 0.28274306654930115, 0.6718629002571106, 0.48994380235671997, 0.16007612645626068, -0.6907243728637695, -0.7614258527755737, -1.0935641527175903, 0.08581377565860748, -0.31233730912208557, -0.564785897731781, -0.22142575681209564, -0.09333294630050659, -0.046563759446144104, -0.4162953495979309, -0.1683708131313324, -0.44601619243621826, -0.3179428279399872, -0.1078115776181221, 0.5255491137504578, 0.4031674265861511, 0.8174809217453003, 0.5811977982521057, 0.19491524994373322, -0.257034569978714, -0.24659813940525055, -0.27269691228866577, -0.17932619154453278, 0.024200621992349625, -0.14086727797985077, 0.03895433619618416, -0.023261060938239098, 0.49431076645851135, -0.8736240267753601, -0.5038920044898987, -0.5582194924354553, 0.11414418369531631, -0.3276396691799164, 0.4415578246116638, 0.002892258809879422, 0.16695894300937653, -0.08960383385419846, 0.015446188859641552, -0.14334961771965027, -0.2544879615306854, -0.1489505171775818, -0.22776168584823608, 0.11759912967681885, 0.3552883565425873, 0.2519775629043579, 0.23874539136886597, -0.09397118538618088, -0.15956412255764008, -0.16288015246391296, -0.13444842398166656, 0.07504279911518097, 0.10958424210548401, -0.2564505934715271, -0.33634063601493835, 0.4181008040904999, 0.4868282079696655, 0.009040530771017075, -1.5056625604629517, -0.20700983703136444, -0.06608548015356064, -0.07564260810613632, -0.18069033324718475, -0.3435738980770111, 0.1527564823627472, -0.5081621408462524, -0.1858997493982315, -0.05838689208030701, -0.00953224953263998, -0.17377641797065735, -0.49725985527038574, -0.010990146547555923, -0.06945209205150604, -0.06944283097982407, -0.26895102858543396, -0.5288688540458679, -0.19518809020519257, 0.14127540588378906, 0.37761878967285156, 0.08402567356824875, 0.03210990130901337, -0.3459171950817108, -0.11962030082941055, -0.4070248305797577, -0.09188298135995865, 0.12607912719249725, -0.5971154570579529, 0.2772413194179535, 0.13004887104034424, -0.21912701427936554, -0.4183754026889801, -0.6529532670974731, -0.034624435007572174, -0.08675079792737961, 0.19282963871955872, 0.37258338928222656, 0.21721522510051727, 0.10134349018335342, -0.15540359914302826, -0.12197481095790863, -0.013118879869580269, 0.11969028413295746, -0.22360005974769592, -0.3636021614074707, -0.16515415906906128, -0.13061797618865967, 0.10128582268953323, -0.20192670822143555, 0.055703070014715195, 0.151888906955719, -0.2554023861885071, -0.6165118217468262, 0.02796049974858761, -0.09127102047204971, -0.5858011245727539, -0.15636272728443146, 0.0761224627494812, 0.012527734972536564, -0.30769944190979004, -0.07388008385896683, 0.005027445964515209, -0.04414277523756027, 0.0733393207192421, 0.12750792503356934, -0.08906501531600952, -0.03960020840167999, -0.15601085126399994, -0.30769339203834534, -0.38010838627815247, -0.004047582391649485, 0.2251581996679306, 0.25771161913871765, -0.0831696018576622, -0.20136785507202148, -0.11970061808824539, 0.2890516221523285, 0.2402334064245224, -0.04852558299899101, -0.3046751916408539, -0.44838815927505493, -0.7187671065330505, -0.26234114170074463, 0.4326654374599457, -0.1405140459537506, 0.05372671037912369, 0.0634305402636528, -0.19056040048599243, 0.28872328996658325, 0.2802489995956421, -0.6928174495697021, -0.42379653453826904, -0.16642650961875916, -0.3506816029548645, -0.20148330926895142, -0.1692400723695755, -0.6174066066741943, -0.3513980805873871, -0.0273861363530159, 0.2110765129327774, 0.3097546696662903, 0.12083013355731964, -0.11071089655160904, 0.2655956745147705, 0.244009867310524, 0.15817497670650482, -0.39909234642982483, -1.0141199827194214, -0.836330771446228, -0.7260013222694397, -0.33081313967704773, 0.6004418134689331, -0.0825948715209961, -0.030673976987600327, -0.08582689613103867, 0.10839343816041946, 0.1404145359992981, -0.029154330492019653, 0.05507044494152069, 0.10429604351520538, 0.17109763622283936, -0.11593127250671387, -0.07092522829771042, 0.1389232575893402, 0.28828760981559753, 0.18654318153858185, 0.32143181562423706, 0.36697137355804443, 0.46158555150032043, 0.6793017983436584, 1.1129179000854492, 0.495796263217926, 0.42525240778923035, 0.19643104076385498, -0.17346805334091187, -0.7469075918197632, -0.600786030292511, -0.5088256001472473, -0.7620179653167725, -0.3446560502052307, -0.08262266218662262, 0.05557955056428909, 0.05983097106218338, -0.24819350242614746, 0.049212317913770676, 0.2653627097606659, 1.2969332933425903, 0.8257849812507629, 0.4176722466945648, 0.45974358916282654, 1.0913846492767334, 1.230240821838379, 1.3504409790039062, 1.6756964921951294, 1.816583514213562, 1.0754202604293823, 1.1223702430725098, 1.1306111812591553, 1.2369110584259033, 1.118048071861267, 0.6696033477783203, 0.21541520953178406, 0.1556955873966217, 0.7135727405548096, 0.6006444096565247, 0.6131724119186401, -0.3316326141357422, -0.3892905116081238, -0.005507111549377441, -0.07553210854530334, 0.06150982528924942, 0.08220089226961136, -0.06383240967988968, -0.12140502780675888, 0.548387885093689, 0.10938343405723572, 0.22702112793922424, 0.6241519451141357, 0.7413813471794128, 0.5511499047279358, 0.8329043388366699, 0.587744951248169, 0.23627717792987823, -0.19170039892196655, -0.19116652011871338, 0.48021408915519714, 1.0904500484466553, 0.8290676474571228, 0.7237503528594971, 0.5601651668548584, 0.4883852005004883, 0.24251586198806763, 0.2013634443283081, -0.02659922093153, -0.05846153199672699, 0.06500907987356186, -0.024633336812257767, 0.024584434926509857, 0.04519764333963394, -0.07913853973150253, -0.06546454131603241, -0.04345357418060303, -0.02478366158902645, 0.0644000917673111, 0.12589797377586365, -0.025890426710247993, 0.015413354150950909, 0.15169094502925873, 0.04971231892704964, 0.1443464607000351, -0.28754448890686035, -0.5587714910507202, -0.1569136530160904, -0.13786347210407257, -0.12501445412635803, 0.10843846201896667, -0.07725607603788376, -0.154082253575325, -0.014345289207994938, -0.08568492531776428, 0.06693532317876816, -0.07179482281208038, -0.04623172804713249, 0.02947814017534256, -0.02500241994857788], [-0.07123520970344543, -0.012130938470363617, -0.044587958604097366, 0.004450052976608276, 0.04247710853815079, -0.08129744231700897, -0.05267016962170601, 0.03939449042081833, -0.03690088912844658, -0.08509216457605362, -0.06168138235807419, -0.03515534847974777, 0.13229097425937653, 0.11180857568979263, 0.05740579962730408, -0.06161152198910713, 0.06925030797719955, 0.0053904131054878235, -0.07979368418455124, -0.07261200249195099, -0.06978846341371536, -0.06851760298013687, 0.021869443356990814, 0.045302487909793854, -0.03503594920039177, 0.04884576052427292, 0.06634239107370377, -0.024699617177248, -0.04007343202829361, -0.030699484050273895, 0.020708076655864716, 0.03649432957172394, 0.09799902141094208, 0.1567690223455429, 0.1533631533384323, 0.20494180917739868, 0.30541640520095825, 0.11566571146249771, 0.1200844869017601, 0.5085090398788452, 0.6784344911575317, 0.4690592288970947, -0.05409383401274681, -0.018505003303289413, -0.20965804159641266, 0.4055376350879669, 0.3818853497505188, 0.6121175289154053, 0.0782017856836319, 0.15258987247943878, 0.26677605509757996, 0.11514953523874283, 0.07170910388231277, -0.08281884342432022, 0.020087838172912598, 0.03992738574743271, -0.08507408946752548, 0.07731687277555466, 0.07954192161560059, 0.5126163959503174, 0.2125815898180008, -0.34649956226348877, 0.5068671107292175, 0.5208858847618103, -0.42677220702171326, -0.4397684931755066, -0.6455245614051819, -0.5851345062255859, -0.5268046855926514, -0.18262703716754913, -0.7633152604103088, -0.5762022733688354, -0.060010090470314026, 0.4289085268974304, -0.2864924371242523, -0.22321882843971252, -0.372312068939209, 0.45203572511672974, -0.0528966449201107, -0.26542848348617554, -0.29396533966064453, -0.3416696786880493, 0.051158346235752106, 0.052777327597141266, 0.03590022772550583, -0.08234401792287827, 0.01918223313987255, -0.09284970909357071, -0.38299378752708435, -0.010319521650671959, -0.41451236605644226, -0.5809497237205505, -0.5446772575378418, -0.5128886103630066, -0.3601702153682709, -0.025214796885848045, 0.020061736926436424, -0.29705610871315, -0.34048596024513245, -0.36340588331222534, 0.48511794209480286, 0.40953317284584045, 0.1656251847743988, -0.14795739948749542, 0.1165686622262001, 0.3849276900291443, 0.5772064924240112, 0.35963740944862366, -0.47909778356552124, 0.0018239774508401752, -0.24910493195056915, -0.05674147605895996, 0.0720459446310997, 0.20300592482089996, -0.015621214173734188, -0.48929715156555176, -0.23126645386219025, -0.4367040693759918, -0.1792026311159134, -0.34628090262413025, -0.531772255897522, -0.08378680795431137, -0.18695645034313202, 0.09591459482908249, -0.02844667248427868, 0.13722547888755798, 0.011424640193581581, -0.014516727067530155, 0.2678961455821991, 0.3924635946750641, -0.11466420441865921, 0.022810889407992363, -0.08015158772468567, -0.22013163566589355, 0.24061846733093262, 0.4995134174823761, -0.31998878717422485, -0.48101258277893066, -0.1386064887046814, 0.37274718284606934, -0.0821135938167572, 0.023647166788578033, 0.17367196083068848, -0.0593671053647995, -0.0926240012049675, -0.2033589482307434, -0.05765466019511223, -0.07560167461633682, -0.040692634880542755, -0.11027490347623825, 0.3068997263908386, -0.16038011014461517, -0.27386271953582764, -0.12051264196634293, 0.16364839673042297, -0.02964327670633793, -0.03685012832283974, -0.07606710493564606, -0.2301337569952011, 0.07602517306804657, -0.15546628832817078, -0.028154972940683365, 0.11740866303443909, 0.231068417429924, -0.1087375357747078, -0.0625147596001625, -0.4698272943496704, 0.2971007823944092, -0.05443568900227547, 0.005378990434110165, 0.19758135080337524, 0.07626080513000488, -0.1146940365433693, -0.038906920701265335, -0.07287345081567764, 0.3740866482257843, 0.17709052562713623, 0.029650172218680382, 0.016092047095298767, -0.02139154076576233, -0.09902762621641159, -0.11581803858280182, 0.10312458127737045, -0.18429788947105408, -0.009635506197810173, -0.08194014430046082, -0.22619594633579254, 0.08370983600616455, 0.1259421557188034, 0.09554777294397354, 0.5625641942024231, 0.027056075632572174, -0.7775998711585999, 0.2520322799682617, -0.740867018699646, -0.09947508573532104, -0.005658124573528767, -0.06717987358570099, 0.44525882601737976, -0.08627578616142273, 0.009640644304454327, 0.18312136828899384, 0.28531691431999207, 0.4127844572067261, 0.012168359011411667, 0.06175871565937996, 0.12608151137828827, -0.051888931542634964, -0.1388545036315918, -0.07976239919662476, -0.5261781811714172, -0.2294740229845047, -0.140546515583992, 0.11017658561468124, 0.10852924734354019, 0.18013611435890198, -0.2529359757900238, 0.12795332074165344, -0.05684007331728935, -0.3142223358154297, 0.3596804440021515, 0.553412139415741, -0.13230456411838531, 0.22992795705795288, 0.5816363096237183, 0.1732717752456665, 0.9915158748626709, 0.5202040672302246, 0.6581650972366333, 0.14845049381256104, 0.16372650861740112, 0.06619882583618164, 0.02475915104150772, 0.1302378922700882, 0.032688409090042114, -0.11137405037879944, 0.09203946590423584, -0.19280479848384857, 0.033039551228284836, 0.1384536325931549, 0.43318092823028564, 0.5176321864128113, 0.2520301043987274, 0.4176745116710663, 0.28670570254325867, -0.20567336678504944, -0.27035045623779297, -0.28250086307525635, 0.45855844020843506, 0.17580120265483856, 0.4472803473472595, -0.3485197424888611, 0.3571547567844391, -0.2859492599964142, 1.4689793586730957, 0.4253268241882324, 0.41121044754981995, 0.3463234007358551, 0.13965833187103271, -0.21358323097229004, 0.16755282878875732, 0.2250732034444809, 0.14746637642383575, 0.06719721108675003, 0.2103044092655182, 0.3383795917034149, 0.4499615728855133, 0.2905142307281494, 0.6112180948257446, 0.31912484765052795, 0.5884097814559937, 0.8340017199516296, 0.4003452658653259, 0.4748033583164215, -0.33212289214134216, 0.366580605506897, 0.6814137101173401, -0.329691618680954, 0.04793064296245575, 0.24345193803310394, 0.3289279341697693, 0.03528037294745445, 1.2764427661895752, 0.5744877457618713, 0.20814135670661926, 0.06039567291736603, -0.02384735643863678, -0.2500394582748413, -0.08235771209001541, 0.08653128892183304, 0.12831369042396545, 0.1744302362203598, 0.25989314913749695, -0.10766703635454178, -0.31745201349258423, -0.15527449548244476, -0.276876300573349, -0.2049241065979004, 0.1678711175918579, 0.3360600173473358, 0.6605710983276367, 0.6619204878807068, 0.012454021722078323, 0.5804376602172852, 0.26432889699935913, -0.049045007675886154, 0.2961682975292206, 0.6558196544647217, 0.21842412650585175, 1.2164864540100098, 0.7130888104438782, 0.2544426918029785, -0.18744444847106934, -0.19423779845237732, -0.11097177863121033, -0.07638122886419296, 0.010366108268499374, 0.20624789595603943, -0.18362268805503845, -0.08201887458562851, -0.27595803141593933, -0.7597277760505676, -0.7976716160774231, -0.6962412595748901, -0.35575294494628906, -0.4911769926548004, -0.5556387305259705, -0.17475676536560059, 0.3801654875278473, 0.008184734731912613, 0.025456063449382782, 0.3340805172920227, 0.0746602788567543, -0.43597447872161865, -0.14712081849575043, 0.14737197756767273, 0.08224272727966309, 1.177281141281128, 0.02079741470515728, 0.21668633818626404, 0.03729669749736786, 0.3055446445941925, -0.19356408715248108, -0.4358349144458771, -0.14378361403942108, -0.017042960971593857, -0.17117616534233093, -0.35286155343055725, -0.3065776824951172, -0.5695168375968933, -0.6403294801712036, -0.5322189331054688, -0.21895156800746918, -0.2497355341911316, -0.3518262207508087, -0.21526451408863068, -0.12327823787927628, -0.25692421197891235, 0.3650747835636139, 0.601926863193512, 1.0390053987503052, 0.2570016384124756, -0.694379448890686, -0.6448734402656555, 0.0979975163936615, 0.9525752663612366, 0.10147818177938461, -0.24195009469985962, 0.15341684222221375, 0.2706727385520935, 0.15451981127262115, 0.017945503816008568, 0.17822444438934326, 0.14600171148777008, 0.028868474066257477, -0.14713561534881592, -0.11384470015764236, -0.34738555550575256, -0.28157976269721985, -0.08135686069726944, -0.32076841592788696, -0.21340015530586243, 0.14353477954864502, -0.058120518922805786, 0.05250316858291626, -0.39346155524253845, -0.13676469027996063, 0.6269381642341614, 0.5535896420478821, 0.4568127989768982, 0.071651391685009, 0.20618996024131775, 0.29728323221206665, -0.050435252487659454, 0.8093777298927307, -0.1812775582075119, 0.48285940289497375, 1.0180376768112183, 0.48939886689186096, 0.3045187294483185, 0.5653001666069031, 0.5362385511398315, 0.1347743272781372, 0.19903287291526794, -0.004830295220017433, 0.17660818994045258, 0.2891141176223755, 0.14417241513729095, 0.06325928866863251, -0.07378776371479034, 0.32722964882850647, 0.14210619032382965, 0.2535218298435211, -0.19048145413398743, -0.32941585779190063, -0.038854047656059265, 0.5672038197517395, 0.2560136616230011, 0.2947075366973877, 0.5593975782394409, 0.47804296016693115, -0.012185309082269669, -0.09565125405788422, -0.03676563873887062, 0.5336877107620239, 1.2098801136016846, 0.5953574776649475, 0.9829916954040527, 1.362899899482727, 1.6186470985412598, 1.02701735496521, 0.896266758441925, 0.18652278184890747, -0.022634785622358322, 0.2994535565376282, 0.1991083025932312, 0.18412472307682037, 0.09701215475797653, 0.0594342015683651, -0.2820758819580078, -0.11884703487157822, -0.36935335397720337, -0.16210965812206268, -0.27745237946510315, 0.31178486347198486, -0.4441978633403778, -0.3490945100784302, -0.4544525146484375, 0.49938371777534485, 0.3247247636318207, -0.2465866655111313, -0.12279003113508224, 0.8544584512710571, 0.7631674408912659, 0.5277590155601501, 0.7687499523162842, 0.8977237343788147, 1.7534610033035278, 2.124685764312744, 2.3941311836242676, 1.8496748208999634, 1.0342421531677246, 0.6124501824378967, 0.31951209902763367, 0.1750989556312561, 0.4844922125339508, 0.1508486419916153, -0.34678125381469727, -0.4026062786579132, -0.3324969708919525, -0.2627120316028595, -0.18043972551822662, 0.00431978702545166, 0.27446627616882324, -0.05023617669939995, 0.5029224753379822, 0.08444910496473312, -0.31337207555770874, -0.5593162775039673, -0.13490886986255646, 0.4419766366481781, -0.078543521463871, -0.14855504035949707, -0.29562273621559143, 0.0389636792242527, 0.6235295534133911, 1.3497451543807983, 1.4379297494888306, 1.3308610916137695, 1.2442851066589355, 0.8432129621505737, 0.6785159707069397, 0.42331573367118835, 0.17635591328144073, 0.28726908564567566, -0.14455659687519073, -0.08864519000053406, -0.2184835970401764, -0.16382110118865967, 0.03447293862700462, 0.04534457251429558, 0.3956097960472107, -0.18197396397590637, 0.3845807611942291, -0.22578592598438263, 0.1603691726922989, -0.6029724478721619, -0.1424003541469574, -0.2604597806930542, -0.3477379381656647, -0.29188698530197144, -0.32845160365104675, -0.5898222923278809, -0.4493468403816223, -0.010922004468739033, 0.14076225459575653, 0.15908551216125488, 0.3115123510360718, 0.22833725810050964, 0.6661415100097656, 0.24771170318126678, -0.13249093294143677, 0.33655136823654175, -0.013399381190538406, 0.33085066080093384, -0.2092321813106537, 0.10554633289575577, -0.17093336582183838, -0.011593138799071312, 0.20986725389957428, -0.032264355570077896, -0.345386803150177, -0.15988346934318542, 0.007538256235420704, 0.07602984458208084, -0.15987800061702728, 0.02137797698378563, -0.18084529042243958, -0.19270671904087067, -0.41085439920425415, -0.5460467338562012, -0.5816199779510498, -0.6598328948020935, -0.46617448329925537, -0.7096483707427979, -0.21329990029335022, -0.049763329327106476, 0.1908302903175354, 0.277330219745636, 0.022509466856718063, 0.08393295109272003, 0.11282440274953842, 0.2086755335330963, -0.10464237630367279, 0.3791981637477875, -0.021466465666890144, 0.041685763746500015, -0.45521387457847595, 0.6368371844291687, 0.05354882404208183, 0.0396459624171257, 0.2110571712255478, 0.3707016110420227, 0.12336639314889908, 0.09842608124017715, -0.12887459993362427, -0.26531755924224854, -0.34318917989730835, -0.3183555006980896, -0.3953239917755127, -0.42324256896972656, -0.5339089632034302, -0.39628705382347107, -0.20835953950881958, -0.10969150811433792, 0.3547711670398712, 0.31364259123802185, 0.004840958397835493, 0.10643305629491806, 0.17556729912757874, -0.011737791821360588, 0.03740959241986275, -0.12161923944950104, 0.19721481204032898, 0.10966618359088898, 0.25039753317832947, 0.5651125311851501, -0.34566986560821533, 0.08213753998279572, -0.31779852509498596, 0.5090662240982056, 0.4983605146408081, 0.5192751884460449, 0.19938530027866364, 0.09677445143461227, -0.21944758296012878, -0.16075704991817474, -0.1935611218214035, -0.27621278166770935, -0.3587820529937744, -0.3828587532043457, -0.4143153727054596, -0.2537194490432739, 0.10404889285564423, 0.3750324845314026, 0.2264977991580963, 0.1402607411146164, 0.46415114402770996, -0.0927341878414154, 0.18763449788093567, 0.10400506108999252, -0.09919705241918564, 0.08880304545164108, 1.0396207571029663, 0.6047316789627075, 0.12208431214094162, 0.005205706227570772, -0.033793769776821136, 0.4183826148509979, 0.3538866341114044, 0.5436538457870483, 0.6257505416870117, 0.27783048152923584, 0.03169247508049011, 0.01719251647591591, 0.005846494808793068, -0.22924983501434326, -0.18919217586517334, -0.0246676504611969, -0.24988213181495667, -0.3860738277435303, -0.029711594805121422, 0.25176510214805603, 0.22729089856147766, 0.2941115200519562, 0.07466191798448563, 0.31317028403282166, 0.25406894087791443, -0.13497251272201538, -0.5960056781768799, 0.44735556840896606, 0.7582260966300964, 0.30846554040908813, 0.2813701629638672, -0.07856839150190353, -0.04553937539458275, -0.30778786540031433, -0.262574702501297, -0.5647127032279968, 0.3180292248725891, -0.03235792741179466, -0.17130987346172333, 0.07064732164144516, 0.25289568305015564, -0.05356544256210327, -0.023378925397992134, -0.016017599031329155, 0.03392250835895538, 0.011380888521671295, 0.06799183040857315, 0.07918815314769745, 0.08718925714492798, -0.3929653465747833, -0.3820527195930481, 0.08653905987739563, 0.20557865500450134, 0.6964296102523804, -0.17202012240886688, 0.19388341903686523, 0.2892066240310669, -0.03281485289335251, 0.004083387553691864, 0.035651013255119324, -0.008085057139396667, 0.16763481497764587, 0.11627041548490524, -0.08354976773262024, -0.21051016449928284, -0.4523763060569763, -0.595613420009613, -0.0497422032058239, -0.1432131826877594, 0.08767099678516388, -0.029215525835752487, 0.12465965002775192, 0.2741181254386902, 0.3766782581806183, 0.27404630184173584, -0.035586148500442505, 0.12556201219558716, 0.277536004781723, 0.4291798174381256, 0.1357998251914978, 1.1479427814483643, 0.9258325099945068, 0.5326159000396729, -0.2658594250679016, 0.6530995965003967, 0.4858406186103821, -0.05758726969361305, -0.081060491502285, 0.07233939319849014, 0.039014022797346115, 0.23777081072330475, 0.5383163094520569, -0.23430374264717102, -0.3632369041442871, -0.31306102871894836, 0.18568584322929382, 0.1523754894733429, -0.3358136713504791, -0.47637471556663513, -0.6889656782150269, -0.20734187960624695, -0.30820369720458984, -0.27153280377388, -0.38534015417099, 0.11816336959600449, 0.5864803791046143, 0.6699872612953186, 0.664413332939148, 0.3535963296890259, 0.4275828003883362, 0.31338372826576233, 0.13593783974647522, 0.04235012084245682, -0.03022090718150139, -0.0029968097805976868, -0.060048483312129974, -0.068570576608181, -0.05867863446474075, -0.2862913906574249, 0.06268110871315002, -0.2664608657360077, -0.15135863423347473, -0.1462969183921814, 0.09437461197376251, -0.6426249742507935, -0.6037655472755432, -0.7092061042785645, -0.42335838079452515, -0.4935763478279114, -0.5738726854324341, -0.7263961434364319, -0.198892742395401, 0.3871742784976959, 0.3284556269645691, 0.274753212928772, 0.7888927459716797, 0.14692912995815277, 0.4739391803741455, 0.22100649774074554, -0.08210515975952148, -0.12211872637271881, -0.05828799679875374, 8.898228406906128e-05, 0.030305854976177216, -0.02138844132423401, -0.0487346351146698, -0.023092076182365417, 0.23192813992500305, 0.5673907399177551, 0.976000964641571, 1.238789677619934, 1.1287964582443237, 0.8044267296791077, 0.7673482298851013, 0.7838201522827148, 1.0388243198394775, 1.417277216911316, 0.8902035355567932, -0.09852692484855652, 0.07120712101459503, 1.2224488258361816, 1.1345816850662231, 1.2908897399902344, 1.132089376449585, 0.4788408577442169, 0.32979968190193176, 0.42247262597084045, -0.05198080465197563, 0.071611188352108, -0.044695302844047546, 0.019597046077251434], [0.07890807837247849, -0.05259128287434578, 0.0539899542927742, 0.037447378039360046, -0.012342140078544617, -0.029652763158082962, 0.03963518887758255, 0.05712714046239853, 0.021905429661273956, -0.012576043605804443, -0.0023838579654693604, 0.042175255715847015, -0.3287588357925415, -0.32452455163002014, 0.13734398782253265, 0.0422373041510582, 0.022821269929409027, 0.04819875210523605, -0.0050886571407318115, 0.08116873353719711, 0.07950449734926224, -0.01509082317352295, -0.017044618725776672, 0.06913217157125473, 0.02298852801322937, 0.037960685789585114, -0.08563821017742157, -0.03431524708867073, -0.05754094570875168, 0.02619618922472, 0.04434748739004135, 0.023608066141605377, -0.10032092034816742, -0.3301562964916229, -0.7572953701019287, -1.1383928060531616, -1.001531958580017, -1.292745590209961, -1.472288727760315, -0.9491217136383057, -0.9708474278450012, -0.3156987130641937, -0.041198182851076126, -0.8957856893539429, -0.6535581946372986, -1.3496942520141602, -1.011736273765564, -0.8797500133514404, -1.0471177101135254, -0.950379490852356, -0.7188924551010132, -0.4838809370994568, -0.025679338723421097, 0.0024397820234298706, -0.04798062890768051, 0.012690819799900055, -0.08484659343957901, -0.055484622716903687, -0.0494297631084919, -0.40368470549583435, -0.5497555732727051, -0.5068320631980896, -1.0605754852294922, -1.0769844055175781, -0.5932483673095703, -0.4863285720348358, -0.6847169399261475, -1.1551622152328491, -0.21569465100765228, -0.48943373560905457, -0.4665258526802063, -0.8695660829544067, -1.149045467376709, -0.4843326508998871, -0.08299867808818817, -0.6299489736557007, -0.3296312093734741, -0.4340217411518097, -0.2425985485315323, -0.1595458984375, -0.43000927567481995, -0.16582243144512177, -0.004694782197475433, 0.05096425861120224, 0.031535595655441284, 0.030394531786441803, -0.2646512985229492, -0.6448512077331543, -0.38771945238113403, -0.4690033197402954, -0.6396611332893372, -0.523717999458313, -0.3969225585460663, -0.7883910536766052, -0.7734135985374451, -0.303818017244339, -0.5691622495651245, -1.1417951583862305, -0.7508660554885864, -0.7471573352813721, -0.5780029892921448, -0.08172469586133957, 0.14394569396972656, -0.056452229619026184, 0.049890439957380295, 0.10142912715673447, 0.077195905148983, 0.10848119109869003, 0.09059271961450577, -0.043480873107910156, 0.40611591935157776, -0.08154716342687607, -0.07691348344087601, -0.012903256341814995, -0.5043439865112305, -0.5476222634315491, 0.026440687477588654, -0.016586368903517723, -0.1381855309009552, 0.2594248056411743, 0.4407527446746826, 0.04294949397444725, -0.241305410861969, -0.04151046648621559, -0.016971834003925323, -0.22742798924446106, 0.11442214995622635, -0.07077071815729141, -0.3805663585662842, -0.035154033452272415, 0.12079083174467087, -0.24739328026771545, -0.17023910582065582, 0.10920481383800507, -0.017023488879203796, 0.26318395137786865, 0.5972205400466919, 0.5300276279449463, 0.5757295489311218, 0.3050681948661804, 0.0718948170542717, 0.009551681578159332, -0.36355915665626526, 0.8573704361915588, 0.30400970578193665, 0.28098100423812866, 0.27961358428001404, 0.47150349617004395, 0.756203830242157, 0.3323671221733093, -0.06669648736715317, 0.2664317786693573, 0.33529725670814514, 0.17173410952091217, 0.3404785394668579, 0.35905933380126953, 0.20585773885250092, 0.3285650908946991, 0.4485502243041992, 0.054741088300943375, 0.16668125987052917, -0.2243887037038803, 0.0488617978990078, 0.03969631344079971, -0.10373274236917496, -0.1914929300546646, 0.5408797264099121, 0.3784677982330322, -0.016842342913150787, 0.054667115211486816, 0.17537851631641388, 0.5646280646324158, -0.02622324973344803, 0.14455710351467133, 0.18309803307056427, 0.12015240639448166, 0.5144777297973633, 0.48704877495765686, 0.17442210018634796, -0.25243619084358215, -0.31860145926475525, -0.06425927579402924, 0.14037439227104187, 0.42193904519081116, 0.539730429649353, 0.5761135816574097, 0.9218665361404419, 0.7857658863067627, 0.3334084749221802, -0.19291304051876068, -0.2966100871562958, -0.32315707206726074, -0.1968185007572174, -0.2558605372905731, 0.7131495475769043, 0.8688126802444458, -0.09531721472740173, 0.26556918025016785, 0.35879775881767273, 0.16230176389217377, 0.6241867542266846, 0.02519623003900051, 0.5163549780845642, -0.092525914311409, 0.3363361358642578, 0.06163544952869415, -0.33290788531303406, -0.2585638761520386, -0.36915579438209534, -0.06327284872531891, 0.16159464418888092, 0.5570908188819885, 0.5770432949066162, 0.5000532269477844, 0.5948905348777771, 0.6148040890693665, 0.2171349972486496, -0.12205887585878372, -0.14841866493225098, -0.30882495641708374, -0.051154881715774536, 0.10833665728569031, 0.28782522678375244, 0.8569494485855103, -0.5885351300239563, -0.37209370732307434, -0.41141659021377563, 0.20358507335186005, 0.34358543157577515, -0.07559569180011749, 0.0291975736618042, 0.27625274658203125, 0.05150705575942993, -0.03590090572834015, 0.05719770863652229, 0.2732369005680084, -0.4179205894470215, -0.34866273403167725, 0.00036255017039366066, 0.536559522151947, 0.5995383858680725, 0.35783183574676514, 0.40444302558898926, -0.047796428203582764, -0.1948629915714264, -0.16310769319534302, -0.1651899218559265, -0.3971937894821167, -0.5832655429840088, -0.18156710267066956, 0.38137292861938477, 0.6750713586807251, -0.4532635509967804, -0.004906268324702978, 0.06284549832344055, 0.31599628925323486, 0.010730831883847713, 0.005135766696184874, -0.09170358628034592, 0.010553985834121704, 0.02448384277522564, 0.15027837455272675, 0.1250281035900116, -0.055707208812236786, -0.25561752915382385, -0.4963175058364868, -0.1253540962934494, 0.6484507918357849, 0.5317608714103699, 0.46423253417015076, -0.04165219888091087, -0.30295851826667786, -0.521452784538269, -0.6975294351577759, -0.37513768672943115, -0.7399395108222961, -1.4226174354553223, -0.0005955923697911203, 0.6185129284858704, 0.025092195719480515, -0.5098729729652405, -0.48490110039711, -0.37042731046676636, 0.15564608573913574, -0.6641677618026733, -0.3265377879142761, -0.04963339492678642, -0.2161540985107422, -0.006224472541362047, 0.0011601075530052185, -0.014485297724604607, -0.36847984790802, -0.6928560137748718, -0.49898770451545715, 0.29701730608940125, 0.48915860056877136, 0.5272325873374939, -0.018189026042819023, 0.2625699043273926, -0.38234373927116394, -0.2865809500217438, -0.413168728351593, -0.5711662173271179, -0.4797646105289459, -1.1696093082427979, 0.2669842541217804, 0.6240469217300415, 0.42343446612358093, -0.29165688157081604, -0.6694481372833252, -0.0544758066534996, -0.25385236740112305, -0.26319342851638794, 0.2206135243177414, 0.05548380687832832, -0.0681384801864624, 0.12373664975166321, -0.2372085005044937, -0.32536444067955017, -0.4104534387588501, -0.2719932496547699, 0.08239389210939407, 0.411815881729126, 0.2203870713710785, -0.09353466331958771, 0.03350336104631424, -0.14951515197753906, -0.4623624086380005, -0.345246821641922, -0.26002997159957886, -0.01251421682536602, -0.3541865348815918, -0.8300053477287292, 0.7674452662467957, 0.27427029609680176, 0.00858976598829031, -0.20328664779663086, -1.2032806873321533, 0.08707541972398758, -0.3636498749256134, 0.08407668769359589, 0.0867142528295517, -0.10745672881603241, -0.13504892587661743, -0.2518575191497803, -0.6027792692184448, -0.29914748668670654, -0.29339250922203064, 0.07556501775979996, 0.7750273942947388, 0.08295586705207825, -0.29733791947364807, -0.015026228502392769, -0.11620229482650757, -0.14194747805595398, -0.30579978227615356, -0.4240264892578125, -0.12008482217788696, -0.5823976993560791, -0.5915836691856384, -0.49426761269569397, 0.08717978000640869, -0.1456642895936966, 0.03896554559469223, -0.11778965592384338, -0.6748608350753784, -1.2698487043380737, -0.04459347948431969, 0.28794577717781067, -0.24078971147537231, -0.1365407109260559, -0.32703056931495667, -0.2740243077278137, -0.8264364004135132, -0.7138145565986633, -0.1148877888917923, 0.6532564759254456, 1.203118085861206, 0.4454217851161957, 0.2479148805141449, 0.34651273488998413, 0.3890383839607239, 0.21879766881465912, 0.0901343896985054, -0.26597627997398376, -0.37058788537979126, -0.509377658367157, -1.1751456260681152, -0.4558398723602295, -0.1473766714334488, -0.1503954380750656, 0.48643335700035095, -0.349798321723938, -0.30776482820510864, -1.1481531858444214, -0.049918971955776215, 0.49382805824279785, -0.4607800543308258, -0.22464394569396973, -0.43067672848701477, -0.6193203926086426, -0.6987103819847107, -0.45299434661865234, 0.20141825079917908, 0.92520672082901, 0.700010359287262, 0.10923054814338684, 0.4098624587059021, 0.5038824677467346, 0.6001504063606262, 0.493303120136261, 0.6115952730178833, 0.0285707488656044, -0.1896946132183075, -0.424389511346817, -0.921959400177002, -1.0231318473815918, -0.2988642752170563, 0.5037127137184143, 0.41029441356658936, -0.23052333295345306, 0.10905715078115463, -0.969150960445404, -0.27435266971588135, 0.389931857585907, -0.019663287326693535, -0.2654261291027069, -0.5276525020599365, -0.36141303181648254, -0.448471337556839, 0.054210226982831955, 0.5800208449363708, 0.5454493761062622, 0.3976481258869171, 0.015112780034542084, 0.34736788272857666, 0.4934330880641937, 0.6849532127380371, 0.7501766681671143, 0.5126850008964539, 0.30683788657188416, -0.24892745912075043, -0.8118476867675781, -1.2553411722183228, -0.7976712584495544, -0.605941653251648, 0.4000251293182373, 0.09457381069660187, 0.0015996337169781327, -0.412280410528183, -0.7155699729919434, -0.3057137727737427, 0.2040187120437622, -0.3062889575958252, -0.0652257576584816, 0.04386436566710472, -0.4835621118545532, -0.38389042019844055, 0.21559476852416992, 0.7437018156051636, 0.9288637638092041, 0.47857552766799927, -0.11740048974752426, 0.20551720261573792, 0.6453309059143066, 0.8706371784210205, 0.6394009590148926, 0.3208756744861603, 0.3244504928588867, 0.20294666290283203, -0.5453091859817505, -0.5614946484565735, -0.5770593285560608, -0.44202929735183716, 0.9563716650009155, 0.2531978189945221, 0.07271579653024673, -0.28991764783859253, 0.021935241296887398, 0.3177065849304199, 0.0786377340555191, -0.017283570021390915, -0.0304044708609581, 0.17531606554985046, 0.03226686269044876, 0.14342989027500153, 0.3913874626159668, 0.4393474757671356, 0.539182186126709, 0.12577177584171295, -0.506061851978302, 0.28441253304481506, 0.5965767502784729, 0.39375269412994385, 0.3671741783618927, 0.2959103584289551, -0.23492783308029175, -0.13367919623851776, -0.509103536605835, -0.9446974992752075, -0.5458119511604309, 0.044930752366781235, 0.9767537117004395, 0.47347602248191833, 0.1225663274526596, -0.1630830466747284, 0.05477256700396538, 0.13671328127384186, 0.012816664762794971, 0.3021736741065979, 0.2205125391483307, 0.22703754901885986, 0.19851575791835785, 0.26395782828330994, 0.16750523447990417, 0.19499048590660095, 0.09804949909448624, -0.37929484248161316, -0.42463380098342896, 0.14055059850215912, 0.4164612591266632, 0.5494368672370911, 0.31178444623947144, 0.062603659927845, -0.39935165643692017, -0.16404524445533752, -0.2795232832431793, 0.10404913872480392, -0.11492051929235458, -0.4890477955341339, 0.2136610895395279, 0.4398709535598755, -0.05294182151556015, -0.37773945927619934, -0.22382710874080658, -0.3831934928894043, -0.16075953841209412, 0.5603858232498169, 0.27941203117370605, 0.43676984310150146, 0.48527011275291443, 0.2831886410713196, 0.09119860827922821, 0.16796138882637024, 0.32157060503959656, 0.039865221828222275, -0.11543294042348862, 0.07485560327768326, 0.11720842868089676, 0.11457710713148117, 0.2499302178621292, -0.001180715044029057, -0.3228268027305603, 0.2489864081144333, 0.28660884499549866, 0.13249532878398895, 0.21015329658985138, 0.2796870768070221, 0.9808299541473389, 0.11483322083950043, -0.050243981182575226, -0.3206375241279602, -0.3720947504043579, -0.17884628474712372, -0.07175838947296143, 0.4364868104457855, 0.4874638319015503, 0.47735005617141724, 0.30843451619148254, 0.15910376608371735, 0.03618184104561806, -0.17762155830860138, -0.1385798454284668, 0.051789894700050354, 0.280129611492157, 0.147057443857193, 0.003821201156824827, -0.09758254140615463, -0.06168469414114952, 0.00056747772032395, 0.11588896065950394, 0.4669797122478485, 0.16914968192577362, 0.5328710675239563, 0.5171071290969849, 0.36201608180999756, 0.6290531754493713, -0.20087283849716187, -0.1468687802553177, 0.0842377170920372, 0.3480531573295593, 0.19545842707157135, 0.4643670916557312, 0.5206172466278076, 0.5728062987327576, 0.3876945376396179, 0.2686108946800232, 0.04469485953450203, -0.2734701633453369, -0.6125779151916504, -0.03430157154798508, -0.004208759870380163, 0.016050782054662704, -0.26430779695510864, -0.19772841036319733, 0.0873916894197464, -0.10023104399442673, 0.11484938859939575, -0.3879471719264984, -0.353235125541687, -0.3573347330093384, 0.5297160148620605, -0.09121427685022354, -0.37227120995521545, -0.4511853754520416, 0.027559159323573112, -0.09917166084051132, -0.1059453934431076, 0.6328313946723938, 0.4700058698654175, 0.4841308891773224, 0.12300409376621246, 0.309176504611969, -0.287944495677948, -0.07522258907556534, -0.17048877477645874, -0.18827788531780243, -0.1479538232088089, 0.18574224412441254, -0.08372633159160614, -0.16168802976608276, -0.5933558940887451, -0.5125986337661743, -0.274605393409729, -0.30841752886772156, -0.5168577432632446, -0.2820374667644501, -0.2664577066898346, 0.13968558609485626, 0.12960189580917358, 0.7943834662437439, -0.4533912241458893, -0.9838252663612366, -0.08653008192777634, -0.04889507591724396, 0.08347169309854507, -0.1437164843082428, 0.4011906683444977, 0.6791977882385254, 0.3721522390842438, 0.15371108055114746, 0.38028573989868164, -0.08099404722452164, -0.45359110832214355, -0.10806894302368164, 0.25968173146247864, -0.09453022480010986, -0.2944467067718506, -0.6062324643135071, -0.5430963039398193, -0.26005518436431885, 0.025061067193746567, -0.14770326018333435, -0.054502520710229874, 0.26547178626060486, 0.40159711241722107, 0.24517937004566193, 0.5600046515464783, 0.6810475587844849, 0.12455371767282486, -0.4480416476726532, -0.033173568546772, 0.02570122480392456, 0.07157435268163681, -0.3823767304420471, -0.14695441722869873, 0.5407699942588806, -0.1264776587486267, 0.170180082321167, -0.39216330647468567, -0.10018465667963028, -0.6317603588104248, -0.3052513599395752, 0.14897935092449188, -0.08013960719108582, -0.5819910764694214, -0.561809778213501, -0.29828768968582153, 0.04284311830997467, 0.10355714708566666, -0.28106167912483215, 0.1869150549173355, 1.1972852945327759, 0.21757860481739044, 0.3413195013999939, 0.48665860295295715, 0.3390520215034485, -0.14368858933448792, -0.5010238885879517, -0.0036658495664596558, 0.03384983539581299, -0.01806168258190155, 0.5228425860404968, -0.41132357716560364, 0.43369224667549133, -0.05979545786976814, 0.08822523057460785, -0.1047753244638443, -0.34969887137413025, -0.4115777909755707, 0.11674139648675919, 0.23680980503559113, 0.39307165145874023, 0.31443729996681213, 0.5671579837799072, 0.45226332545280457, 0.09491315484046936, 0.5853583216667175, 0.3128145635128021, 0.6123673319816589, 1.1325829029083252, 0.4256397485733032, -0.4407758414745331, -0.40226778388023376, -0.03327023983001709, 0.2788550555706024, -0.09070853888988495, -0.04516848921775818, 0.006641887128353119, -0.012970998883247375, -0.04581775888800621, 0.27939921617507935, 0.7003839612007141, 0.5010154843330383, 0.7530045509338379, 0.19869764149188995, -0.16166944801807404, 0.40851128101348877, 0.6675310730934143, 0.4588053226470947, 0.2785295248031616, 0.8583701252937317, 1.1597602367401123, 0.4815077483654022, 0.4405404329299927, 0.48409390449523926, 0.0004255973908584565, -0.9005848169326782, -0.6203888654708862, 0.20180431008338928, -0.5870416760444641, -0.0010769276414066553, -0.511590838432312, -0.39995214343070984, -0.021288201212882996, 0.07923928648233414, 0.03915710002183914, 0.06849954277276993, 0.008136473596096039, 0.021012723445892334, -0.5333059430122375, -0.8018790483474731, 0.07943809032440186, -0.17982935905456543, 0.12459985911846161, 0.04649476334452629, 0.1782752126455307, 0.14653940498828888, 0.3655318319797516, -0.621609091758728, 0.5770798325538635, 0.719776451587677, -0.1476500779390335, -1.1187189817428589, -0.6950421929359436, -0.7036904692649841, -0.5483030080795288, -0.1916293501853943, -0.13494017720222473, -0.5353530049324036, -0.06306389719247818, 0.07246715575456619, 0.033851735293865204, -0.0474342405796051], [0.08434372395277023, -0.07851666212081909, -0.04903199523687363, -0.01810075342655182, -0.043655358254909515, -0.07930608093738556, -0.06536665558815002, -0.06817318499088287, 0.0003446042537689209, 0.0685281828045845, 0.01081942766904831, 0.023068152368068695, -0.1805802881717682, -0.25589147210121155, 0.05924298241734505, -0.05292949080467224, -0.057892754673957825, 0.028020478785037994, -0.07667610049247742, 0.06902892142534256, -0.026958387345075607, -0.015319183468818665, -0.0634123906493187, -0.06437598168849945, 0.05029710382223129, 0.056076161563396454, -0.07751743495464325, -0.04146360605955124, -0.05761590600013733, -0.01882796734571457, 0.041909851133823395, 0.05877930670976639, -0.08621931821107864, -0.10399109125137329, -0.4327036738395691, 