{"weights": [[[-0.028826333582401276, 0.0013694167137145996, 0.025266781449317932, -0.03419717773795128, -0.05796818435192108, 0.056689389050006866, -0.07861855626106262, 0.0018281936645507812, 0.0387013703584671, 0.020086772739887238, -0.03239262476563454, -0.03940213844180107, 0.06878268718719482, 0.14867939054965973, 0.09299388527870178, 0.0027096669655293226, 0.017599627375602722, -0.048245131969451904, 0.019018441438674927, 0.0658971443772316, 0.042385078966617584, -0.02081889659166336, 0.011627636849880219, -0.02908533439040184, -0.0353163406252861, -0.028357118368148804, 0.07197486609220505, 0.06778813153505325, 0.07153389602899551, 0.07954404503107071, 0.04509132355451584, 0.07574432343244553, 0.11237571388483047, 0.1085616797208786, 0.6583967804908752, 0.6725869178771973, 0.37056800723075867, 0.27746447920799255, -0.09080306440591812, 0.29893842339515686, 0.4581145644187927, 0.6274452209472656, -0.8069326281547546, -0.10621580481529236, 0.3962169885635376, 0.5424268841743469, -0.8215359449386597, -0.43847090005874634, 0.005220507271587849, -0.5232280492782593, 0.2651837170124054, 0.31854766607284546, -0.045464396476745605, -0.034187231212854385, 0.0018984302878379822, 0.010582417249679565, 0.0075612664222717285, -0.030474912375211716, -0.005285076797008514, 0.2984430193901062, 0.4909496307373047, -0.13763120770454407, 0.2575061321258545, -0.11677709966897964, 7.697958062635735e-05, 0.49175989627838135, 0.5568580627441406, 0.5464296936988831, 0.3320517838001251, -0.03464297577738762, -0.4691380560398102, -0.7077227830886841, -0.4156981408596039, -0.15438303351402283, -0.39443108439445496, -0.6943677067756653, -0.2903272211551666, -0.6431341767311096, -0.020434213802218437, 0.5540388226509094, 0.5399888157844543, 0.47514858841896057, -0.02903563529253006, -0.07851328700780869, -0.018276795744895935, 0.05167556554079056, 0.32800695300102234, 0.4423601031303406, 0.30095022916793823, 0.16740907728672028, -0.03246300667524338, 0.1910402774810791, 0.3206087648868561, 0.32016634941101074, -0.2033466100692749, 0.10440025478601456, 0.43886858224868774, -0.021351370960474014, 0.23797249794006348, 0.3073213994503021, 0.3280820846557617, -0.17130377888679504, -0.09652157872915268, 0.15761283040046692, 0.02282528206706047, 0.012641062028706074, -0.7200043201446533, -0.4851091206073761, 0.2744685411453247, 0.5301475524902344, 0.42084255814552307, -0.03348488733172417, 0.02578113228082657, -0.04776997119188309, 0.572275698184967, 0.9645691514015198, 0.17315074801445007, -0.049974437803030014, 0.13764037191867828, 0.14538238942623138, -0.29858526587486267, -0.43242189288139343, -0.41324305534362793, -0.1357320249080658, -0.26061567664146423, -0.3744600713253021, -0.07669493556022644, 0.15202057361602783, -0.10996755212545395, -0.5045079588890076, -0.25731945037841797, -0.03693930804729462, -0.5841132998466492, 0.029608460143208504, -0.13973189890384674, -0.31881260871887207, -0.6302213668823242, 0.10847464203834534, 1.0478662252426147, -0.17611873149871826, -0.0449085496366024, 0.06496285647153854, 0.015821101143956184, 0.7013327479362488, 0.4234839975833893, 0.059760186821222305, 0.0565478578209877, 0.005929961800575256, -0.09111057221889496, 0.09103338420391083, 0.42669767141342163, 0.400378942489624, -0.03771233931183815, 0.4208695590496063, 0.013011403381824493, 0.33518126606941223, -0.21720793843269348, -0.725054144859314, -0.37969255447387695, 0.030398720875382423, -0.07221898436546326, 0.06426042318344116, -0.25125613808631897, -0.5250577330589294, -0.6231688857078552, 0.05854282155632973, -0.02442353591322899, -0.7376603484153748, -0.01860923320055008, 0.02603611908853054, 0.6486178040504456, 0.7943698763847351, -0.09579477459192276, 0.5813198089599609, 0.5305430293083191, 0.127028226852417, 0.20942862331867218, 0.3595443665981293, 0.7632136940956116, 0.7832804322242737, 0.48425212502479553, 0.8128402829170227, 0.6031138300895691, 0.5835279822349548, 0.3901228904724121, 0.55475914478302, 0.3703448176383972, 0.09983223676681519, 0.2476416528224945, 0.4555777311325073, 0.2547347843647003, -0.6966428160667419, -0.6085039973258972, -0.1737430840730667, 0.07460540533065796, -0.12193229794502258, -0.00274822860956192, 0.567156970500946, 1.0938907861709595, 0.6834467649459839, -0.1475910246372223, -0.3733469247817993, 0.43316206336021423, -0.02108422853052616, 0.07605121284723282, 0.16680113971233368, 0.3745921552181244, 0.43675127625465393, 0.8456807732582092, 0.7189158797264099, 0.489605575799942, 0.5471413731575012, 0.6850360631942749, 0.4198756814002991, 0.3663748800754547, 0.05094534531235695, 0.1660051941871643, 0.27093222737312317, -0.10766007006168365, -0.1955115646123886, -0.4186153709888458, -0.4272688329219818, -0.4091449975967407, 0.33790308237075806, 0.1187736988067627, 0.8435831069946289, 0.21385574340820312, 0.03329728916287422, 0.14140065014362335, -0.0010253790533170104, -0.011838558129966259, -0.08742095530033112, 0.12973825633525848, 0.09552603214979172, 0.26128292083740234, 0.5362406969070435, 0.8473759293556213, 0.6034809947013855, 0.6018508672714233, 0.594416618347168, 1.0412122011184692, 0.63994961977005, 0.5028756260871887, -0.0025846066419035196, -0.03971705213189125, -0.46243759989738464, 0.0716494470834732, -0.16070781648159027, -0.5753176808357239, -0.8495811820030212, -0.6240492463111877, -0.07250988483428955, 0.228122740983963, 0.787365198135376, 0.3691893517971039, 0.6929003000259399, 0.7810064554214478, 0.2527938485145569, -0.03265682980418205, 0.04597443342208862, 0.5429043769836426, 0.19432640075683594, 0.5913907885551453, 0.6651753187179565, 0.5918363928794861, 0.8934822678565979, 1.401478886604309, 1.4144954681396484, 0.4412012994289398, 0.5698676705360413, 0.20244470238685608, -0.029589900746941566, -0.18272334337234497, -0.08728368580341339, 0.13879741728305817, -0.338194876909256, 0.1638684868812561, 0.5640115141868591, 0.388950914144516, 0.4814324378967285, 0.2995711863040924, 0.5859357714653015, 0.44907259941101074, -0.3041658103466034, -0.21898818016052246, -0.1347646564245224, -0.0950324609875679, 0.04342257231473923, -0.0328807458281517, -0.19429564476013184, -0.11280699819326401, 0.23551225662231445, 0.35849350690841675, 1.0284664630889893, 1.48786461353302, 0.7379817366600037, 0.5608800053596497, 0.05022817850112915, 0.021191775798797607, -0.19940157234668732, -0.221388578414917, -0.008702483959496021, -0.7971883416175842, -0.14866454899311066, 0.21331720054149628, 1.099358320236206, 0.9314867854118347, 0.3622187077999115, 0.14870759844779968, 0.6228305101394653, 0.8154398798942566, -0.6190340518951416, 0.6406600475311279, -0.27647706866264343, -0.11097247898578644, -0.24183283746242523, -0.30803027749061584, -0.3266681730747223, -0.5516601800918579, -0.23268985748291016, -0.2934320867061615, 0.48671430349349976, 0.3513958156108856, 0.32751980423927307, 0.022795677185058594, 0.1457875519990921, 0.06722158938646317, -0.11555654555559158, -0.15286946296691895, -0.4604094922542572, -0.49668577313423157, -0.14809347689151764, -0.1032920628786087, 0.02818933315575123, -0.0966886654496193, -0.3597962260246277, 0.02308230847120285, 0.4659222662448883, 0.7689909934997559, -0.29654428362846375, -0.14361025393009186, -0.29157865047454834, -0.17742127180099487, -0.15150754153728485, -0.05539766699075699, -0.23336689174175262, -0.5234365463256836, -0.7691864371299744, -0.8199564814567566, -0.5836049318313599, 0.11347290873527527, -0.13936245441436768, -0.2900770306587219, -0.0537463054060936, -0.0021180484909564257, 0.19797293841838837, -0.13482114672660828, -0.7219887375831604, -0.8697522282600403, -0.6239945888519287, -0.5310288071632385, -0.8780584931373596, -0.9381478428840637, -0.32481467723846436, -0.19156795740127563, -0.09162314981222153, 0.7928545475006104, -0.46119529008865356, -0.3468725383281708, -0.3671117424964905, -0.1306939274072647, 0.05027958005666733, -0.22894154489040375, -0.15285170078277588, -0.24908360838890076, -0.808180570602417, -0.9718624353408813, -0.44298526644706726, 0.051213547587394714, -0.11040426045656204, 0.08780652284622192, 0.28276702761650085, 0.08449387550354004, 0.2073318064212799, -0.20331710577011108, -0.5091425180435181, -0.6266099214553833, -0.3396567404270172, -0.4939306378364563, -1.0199366807937622, -0.993000328540802, -0.42739835381507874, -0.4824802279472351, -0.045069530606269836, 0.6770504117012024, -0.21241968870162964, -1.0503325462341309, -0.6956813931465149, -0.09019838273525238, 0.12281721830368042, -0.3921399414539337, -0.06617852300405502, -0.12904313206672668, -0.5215372443199158, -0.59449702501297, -0.4667389392852783, -0.18825547397136688, 0.23311340808868408, 0.03501977398991585, 0.08651486039161682, 0.35569101572036743, 0.12531402707099915, -0.1643417626619339, -0.15519452095031738, -1.0459556579589844, 0.20249255001544952, 0.48144543170928955, -0.5432262420654297, -0.23577408492565155, -0.06675860285758972, -0.3310542404651642, 0.2711940109729767, -0.6493328213691711, -0.2497035413980484, -0.28240057826042175, -0.22268062829971313, 0.0547669380903244, -0.13433076441287994, -0.2303156554698944, -0.4057258069515228, -0.2891451120376587, -0.12268370389938354, -0.40996024012565613, -0.63162761926651, -0.6004010438919067, -0.05625452473759651, -0.46159598231315613, 0.14082176983356476, 0.33143773674964905, -0.1178777664899826, -0.10317211598157883, -0.14678990840911865, -0.4583403170108795, 0.16532368957996368, 0.06600664556026459, -0.3151363730430603, 0.10935366153717041, -0.4639805257320404, 0.36667704582214355, 0.29941898584365845, 0.16449092328548431, 0.33611106872558594, -0.11099337041378021, -0.2879972755908966, -0.29330766201019287, -0.3857511579990387, -0.5567961931228638, -0.1158827692270279, 0.07324258238077164, 0.13196717202663422, -0.2548728287220001, -0.5114638209342957, -0.761006772518158, -0.8342574834823608, -0.624126672744751, -0.09741110354661942, -0.10359791666269302, -0.22085359692573547, -0.48137590289115906, -0.19725273549556732, -0.02869267575442791, 0.1393934041261673, -0.12836143374443054, -0.5624904632568359, -0.3842942714691162, 0.6056264638900757, -0.06519578397274017, 0.172353595495224, -0.165453240275383, 0.8207587003707886, -0.2719374895095825, 0.0585685633122921, -0.4182922840118408, -0.16999922692775726, -0.4115244448184967, -0.19577215611934662, -0.048449963331222534, -0.1751144528388977, -0.06554470956325531, -0.5663854479789734, -0.7827775478363037, -0.5502364635467529, -0.3028238117694855, 0.05307922139763832, -0.06914587318897247, -0.07517455518245697, -0.5697625279426575, -0.5415462255477905, 0.27201125025749207, 0.06172982230782509, -0.1835431009531021, 0.42825013399124146, 0.7610328197479248, 0.6268881559371948, 0.6257388591766357, 0.20563223958015442, 0.18445637822151184, -0.03632712736725807, -0.28386518359184265, -0.3231975734233856, 0.05231913551688194, -0.004945476073771715, -0.05257114768028259, -0.11164388060569763, -0.07922396063804626, -0.09488791227340698, -0.674327552318573, -0.926037073135376, -0.3398292064666748, -0.21412083506584167, -0.10689327865839005, 0.32712018489837646, 0.07725091278553009, 0.13644565641880035, -0.20818261802196503, 0.12385619431734085, 0.6683383584022522, 0.4663432836532593, -0.7162348628044128, 0.2355746626853943, 0.8227882981300354, -0.7072184085845947, -0.22309282422065735, 0.5966883897781372, 0.7524008750915527, -0.049669645726680756, -0.2851625084877014, -0.17976510524749756, 0.22666659951210022, 0.1848476529121399, -0.0982247069478035, -0.022164199501276016, -0.22170566022396088, -0.317064493894577, -0.08503945171833038, -0.48289749026298523, 0.15766911208629608, 0.09892427921295166, 0.06773500144481659, 0.3493165075778961, -0.01632022298872471, 0.2738831043243408, 0.21520525217056274, 0.5067245364189148, 0.09048771113157272, -0.011500201188027859, -0.38592109084129333, 0.40660592913627625, -0.00023736513685435057, -0.3825092315673828, 0.04202381521463394, -0.07526174187660217, 0.350856214761734, 0.5908103585243225, 0.03837989643216133, 0.23897498846054077, 0.5787845849990845, 0.41143161058425903, 0.23437577486038208, -0.1805877983570099, -0.28761380910873413, -0.26638829708099365, 0.062272533774375916, 0.5939774513244629, 0.6685881614685059, 0.12298464775085449, 0.1183081865310669, -0.07844998687505722, -0.43657517433166504, 0.32007989287376404, 0.32583436369895935, 0.3622782230377197, 0.275008887052536, 0.44552215933799744, 0.5086629986763, 0.677338719367981, -0.014238840900361538, -0.36737677454948425, -0.2687947154045105, -0.2977164387702942, 0.5761796236038208, 0.16906021535396576, 0.2153930962085724, 0.5800990462303162, 0.4703598618507385, 0.33444494009017944, 0.3762100636959076, 0.22331809997558594, 0.3109284043312073, 0.13839684426784515, 0.04607974365353584, 0.09070535749197006, 0.14750072360038757, 0.037329211831092834, 0.08542472124099731, -0.330779492855072, -0.28854313492774963, -0.04505785182118416, 0.26321157813072205, 0.04157044366002083, -0.21879751980304718, -0.04599930718541145, 0.9231305718421936, 0.7001471519470215, 0.4645189046859741, 0.3043598532676697, -0.263222873210907, -0.16039028763771057, 0.09792482852935791, -0.04211007431149483, -0.1389608383178711, 0.5512502193450928, 0.6382880806922913, 0.36831599473953247, 0.6227043867111206, 0.25388720631599426, 0.11392181366682053, 0.21280018985271454, 0.2500934302806854, -0.26609042286872864, -0.06766477227210999, -0.1777900755405426, -0.09116308391094208, -0.31368014216423035, -0.2528403401374817, -0.5099266767501831, -0.0758395716547966, -0.19877852499485016, 0.34370800852775574, -0.07296844571828842, 0.8727471828460693, 0.8041205406188965, 0.19406607747077942, 0.33574917912483215, -0.007710836827754974, 0.012651227414608002, -0.44177907705307007, 0.3265259265899658, 0.1561213582754135, 0.7406097650527954, 0.41035568714141846, 1.02077317237854, 0.29560014605522156, 0.2155873030424118, 0.23570774495601654, 0.3179948329925537, -0.043586164712905884, -0.02810193970799446, -0.2582067847251892, -0.25746285915374756, -0.23671962320804596, -0.3027110993862152, -0.15793438255786896, -0.4306285083293915, -0.09055830538272858, -0.2279548943042755, 0.04095100611448288, 0.46275845170021057, 1.0340673923492432, 0.6618746519088745, 0.07028791308403015, -0.08111874759197235, -0.05997554957866669, 0.05434974282979965, 0.2564919888973236, 0.45720046758651733, 0.9167219996452332, 0.33872681856155396, 0.9935592412948608, 0.9634542465209961, 0.5080199241638184, 0.17368221282958984, 0.1831943392753601, 0.12520496547222137, -0.1096174493432045, 0.16095282137393951, -0.0248035229742527, 0.1326456367969513, 0.36751505732536316, 0.6451444029808044, 0.4237864315509796, -0.03514320030808449, -0.05603471398353577, 0.05277790501713753, -0.4777873456478119, 0.10456759482622147, 0.36523953080177307, -0.4302169680595398, -0.38619619607925415, -0.054354917258024216, -0.04808250442147255, -0.05176239833235741, 0.1485469937324524, -0.11045646667480469, 1.4312232732772827, 1.587234616279602, 0.8699610233306885, 0.7295854687690735, 0.5502225756645203, 0.6225588917732239, 0.4837438762187958, 1.0677071809768677, 1.2910910844802856, 1.0233248472213745, 0.7797276973724365, 0.4945276081562042, 1.1746257543563843, 1.3645459413528442, 0.6504043340682983, 0.2804076075553894, 0.017357155680656433, 0.0665871873497963, 0.3364849388599396, -0.13538746535778046, 0.36697670817375183, -0.12334667891263962, -0.014858531765639782, 0.0037676244974136353, -0.07413084805011749, 0.06356636434793472, 0.06074649840593338, 0.22780489921569824, 0.20356746017932892, 1.1913107633590698, 1.7661277055740356, 1.8273693323135376, 1.3024177551269531, 1.787783145904541, 1.8038204908370972, 1.380757212638855, 0.7788094282150269, 1.7248238325119019, 2.3120148181915283, 1.936509132385254, 1.6329240798950195, 1.0231314897537231, 1.246520757675171, 0.5471134781837463, 1.0420111417770386, 1.3725453615188599, 1.2446014881134033, 0.6773163676261902, 0.20707406103610992, 0.08078835159540176, 0.0179763063788414, 0.03552398085594177, -0.07493876665830612, -0.000856354832649231, -0.07768536359071732, -0.06838405877351761, 0.06620364636182785, 0.2982940971851349, 0.3466428220272064, 0.466688871383667, 0.7064914107322693, 0.8387946486473083, 1.0521728992462158, 0.6441938877105713, 0.2813184857368469, 1.1429345607757568, 1.3783923387527466, 0.5627354383468628, 0.6143772006034851, 0.7992086410522461, 0.25158894062042236, 0.49992290139198303, -0.20302577316761017, 0.3838404417037964, 0.45943400263786316, 0.1459316462278366, -0.07957629859447479, -0.04906032234430313, -0.04791782796382904, -0.03143163025379181], [-0.02132304012775421, -0.0541573092341423, 0.06821668893098831, 0.012874141335487366, 0.07904475182294846, 0.05820620805025101, -0.04705866798758507, -0.05705418810248375, 0.028150886297225952, 0.052056439220905304, -0.023282013833522797, 0.07736293226480484, -0.1111840009689331, 0.17637434601783752, 0.30088064074516296, 0.08029471337795258, 0.05098172277212143, -0.03431547060608864, -0.004918821156024933, 0.0491890087723732, 0.006526581943035126, -0.06846211105585098, 0.05914738029241562, 0.009010061621665955, -0.012025751173496246, -0.07470611482858658, 0.04621589928865433, -0.027205124497413635, 0.0746944323182106, -0.084090456366539, 0.06832248717546463, 0.08117678016424179, -0.05181926116347313, -0.22450678050518036, -0.11365322768688202, -0.4956863224506378, -0.517026424407959, -1.4983810186386108, -1.3581533432006836, -0.8749107122421265, -0.8270196318626404, -0.6129043698310852, -0.5689751505851746, -0.5101714730262756, -0.022749224677681923, -0.5173072218894958, -1.1248637437820435, -1.01459538936615, -0.7507964968681335, -0.6477982997894287, -0.32987719774246216, -0.2701059579849243, -0.01797480881214142, -0.05447171628475189, 0.07260065525770187, 0.011715903878211975, 0.05595333129167557, -0.02422589436173439, -0.021797938272356987, 0.03285679966211319, 0.036401957273483276, -0.40020403265953064, -1.0869442224502563, -0.9347281455993652, -1.787219524383545, -1.071532964706421, -0.7684343457221985, -1.0087697505950928, -0.5773680806159973, -0.8420933485031128, -1.4293605089187622, -1.4072697162628174, -0.7591514587402344, -0.5688776969909668, -0.9538787603378296, -1.8370674848556519, -1.8584918975830078, -1.0488576889038086, -0.5656905770301819, -0.566839873790741, -0.002528884680941701, 0.1825743466615677, 0.028454020619392395, 0.01509663462638855, -0.0009911060333251953, 0.0704200491309166, 0.04573991149663925, -0.4195582866668701, -0.26787200570106506, -1.1993536949157715, -1.278855323791504, -1.565006971359253, -1.8818036317825317, -1.6723031997680664, -1.7986928224563599, -1.6098883152008057, -1.2874952554702759, -1.9398993253707886, -1.9847086668014526, -1.8866968154907227, -1.9810078144073486, -1.1938848495483398, -0.38251110911369324, -0.7204168438911438, -2.204522132873535, -1.798621416091919, -0.7584581971168518, -0.2728823721408844, 0.33678507804870605, 0.2669040262699127, 0.24941769242286682, 0.08569005876779556, 0.03654935210943222, -0.05066134035587311, -0.004800492897629738, -0.277172714471817, -0.6845077276229858, -0.7148345708847046, -1.3824265003204346, -2.0122790336608887, -2.833507537841797, -3.1817572116851807, -3.240964889526367, -1.7982337474822998, -1.6686506271362305, -2.5287482738494873, -2.8833112716674805, -2.7767767906188965, -3.3885068893432617, -3.8893301486968994, -2.3109896183013916, -2.6089365482330322, -2.753840208053589, -0.9528875946998596, -0.3268131613731384, -0.5259028673171997, -0.18078471720218658, 0.9048466086387634, 0.2617197334766388, -0.28889885544776917, -0.05510053411126137, 0.00012431293725967407, -0.749824583530426, -0.3198868930339813, -0.9207066893577576, 0.6399129629135132, -0.2804161012172699, 0.07992992550134659, 0.3147716522216797, -0.35729968547821045, -0.20313668251037598, -0.5779450535774231, -0.544474184513092, -0.593071460723877, -1.0801094770431519, -0.8951513767242432, -0.9313607811927795, -0.23181584477424622, -0.32814446091651917, -0.1850968897342682, -0.7851599454879761, -0.8850217461585999, -0.6746962070465088, -1.5771483182907104, -0.9584019184112549, 0.12288553267717361, -0.18813194334506989, -0.6876695156097412, -0.053717952221632004, -0.0987614318728447, -0.24322080612182617, 0.4721750020980835, -0.2295646220445633, 0.4843173325061798, 0.25034958124160767, 0.22103768587112427, -0.08038057386875153, 0.13659198582172394, 0.26469287276268005, 0.008576630614697933, -0.297614723443985, -0.07237763702869415, 0.24788735806941986, 0.12402819842100143, 0.32304126024246216, 0.8786276578903198, 0.5260205268859863, 0.29517900943756104, -0.2014109194278717, 0.2775273621082306, 0.30801478028297424, -0.5690842866897583, -1.268275260925293, -0.17134352028369904, -0.5499814748764038, -0.3095146119594574, 0.1560099720954895, 0.5402889251708984, 0.14355146884918213, 0.5663933157920837, 0.07653114944696426, -0.1866486668586731, 0.3362000584602356, 0.26796063780784607, 0.09715056419372559, 0.2636990249156952, 0.061263248324394226, -0.3699020445346832, -0.2716272473335266, 0.1473936289548874, 0.1716848462820053, 0.4290645122528076, 0.5714663863182068, 0.4241114854812622, 0.28364717960357666, 0.3716452419757843, 0.2884732186794281, 0.42207276821136475, -0.013448476791381836, 0.18466871976852417, -0.3668098747730255, 0.1564447283744812, -0.7157386541366577, -0.18095532059669495, -0.5543695688247681, 0.5637660026550293, -0.09083787351846695, 0.21207381784915924, -0.2246280014514923, 0.02319142408668995, 0.144691601395607, -0.03370208293199539, 0.2148837149143219, -0.05118366703391075, -0.2629229724407196, -0.22545485198497772, 0.07630927115678787, 0.16447240114212036, 0.3803968131542206, 0.44230836629867554, 0.19001348316669464, -0.057032886892557144, 0.20815050601959229, 0.23110079765319824, 0.4284425973892212, 0.03603070601820946, -0.33166566491127014, 0.36632341146469116, -0.2057444006204605, -0.5347867608070374, -1.582270622253418, -0.3051551282405853, 0.4101700186729431, 0.7297645807266235, -0.5415729284286499, 0.1774497628211975, 0.12473886460065842, 0.043466661125421524, 0.2533012628555298, -0.12257235497236252, -0.28419482707977295, -0.132296621799469, -0.26753535866737366, -0.09674927592277527, 0.22431151568889618, 0.2857956886291504, 0.6134462952613831, 0.5949749946594238, 0.047657560557127, 0.2747912108898163, 0.16964082419872284, 0.17636029422283173, -0.02395445853471756, -0.03440866246819496, 0.1546396166086197, -0.2598910629749298, 0.16444793343544006, -0.5502316355705261, -0.26088929176330566, 0.46898892521858215, 0.4592611789703369, 0.5004729628562927, 0.3339973986148834, 0.06383207440376282, -0.21759045124053955, 0.1863262802362442, 0.16331371665000916, -0.03535206615924835, -0.4674169719219208, -0.017971694469451904, -0.1171068623661995, 0.2236289232969284, 0.25780436396598816, 0.09146560728549957, 0.06944909691810608, 0.23492012917995453, 0.4349237084388733, -0.05413355678319931, 0.032083094120025635, 0.06717779487371445, 0.05491138622164726, 0.405667245388031, 0.15386490523815155, -0.29209211468696594, -0.4930255115032196, 0.3092254102230072, -0.04510144889354706, 0.5958617925643921, 0.5640703439712524, -0.19850850105285645, 0.7366495132446289, 0.6872379183769226, 0.22528992593288422, 0.05441456660628319, 0.045247193425893784, 0.19226345419883728, -0.10964273661375046, 0.1878383606672287, 0.24341507256031036, 0.6108250617980957, 0.028811996802687645, -0.17627276480197906, 0.37754523754119873, 0.4561862349510193, 0.42710211873054504, 0.34523874521255493, 0.1233728677034378, 0.05952361598610878, 0.42849212884902954, 0.18108607828617096, 0.421991765499115, 0.27851396799087524, -0.8217170238494873, 0.2739429473876953, -0.781251072883606, 0.3222046196460724, 0.4140145182609558, -0.15480153262615204, 0.7422623634338379, 0.42328137159347534, 0.9431013464927673, 0.4845540225505829, 0.027624087408185005, 0.06441082060337067, 0.1873323619365692, 0.07222360372543335, 0.17389266192913055, -0.1632518768310547, -0.7012880444526672, -0.8238977789878845, 0.03437428176403046, 0.5632289052009583, 0.5348179936408997, 0.3095821142196655, 0.3527100682258606, 0.11520835012197495, -0.2432386726140976, 0.0488036572933197, 0.022670745849609375, -0.10451357066631317, -0.9807283878326416, -0.061369724571704865, 0.31668752431869507, 0.5048636794090271, -0.2900595963001251, -0.4370841979980469, 0.7563943862915039, 0.4093119502067566, 0.6362334489822388, 0.29507043957710266, 0.11155441403388977, 0.3805055320262909, -0.06155260652303696, -0.1019434705376625, -0.1978517472743988, -0.16721482574939728, -0.7957049608230591, -1.0486997365951538, -0.2286612093448639, -0.08327224850654602, 0.20254185795783997, 0.17988601326942444, 0.41467106342315674, -0.0021526713389903307, -0.01066382322460413, 0.33288148045539856, 0.13100047409534454, -0.11279912292957306, 0.0026737332809716463, 0.17041894793510437, 0.32029178738594055, -0.24976210296154022, -0.4708423912525177, -0.3004004657268524, 0.19719792902469635, 0.6453849077224731, 0.41830208897590637, 0.12829779088497162, 0.4770422875881195, 0.41171544790267944, -0.11343518644571304, 0.30715957283973694, -0.12898382544517517, -0.44283947348594666, -0.9517053365707397, -0.9362523555755615, -0.4524812400341034, -0.14419449865818024, 0.0020368993282318115, 0.14549683034420013, 0.5782608985900879, 0.35802578926086426, 0.06797004491090775, 0.11019279062747955, -0.12686952948570251, 0.3580550253391266, -0.10829488933086395, -0.5063188672065735, 0.37030741572380066, 0.38564953207969666, 0.020865725353360176, -0.3783259093761444, -0.995418906211853, 0.4504309594631195, 0.963495135307312, 0.6074345707893372, 0.16893473267555237, -0.020864291116595268, 0.24386464059352875, 0.020290788263082504, 0.05454840883612633, -0.1400923877954483, -0.5080315470695496, -0.5490229725837708, -0.5576332211494446, 0.15340599417686462, 0.11235148459672928, 0.5756873488426208, 0.6638397574424744, 0.010096000507473946, 0.22736167907714844, 0.3368135094642639, 0.1193913072347641, 0.03428318724036217, -0.10234896838665009, -0.11419478058815002, 0.35373231768608093, -0.5417662262916565, 0.4398879110813141, -0.16070744395256042, -0.6123889088630676, 0.10172808170318604, 0.6431085467338562, 0.3559460937976837, 0.05665772035717964, -0.11406253278255463, 0.016375567764043808, 0.36607375741004944, 0.33298811316490173, -0.15223118662834167, -0.1416405439376831, -0.13548755645751953, -0.12869231402873993, 0.11859342455863953, 0.5071109533309937, 0.5306468605995178, 0.2049969583749771, 0.41723859310150146, 0.1186617836356163, 0.5365375280380249, 0.32318806648254395, 0.104454405605793, -0.23323805630207062, -0.8495010137557983, 0.1674116551876068, 0.17726212739944458, -0.028700366616249084, -0.05078849941492081, -0.17451198399066925, -0.19851768016815186, -0.22256039083003998, 0.005195955280214548, -0.21787376701831818, -0.23057414591312408, -0.13404765725135803, 0.13615868985652924, -0.014627283439040184, -0.2192622423171997, 0.055760517716407776, -0.12941141426563263, 0.18273213505744934, 0.22758398950099945, 0.3910028636455536, 0.24977576732635498, 0.6247404217720032, 0.39768049120903015, 0.3827732801437378, 0.13809601962566376, -0.35978350043296814, -0.1502363234758377, -0.2713452875614166, 0.4722752571105957, 0.17766563594341278, 0.4151039123535156, 0.42753925919532776, 0.08889948576688766, 0.22726520895957947, -0.32469335198402405, -0.457647442817688, -0.6433321833610535, -0.5085914134979248, -0.16939981281757355, -0.36537569761276245, -0.16916842758655548, 0.2634872794151306, 0.18073420226573944, -0.18010908365249634, -0.09101937711238861, 0.3138260841369629, -0.07690729945898056, 0.31264907121658325, 0.3764689862728119, 0.45988139510154724, 0.5752931833267212, 0.32535114884376526, 0.3414282500743866, -0.07591583579778671, -0.744451642036438, -0.7293298840522766, 0.019140515476465225, 0.3844374716281891, -0.4922983944416046, 0.07400140911340714, 0.5240849852561951, 0.2007538080215454, -0.1543157696723938, 0.24450437724590302, -0.7105228304862976, -0.18213392794132233, -0.07872336357831955, -0.10280000418424606, 0.16371335089206696, 0.3818042278289795, 0.49435955286026, 0.3834152817726135, 0.01436738669872284, -0.023561278358101845, -0.4557216465473175, -0.041644684970378876, 0.05695400387048721, -0.2586653530597687, 0.14599491655826569, 0.3284275233745575, 0.5888663530349731, 0.15952521562576294, -0.3754812479019165, 0.06412933021783829, -0.05172092095017433, -0.06855309009552002, -0.49157315492630005, -0.017653360962867737, -0.29715874791145325, 0.13198667764663696, -0.12296761572360992, -0.2814160883426666, -0.7884293794631958, -0.7903295755386353, -0.413993239402771, -0.5072543025016785, -0.13730932772159576, 0.1103937104344368, 0.26032277941703796, 0.12815551459789276, 0.15553340315818787, -0.23332732915878296, -0.5854876041412354, -0.5393622517585754, -0.6109594702720642, -0.7632993459701538, -0.24339301884174347, -0.1705404818058014, 0.07829039543867111, -0.24365189671516418, -0.017924802377820015, 0.40609875321388245, -0.501439094543457, -0.30802121758461, 0.004745060112327337, -0.00880871806293726, -0.23201358318328857, 0.04332355037331581, -0.8610732555389404, 0.4057469069957733, 0.1621856838464737, -0.6160286068916321, -0.6256387233734131, -0.7807304263114929, -0.7130835056304932, -0.22283029556274414, -0.1555549055337906, -0.11456820368766785, -0.37873920798301697, -0.6184081435203552, -0.7814740538597107, -0.4655011296272278, -0.5730056166648865, -0.6526359915733337, -0.6629483103752136, -0.40800079703330994, -0.28834396600723267, -0.6635342240333557, -0.5368601083755493, 0.6919832825660706, -0.34611013531684875, -0.9249980449676514, 0.06140774115920067, 0.06512799113988876, -0.09958568215370178, -0.26958030462265015, -0.7502897381782532, 0.3891861140727997, 0.14608772099018097, -0.19580401480197906, -0.2482881397008896, -0.4011614918708801, -0.3332624137401581, -0.2001466453075409, -0.5729696154594421, -0.12917324900627136, -0.737173855304718, -0.168406680226326, -0.5224437117576599, -0.3351067304611206, -0.6276443004608154, -0.876192569732666, -0.96853107213974, -0.6007702946662903, -0.9696279168128967, -0.3703344464302063, -0.4953172504901886, 0.1727474182844162, 0.07618829607963562, -0.6714907884597778, -0.09210194647312164, 0.03112686425447464, -0.057640593498945236, -1.1501719951629639, -1.0565656423568726, 0.4082631468772888, -0.20670253038406372, -0.02437080629169941, -0.047020964324474335, -0.690049409866333, -0.23643368482589722, -0.5357270836830139, -0.5810502171516418, -0.7774853706359863, -0.749790370464325, -0.6272047162055969, -0.8013516664505005, -0.7761020064353943, -1.0394562482833862, -1.0450453758239746, -0.8263945579528809, -0.5995072722434998, -0.4056072533130646, -0.48756536841392517, -0.019809655845165253, 0.8160101175308228, -0.2670460343360901, -0.8388833403587341, 0.019012480974197388, 0.005598768591880798, 0.022260494530200958, 0.3114223778247833, -0.3299248218536377, 0.7241069078445435, -0.10274326056241989, 0.3499242961406708, -0.09314322471618652, -0.339584082365036, -0.3321871757507324, -0.6213757991790771, -0.7143515348434448, -0.974717915058136, -0.636993408203125, -0.5993234515190125, -0.7093502879142761, -1.0395076274871826, -0.5133853554725647, -0.7723383903503418, -0.31975916028022766, 0.05098174139857292, 0.4000835716724396, -0.8174733519554138, -0.07819965481758118, 0.019418131560087204, -0.6517878174781799, -0.04873332008719444, 0.07685365527868271, 0.007888935506343842, 0.05124372988939285, -0.5349218845367432, 0.5514774918556213, 0.30058524012565613, 0.04808880761265755, 0.052274495363235474, -0.1253550499677658, -0.12283169478178024, 0.07829263061285019, -0.37990033626556396, -0.05757392942905426, -0.06271877139806747, 0.06050945818424225, 0.12225160002708435, -0.24097536504268646, -0.3419586420059204, -0.4304863512516022, -0.3622511923313141, -0.15959453582763672, -0.14037957787513733, 0.13434860110282898, -0.042808983474969864, -0.31217145919799805, -0.08068142086267471, -0.03542157635092735, -0.3235303461551666, -0.05564739182591438, 0.004733569920063019, -0.05609485134482384, -0.06641323119401932, 0.1156177818775177, -0.6214061975479126, 0.5151389241218567, 0.99261075258255, 0.369162380695343, 0.2588949203491211, 0.3862966001033783, 0.12627437710762024, -0.0644831508398056, -0.15652313828468323, 0.629360556602478, 0.5769240260124207, 0.192885160446167, 0.06602060794830322, -0.13550931215286255, 0.2091737687587738, 0.43516436219215393, 0.5625950694084167, 0.08019197732210159, 0.509981632232666, 0.8719663619995117, 0.37162578105926514, 0.2292722910642624, 0.07014485448598862, 0.03867597132921219, 0.07928559929132462, -0.0781286433339119, 0.05941750854253769, 0.00574946403503418, 0.3360310196876526, 0.596491277217865, -0.14822150766849518, 0.20875971019268036, -0.055144548416137695, 0.6705942749977112, 0.8418576121330261, 0.3184427320957184, 0.014542531222105026, 1.1079387664794922, 1.4444329738616943, 0.32380211353302, 0.44321268796920776, 0.8781932592391968, 0.14141136407852173, 0.42109692096710205, -0.2869492471218109, 0.3031233549118042, 0.33753424882888794, 0.36614927649497986, 0.02574390172958374, -0.06436550617218018, -0.07129250466823578, -0.052367448806762695], [-0.015498533844947815, -0.010900139808654785, -0.03778145834803581, 0.06768462806940079, 0.04403572529554367, 0.036724627017974854, -0.08543791621923447, -0.0384189747273922, -0.07504461705684662, 0.04164547473192215, 0.040307290852069855, 0.04587212949991226, -0.23250465095043182, -0.27621182799339294, -0.09990257024765015, 0.07018638402223587, -0.001560397446155548, -0.049719661474227905, 0.0811004713177681, 0.017130978405475616, 0.05848752707242966, -0.08370217680931091, -0.031757112592458725, 0.03581151366233826, -0.0061411261558532715, 0.00938936322927475, -0.019770458340644836, -0.032745618373155594, 0.06187192350625992, -0.07073386013507843, -0.017406441271305084, 0.07040216773748398, -0.1258045732975006, -0.37367647886276245, -0.7450319528579712, -0.9785407185554504, -0.5119709372520447, -0.9932056665420532, -1.0157212018966675, -0.9710750579833984, -0.7858627438545227, -0.4975303113460541, -0.4926215410232544, -0.8091663122177124, -0.9216867089271545, -1.2995283603668213, -1.2856441736221313, -1.138602375984192, -0.9075506925582886, -0.9148479700088501, -0.7127742767333984, -0.6102731823921204, 0.05492208153009415, 0.021496452391147614, 0.01952187716960907, 0.0832303836941719, 0.06040959805250168, 0.012782461941242218, -0.3293999135494232, 0.1765662282705307, -0.5181676149368286, -0.7577935457229614, -0.9012289643287659, -1.4716856479644775, -1.3168842792510986, -1.9014233350753784, -1.6251345872879028, -1.510543704032898, -2.159043550491333, -1.7048919200897217, -0.8345146179199219, -0.9398882985115051, -1.1198865175247192, -0.9195228219032288, -0.6892439126968384, -0.2900584936141968, -0.20512887835502625, -1.0755419731140137, -0.648806095123291, -0.7932835817337036, -1.0062689781188965, -0.6663982272148132, 0.02095506340265274, -0.018292203545570374, -0.030884668231010437, -0.045096661895513535, -0.7076596617698669, -0.794257640838623, -0.1460902839899063, 0.0933966115117073, -0.06458661705255508, 0.3713083267211914, 0.5196980834007263, 0.2596724331378937, 0.6302552223205566, 0.33006158471107483, 0.006484407000243664, 0.09720194339752197, 0.9204411506652832, 1.0384637117385864, 0.45214399695396423, 0.5329523682594299, 0.4312707185745239, -0.03929437696933746, -0.4286291301250458, 0.16655120253562927, -0.4720360338687897, -0.7142202258110046, -0.2779173254966736, 0.1104390099644661, 0.41358405351638794, -0.02817702665925026, 0.018348760902881622, 0.08576510101556778, -0.3468373715877533, 0.2004997432231903, -0.3705417811870575, -0.0843525230884552, 0.2131817489862442, 0.5414890050888062, 0.5144963264465332, 0.5174313187599182, 0.0053720008581876755, -0.2281533181667328, -0.24490082263946533, -0.1913924664258957, 0.003790652845054865, 0.4093818664550781, 0.5531871318817139, 0.6802201867103577, 0.4188738763332367, 0.6105815172195435, 0.09265739470720291, 0.6141548752784729, 0.16128851473331451, -0.07770980149507523, 0.042615026235580444, 0.7175298929214478, 0.6741304993629456, 0.2871885299682617, 0.07239679247140884, 0.008348703384399414, -1.1968871355056763, -0.03929244354367256, -0.9138780236244202, 0.07160554081201553, -0.08560512959957123, -0.11201729625463486, 0.5065103769302368, 0.5333918929100037, 0.1075051873922348, 0.31615859270095825, 0.08620408177375793, 0.18433937430381775, 0.11632843315601349, -0.0023664957843720913, 0.45127519965171814, 0.41956964135169983, 0.4214506447315216, 0.4864767789840698, 0.24375779926776886, -0.2302745282649994, -0.2641156017780304, -0.39199987053871155, -0.9325287342071533, 0.026273636147379875, 0.333315908908844, 0.2915528416633606, 0.04112819582223892, -0.10117372125387192, 0.24417145550251007, -0.019999664276838303, -0.4457187354564667, 0.47347956895828247, -0.10551056265830994, 0.4389183223247528, 0.9562905430793762, 0.6428872346878052, 0.2114381492137909, 0.07298347353935242, 0.25079578161239624, 0.37821099162101746, 0.3446112275123596, -0.02954341471195221, 0.06516360491514206, 0.2024594247341156, -0.11793290823698044, 0.3303336799144745, 0.21833506226539612, 0.14704813063144684, -0.05922721326351166, -0.06875959783792496, -0.3119816780090332, -0.2524681091308594, 0.4243873059749603, -0.34947165846824646, 0.04100123792886734, 0.6004062294960022, 0.621457576751709, 0.6680038571357727, 0.750987708568573, 0.7247045040130615, 0.5774019360542297, 0.6015737652778625, 0.6868079900741577, 0.22067014873027802, -0.07423431426286697, -0.02011161670088768, 0.17554667592048645, 0.3134395480155945, -0.03843342512845993, -0.09634657949209213, 0.017282113432884216, 0.060772594064474106, 0.18707141280174255, 0.3713759183883667, 0.35502928495407104, 0.06748632341623306, -0.21486510336399078, 0.09208525717258453, 0.09920034557580948, 0.14553698897361755, -0.277159720659256, -0.1466284841299057, -0.45486709475517273, -0.40240782499313354, 0.7287275195121765, 0.9219324588775635, 1.2981815338134766, 0.5796146392822266, -0.010630040429532528, 0.4571007192134857, 0.7531366348266602, 0.18879488110542297, -0.7812377214431763, 0.09548311680555344, 0.2431536465883255, -0.02793966978788376, -0.28473982214927673, -0.5224650502204895, 0.16909532248973846, 0.03403140604496002, 0.4437052607536316, 0.18434545397758484, 0.09554066509008408, 0.436139851808548, 0.32855769991874695, 0.5140621066093445, 1.686907172203064, 0.49509814381599426, -0.3867863714694977, 0.17275606095790863, -0.02056855522096157, 0.3201981782913208, 0.7753689885139465, -0.08261511474847794, 0.3859993517398834, 0.12156327068805695, 0.21250022947788239, -0.1638309210538864, 0.5146257281303406, 0.15329328179359436, 0.1271553486585617, 0.3583720326423645, 0.36554455757141113, 0.2651442289352417, -0.6185747385025024, -0.8952664136886597, -0.28005334734916687, 0.3630959689617157, 0.4509488344192505, 0.5700514316558838, 0.4006592929363251, 0.9114951491355896, 0.7829729318618774, 1.2867716550827026, 1.9448559284210205, 0.8390229344367981, -0.49495363235473633, -0.02220780774950981, 0.03870859369635582, -0.2101454883813858, 1.1698110103607178, 1.0906851291656494, 1.0352081060409546, -0.3104873299598694, 0.11192148178815842, -0.036688774824142456, 0.1332896500825882, 0.5649775266647339, 0.46288153529167175, -0.042587555944919586, 0.40326401591300964, -0.021942809224128723, -0.6832259893417358, -0.7583598494529724, -0.2732926905155182, 0.10165610164403915, 0.5045468211174011, 0.9163594245910645, 0.8130950927734375, 0.7775223851203918, 0.5038960576057434, 1.2885684967041016, 1.663429856300354, 0.2808494567871094, -0.27503684163093567, -0.2826460897922516, 0.015076324343681335, -0.652647852897644, 0.5092715620994568, 1.2207766771316528, 0.8151892423629761, 0.03752937167882919, 0.461306631565094, -0.07138794660568237, 0.0692691057920456, 0.23459886014461517, 0.1906854510307312, 0.21466802060604095, 0.3549727201461792, -0.2827642261981964, -0.5969035029411316, -0.42070502042770386, 0.2302393615245819, 0.6179746985435486, 0.7321187257766724, 0.5320931077003479, 0.41925883293151855, 0.2751195430755615, 0.07933174073696136, 0.40461796522140503, 0.5171642303466797, -0.10498066991567612, 0.37150999903678894, -0.27089157700538635, 0.04284600540995598, 0.5173583626747131, 0.41554057598114014, 0.6724286079406738, 0.597542405128479, 0.4980238676071167, 0.9318448305130005, 0.3838166296482086, 0.7174599170684814, 0.6003417372703552, 0.9353621602058411, 0.7884471416473389, 0.19909438490867615, -0.24167700111865997, -0.6988695859909058, -0.0795709490776062, 0.3308797776699066, 0.3997405469417572, 0.6734529733657837, 0.785560667514801, 0.3724431097507477, -0.049217019230127335, -0.19533368945121765, -0.05509248003363609, 0.18110860884189606, 0.028063716366887093, -0.22358030080795288, -0.48051905632019043, -0.21728740632534027, 0.47098252177238464, 0.21455003321170807, 0.2529227137565613, 0.8454096913337708, 1.161199927330017, 1.5141773223876953, 0.47465789318084717, 0.5307559967041016, 0.5767448544502258, 0.6590081453323364, 0.2941615581512451, -0.4842160642147064, -0.742426335811615, -0.3870110809803009, 0.09903240203857422, 0.23847979307174683, 0.25051888823509216, 0.7616559863090515, 0.33342212438583374, 0.0056738597340881824, -0.06307695060968399, -0.1720123291015625, -0.44586411118507385, -0.0024730742443352938, -0.11928117275238037, -0.43691086769104004, -0.40393492579460144, -0.304120272397995, 0.49979016184806824, -0.1406787931919098, -0.15903010964393616, 0.09920430928468704, 1.3077425956726074, 0.8169864416122437, 0.08990094065666199, 0.3844835162162781, 0.3230675160884857, 0.1652505248785019, -0.22287890315055847, -0.49528101086616516, -0.6169454455375671, -0.4334116280078888, -0.04813869297504425, -0.20472010970115662, 0.5535944104194641, 0.24689997732639313, 0.31577637791633606, 0.1305040866136551, 0.33938702940940857, -0.284353107213974, -0.048484526574611664, 0.028993524610996246, -0.3173860013484955, -0.7396132349967957, -0.49976101517677307, -0.20852993428707123, 0.41640931367874146, -0.35010892152786255, -0.2198472023010254, -0.1281779557466507, 0.18966026604175568, 0.36455753445625305, 0.28480684757232666, 0.3411560356616974, 0.3395482003688812, -0.0725250393152237, -0.6403308510780334, -0.5117812752723694, -0.9403355121612549, -0.5915167927742004, -0.3009490966796875, -0.15403519570827484, 0.33956480026245117, 0.4847950041294098, 0.38367390632629395, 0.43806231021881104, 0.017787884920835495, 0.09793292731046677, -0.2697680592536926, -0.49532341957092285, -0.6573591828346252, 0.05961637571454048, -0.473243772983551, -0.02120276726782322, 0.06850283592939377, -0.32379207015037537, 0.23809514939785004, -0.08984538167715073, -0.4249192178249359, -0.09865957498550415, 0.30959218740463257, 0.45349395275115967, 0.0807376354932785, -0.1441575586795807, -0.27285608649253845, -0.30821678042411804, -0.7918453812599182, -0.8295624256134033, -0.37713485956192017, -0.314036101102829, 0.3129103183746338, 0.7297276258468628, 0.7780522704124451, 0.6359551548957825, 0.17828169465065002, -0.2704216539859772, -0.4788612425327301, -0.5197524428367615, -0.5514103770256042, -0.8993021249771118, 0.2538146674633026, -0.0680219978094101, -0.036393020302057266, -0.1489962935447693, 0.0250894483178854, 0.07705818116664886, -0.5552343130111694, -0.7459635138511658, 0.13898198306560516, 0.17129726707935333, 0.1994989514350891, 0.14328297972679138, -0.2900627553462982, -0.30827805399894714, -0.4108998477458954, -0.6965848207473755, -0.38393136858940125, 0.10961045324802399, 0.5270671844482422, 0.5026681423187256, 0.1296534538269043, -0.18179437518119812, -0.24325013160705566, -0.13294926285743713, -0.33480900526046753, 0.21300333738327026, -0.23500704765319824, -0.6391301155090332, 0.010517953895032406, 0.2721012234687805, 0.13715507090091705, 0.29107391834259033, -0.6127119660377502, -0.04190429300069809, -0.20458482205867767, -0.5201127529144287, -0.16642586886882782, -0.2785351276397705, -0.04597289860248566, 0.2136567384004593, -0.005357845686376095, -0.32061833143234253, -0.5078321695327759, -0.5774336457252502, -0.30141183733940125, 0.09223300218582153, 0.11768623441457748, -0.1214987114071846, 0.12585215270519257, -0.22095441818237305, -0.06339993327856064, -0.43608251214027405, 0.10118066519498825, -0.5628793239593506, -0.19920894503593445, -0.19044360518455505, -0.5388399958610535, -0.323430597782135, 0.5159004926681519, 0.30641546845436096, -0.5619001984596252, -0.23537464439868927, 0.11439597606658936, 0.16575846076011658, -0.24683943390846252, 0.14040035009384155, -0.04552290961146355, 0.29696401953697205, -0.07442927360534668, -0.25081750750541687, -0.4679575562477112, -0.37228986620903015, -0.4897288680076599, -0.3996955156326294, -0.3560602068901062, -0.24081920087337494, -0.28990796208381653, -0.3964109420776367, -0.15168587863445282, -0.02395031973719597, -0.12736603617668152, -0.8609461188316345, -0.3140851855278015, -1.245794653892517, -0.5503815412521362, -0.04282446578145027, 0.47485801577568054, 0.2850370407104492, -0.47659650444984436, -0.15383441746234894, 0.06892663240432739, -0.3625182807445526, 0.002764657372608781, -0.38367024064064026, -0.188703715801239, 0.03802868723869324, -0.48420044779777527, -0.4967614710330963, -0.22316235303878784, -0.17784926295280457, 0.11110055446624756, -0.041951436549425125, -0.17729710042476654, -0.7562702298164368, -0.7224409580230713, -0.584477961063385, -0.33727607131004333, -0.28730401396751404, -0.14659693837165833, -0.9627979397773743, -0.2698778212070465, -1.1551849842071533, -0.03349151462316513, -0.2074991762638092, -0.3644331395626068, 0.4432136118412018, -0.005949071608483791, -0.32787102460861206, -0.664382815361023, -0.3826799690723419, -0.4608393907546997, -0.144372820854187, -0.26602011919021606, -0.2729171812534332, -0.06561174243688583, 0.14884768426418304, 0.18168801069259644, 0.1480344831943512, 0.20955854654312134, 0.5702527761459351, 0.4791455864906311, -0.17822758853435516, -0.7156836986541748, -0.23982179164886475, -0.7146651744842529, -0.6134611368179321, -0.5077045559883118, -0.44833487272262573, -0.24015523493289948, -0.20204846560955048, 0.09657531976699829, -0.26997509598731995, -0.14896845817565918, 0.05819885432720184, -0.12002291530370712, -0.3060380518436432, -0.22043170034885406, -0.0923643708229065, 0.22773045301437378, -0.0031620096415281296, -0.2568221390247345, 0.16542406380176544, 0.37429264187812805, 0.6223412156105042, 0.6050413250923157, 0.7407801747322083, 0.9095693826675415, 1.1406457424163818, 0.8649482131004333, -0.06642305105924606, -0.04827534407377243, -0.5300455689430237, -0.5366763472557068, -0.16164802014827728, -0.01788308657705784, -0.25309258699417114, -0.289822518825531, 0.25784921646118164, 0.024185823276638985, -0.06779208779335022, -0.0754198357462883, 0.44448164105415344, 0.3581347167491913, 0.14102138578891754, 0.04428315907716751, 0.33620399236679077, 0.3016014099121094, 0.4651399552822113, 0.04758763313293457, 0.5506353974342346, 0.40487536787986755, 0.20064973831176758, 0.6407453417778015, 1.2448261976242065, 1.1181834936141968, 0.8902113437652588, 0.47730082273483276, 0.14610038697719574, 0.26887965202331543, -0.37740227580070496, 0.218686044216156, -0.3041195869445801, 0.43463724851608276, 0.17558714747428894, 0.5680013298988342, -0.10008411109447479, 0.020967997610569, 0.03531026095151901, 0.07434801012277603, 0.25754374265670776, 0.955776035785675, 0.5971282124519348, 0.26732227206230164, 0.14810989797115326, 0.04274129495024681, 0.2583189010620117, 0.2408326417207718, 0.10854409635066986, 0.07486420124769211, 1.0007765293121338, 1.3407726287841797, 1.5310206413269043, 1.5291361808776855, 1.4848734140396118, 0.9193495512008667, 0.6624498963356018, 0.6976956129074097, 0.3107762634754181, 0.8155709505081177, 1.1126240491867065, 0.9000703692436218, 0.7087624669075012, -0.5382415056228638, -0.651644766330719, -0.018505841493606567, -0.07442988455295563, 0.08553618937730789, 0.1886540800333023, -0.577960193157196, 0.17850299179553986, 0.7767001390457153, 0.21183986961841583, 0.4351312220096588, 0.16758982837200165, 0.31016796827316284, 0.7359235286712646, 0.5960679054260254, 1.0166641473770142, 1.6033200025558472, 1.6307480335235596, 2.6943273544311523, 3.1500730514526367, 2.1407101154327393, 2.726184606552124, 2.7326250076293945, 1.8590760231018066, 0.7061086893081665, 0.8214309215545654, 0.2569192051887512, 0.7762753367424011, -0.1998778134584427, -0.2319866120815277, -0.06636838614940643, -0.013479456305503845, 0.026772156357765198, 0.07671917229890823, 0.19386513531208038, 0.7777847051620483, 0.5027714967727661, -0.02992388792335987, 0.15812133252620697, 0.15670377016067505, 1.1395820379257202, 0.5892654657363892, 0.3406214118003845, 1.575061559677124, 1.6621376276016235, 1.410915493965149, 1.3814820051193237, 2.038029432296753, 1.5205211639404297, 1.3324440717697144, 1.3156334161758423, 1.6867929697036743, 0.6244328022003174, 0.6529641151428223, 0.6079601049423218, 0.20866969227790833, 0.038936421275138855, -0.00247926265001297, 0.021876879036426544, 0.0007740035653114319, -0.0228971466422081, 0.0774298682808876, -0.03615099564194679, 0.012465410865843296, -0.026363886892795563, 0.11411229521036148, 0.16970837116241455, 0.13981856405735016, 0.1536412537097931, 0.614779531955719, 0.42520973086357117, 0.4128343164920807, 0.5639470219612122, 0.7854663729667664, 0.26472318172454834, 0.0789807140827179, 0.4909166395664215, 0.45154502987861633, 0.6946196556091309, 0.6228781938552856, 0.749311089515686, 0.42729806900024414, -0.16054491698741913, -0.02557721734046936, -0.06021498143672943, 0.08208071440458298, -0.058954231441020966], [-0.05707564204931259, -0.021136276423931122, 0.011792190372943878, -0.060641929507255554, -0.023209139704704285, -0.015249297022819519, 0.06542984396219254, 0.029564231634140015, -0.07447519898414612, 0.019973494112491608, 0.08097457140684128, 0.07518164068460464, -0.15745510160923004, -0.33265116810798645, 0.026388758793473244, 0.024281902238726616, 0.07298890501260757, 0.0235913023352623, -0.05046077445149422, -0.044119641184806824, 0.05934835225343704, -0.05018828436732292, 0.014636628329753876, -0.00358474999666214, 0.02047736942768097, 0.033541932702064514, 0.00010629743337631226, -0.08393663167953491, 0.011598818004131317, -0.08398299664258957, -0.06901830434799194, -0.02705489844083786, -0.15036743879318237, -0.17188039422035217, -0.5063114762306213, -0.7256924510002136, -0.420086145401001, -0.5106066465377808, -0.5571354627609253, -0.30204710364341736, -0.8949328660964966, -0.68331378698349, -0.3642074167728424, -0.7799899578094482, -0.6848719716072083, -1.1534229516983032, -1.279327392578125, -1.1777862310409546, -0.9922777414321899, -1.0215429067611694, -0.700514554977417, -0.536533772945404, -0.06335871666669846, -0.06354033946990967, 0.0018447339534759521, 0.05320990830659866, -0.05899816006422043, 0.006427839398384094, -0.3202887177467346, -0.3011913597583771, -0.6636465191841125, -0.5647755861282349, -0.0768318921327591, -0.5009135603904724, -0.4351581633090973, -0.2202496975660324, -0.2898366451263428, -0.15258902311325073, -0.15805864334106445, -0.48264458775520325, -0.04652296379208565, -0.555409848690033, -0.9011834263801575, -0.6248293519020081, -0.7477027177810669, -1.3399548530578613, -1.4826372861862183, -0.829342782497406, -0.8305217623710632, -0.8155736327171326, -0.19531898200511932, -0.040710125118494034, -0.08074892312288284, 0.009249046444892883, 0.017205268144607544, 0.03813934326171875, -0.680371880531311, -0.8419029712677002, -0.4848252832889557, -0.4997031092643738, -0.7123497128486633, -0.22180598974227905, -0.09486237168312073, -0.4704747796058655, -0.3191560208797455, -0.17923478782176971, -0.7139467000961304, -0.9173837304115295, -0.22457292675971985, -0.34460750222206116, -0.24411515891551971, 0.21912454068660736, -0.03258439525961876, -0.5351405143737793, -0.6126860976219177, 0.5222276449203491, 0.3410952687263489, 0.22151610255241394, 0.2788437604904175, 0.2929481863975525, -0.3726743161678314, -0.056806549429893494, 0.013295583426952362, -0.0674174427986145, -0.5903493165969849, -0.7174392938613892, -0.775405764579773, -0.2522827982902527, 0.04751807078719139, 0.36251750588417053, -0.00923657976090908, -0.10867760330438614, -0.44179993867874146, -0.02380967326462269, 0.2742793560028076, 0.07161914557218552, -0.0745777040719986, 0.22375883162021637, 0.15268871188163757, 0.5128784775733948, 0.5623409748077393, 0.11563555151224136, -0.3216407299041748, -0.07824722677469254, 0.1174066886305809, 0.11081217974424362, 0.21026919782161713, 1.453429937362671, 0.06224750727415085, 0.32018858194351196, 0.07026075571775436, 0.06818120926618576, -1.18732488155365, 0.36125585436820984, -0.9547277092933655, -0.5565997362136841, -0.30252641439437866, -0.3166272044181824, -0.1934240311384201, 0.15784336626529694, 0.3764408826828003, 0.819034993648529, 0.6130357980728149, 0.1666800081729889, 0.12417241930961609, 0.08769490569829941, 0.15787452459335327, 0.4742242097854614, 0.738747775554657, 0.14445523917675018, -0.03278356045484543, -0.17469573020935059, 0.465656042098999, 0.05383266881108284, 0.29019781947135925, 1.2529256343841553, -0.6986035704612732, 0.2582181394100189, 0.0652240440249443, -0.27532991766929626, -0.055305689573287964, -1.0139473676681519, -0.8067306280136108, -0.7623134255409241, -0.854407787322998, -0.138411283493042, 0.2524096667766571, 0.32814347743988037, 0.10636186599731445, 0.2032983899116516, 0.2779950499534607, 0.296246737241745, 0.5279259085655212, 0.4685123562812805, 0.6541775465011597, 0.7403501272201538, 0.5943583846092224, 0.2408641129732132, 0.42378512024879456, 0.44989487528800964, 0.44303610920906067, 0.42723730206489563, 0.36444780230522156, 0.5147626996040344, -0.26431843638420105, -0.3756219744682312, -0.0167242344468832, -0.36219340562820435, 0.1696355938911438, -0.9931458830833435, -0.38634517788887024, -0.10875879228115082, -0.35453611612319946, -0.31249111890792847, 0.10218644142150879, -0.18739596009254456, -0.13320638239383698, 0.1996483951807022, 0.13188432157039642, 0.37962058186531067, 0.27580544352531433, 1.0458861589431763, 1.0214097499847412, 0.7640939950942993, 0.7754477858543396, 0.007836396805942059, 0.10040699690580368, 0.424637109041214, 0.7071673274040222, 0.7217682003974915, 1.0454349517822266, 0.8072684407234192, -0.2534951865673065, -0.31063219904899597, -0.24885664880275726, 0.24015283584594727, -0.1579892933368683, -0.5254884362220764, -0.025790642946958542, -0.22307167947292328, -0.8295175433158875, -0.06998364627361298, -0.38491934537887573, -0.3792308270931244, -0.3424140214920044, 0.17101365327835083, 0.07329680025577545, -0.11736258864402771, -0.12652625143527985, 0.2692367434501648, 0.6645914316177368, 0.620269775390625, 0.8070776462554932, 0.2520768940448761, 0.231437087059021, 0.6091553568840027, 0.7406944632530212, 0.3900049030780792, 0.8477402925491333, 0.9519049525260925, 0.5212315917015076, -0.22720006108283997, -0.10250401496887207, -0.5655890107154846, -0.06945645064115524, -0.7496396899223328, -1.192894697189331, -0.06994171440601349, -0.6343315839767456, -0.05069683864712715, -0.2591075301170349, -0.31496018171310425, 0.4195740818977356, 0.38956785202026367, 0.04528976231813431, -0.6534805297851562, -1.0158036947250366, -0.7275061011314392, -0.48031675815582275, 0.13657380640506744, 0.21250978112220764, 0.03903518244624138, 0.15217751264572144, 0.1799810826778412, 0.15828828513622284, 0.5230724215507507, 0.4386857748031616, 0.1631334275007248, 0.18032541871070862, -0.20201484858989716, -0.05966521427035332, -0.9024021625518799, -0.764851450920105, -0.3902337849140167, -0.24997678399085999, -0.2788991630077362, -0.427482008934021, -0.08511614054441452, -0.05454884469509125, 0.2824631929397583, 0.5758532881736755, 0.4564772844314575, -0.02193041332066059, -1.0975929498672485, -1.0621390342712402, -0.8436039090156555, -0.5967069268226624, -0.5351362228393555, -0.1653052717447281, -0.24152787029743195, -0.06918790936470032, -0.025873448699712753, 0.09059564769268036, 0.4229623079299927, 0.4671463370323181, -0.27163392305374146, 0.14332935214042664, -0.029443006962537766, -0.1908753365278244, -0.5682230591773987, -0.761376678943634, -0.2921604514122009, -0.39448419213294983, 0.39141151309013367, 0.10429789125919342, 0.07694125920534134, -0.0020049584563821554, 0.33130601048469543, 0.4506155252456665, 0.11459848284721375, -0.14342468976974487, -0.34465712308883667, -0.6492851972579956, -0.7755581140518188, -0.5155977606773376, -0.7532980442047119, -0.47505778074264526, -0.4942643344402313, -0.41850021481513977, -0.2418517768383026, 0.15814653038978577, 0.10268570482730865, 0.4265885055065155, 0.412347674369812, 0.6364058256149292, -0.24982048571109772, -0.44358205795288086, -0.3022664189338684, -0.2995767593383789, -0.10305947065353394, 0.05990397930145264, 0.6260986328125, 0.20442676544189453, -0.11721432954072952, -0.3657916784286499, -0.09361813962459564, 0.18046778440475464, 0.023553134873509407, 0.09341369569301605, 0.3935258388519287, -0.40658697485923767, -0.5412878394126892, -0.7019985318183899, -0.5786955952644348, -0.44270259141921997, 0.13168230652809143, -0.1670730859041214, -0.2906612157821655, -0.27124905586242676, -0.3373509645462036, 0.10150431841611862, -0.17047269642353058, -0.27283692359924316, -0.6902781128883362, -0.028399454429745674, -0.2269771546125412, -0.5023617148399353, 0.006163473706692457, 0.3618372678756714, 0.27089959383010864, -0.03975633531808853, 0.18337973952293396, -0.12096033245325089, -0.16792601346969604, 0.0425039678812027, 0.5834541320800781, 0.8561744093894958, 0.5013404488563538, -0.23657770454883575, -0.38378918170928955, -0.5911392569541931, -0.42160680890083313, 0.006544004660099745, 0.09616634249687195, -0.2585473358631134, -0.36635830998420715, -0.08483663946390152, -0.30923908948898315, -0.14424608647823334, 0.051862623542547226, 0.30499857664108276, -0.3315179646015167, 0.1632625311613083, -0.21760410070419312, -0.6440411806106567, -0.669848620891571, 0.43686315417289734, 0.29509076476097107, -0.07347642630338669, 0.1694733053445816, -0.14813348650932312, 0.008172906935214996, 0.297675758600235, 0.8429675102233887, 0.9490970969200134, 0.5015299320220947, -0.3415459990501404, -0.6073567271232605, -0.3872206211090088, 0.17369712889194489, -0.1612502634525299, -0.39299842715263367, -0.6448323726654053, -0.41953524947166443, -0.42119866609573364, -0.12856894731521606, 0.012840387411415577, -0.3881300687789917, -0.5201083421707153, 0.02533799596130848, 0.10213465243577957, -0.43798935413360596, -0.5556100606918335, -0.7936736345291138, 0.6526415944099426, 0.30074816942214966, -0.2525536119937897, 0.4752707779407501, 0.1663803905248642, 0.4405985474586487, 0.6058331727981567, 0.8053886890411377, 0.7254093289375305, 0.034203872084617615, -0.47708818316459656, -0.12786436080932617, 0.13078753650188446, 0.23259565234184265, -0.418863445520401, -0.824262261390686, -0.7191698551177979, -0.39541199803352356, -0.4335734248161316, -0.24202457070350647, -0.28557002544403076, -0.4855906069278717, 0.5990228652954102, 0.945058286190033, 0.08287157118320465, -0.7975171208381653, -0.9431814551353455, 0.08446592837572098, 0.3463102877140045, 0.37795665860176086, 0.3762440085411072, 0.3523099720478058, 0.2566830813884735, 0.38194218277931213, 0.7219178080558777, 0.8723444938659668, 1.0109773874282837, 0.11720415204763412, -0.2867101728916168, -0.19760200381278992, 0.19531230628490448, 0.37578797340393066, -0.3012809753417969, -0.40247780084609985, 0.0567483976483345, -0.3773114085197449, -0.5380574464797974, -0.12084519863128662, -0.4654986262321472, -0.0004051004070788622, -0.18547561764717102, 0.9382866024971008, -0.03852414712309837, -0.7752448916435242, -0.7160518169403076, 0.423940509557724, 0.34943825006484985, 0.26082396507263184, -0.12309906631708145, 0.3968150317668915, 0.36161017417907715, 0.8677812814712524, 0.8571742177009583, 0.5472609400749207, 0.6845738887786865, 0.11488085985183716, -0.2550045847892761, -0.023435750976204872, 0.12045121937990189, -0.004766229540109634, -0.1473100483417511, -0.4348859190940857, -0.038570061326026917, -0.014080245979130268, -0.35078340768814087, -0.03635355457663536, -0.26441508531570435, -0.38995689153671265, -0.7915096282958984, 0.47867685556411743, 0.09149371087551117, -0.5901139974594116, -0.9373051524162292, 0.35048386454582214, 0.3255949020385742, -0.15179628133773804, -0.2016582041978836, -0.0007175176870077848, -0.16129714250564575, 0.39807331562042236, 0.5834442377090454, 0.5105137228965759, -0.05340620130300522, -0.3650710880756378, -0.1820317953824997, -0.034863948822021484, -0.18802329897880554, -0.392286479473114, -0.17661790549755096, -0.14929336309432983, 0.36958277225494385, 0.37676459550857544, -0.3779067099094391, 0.09070838987827301, 0.3724859356880188, -0.06199454143643379, -0.6702686548233032, -0.28562960028648376, -0.391105055809021, -0.35543307662010193, -0.7497913241386414, -0.06512972712516785, 0.050623808056116104, -0.0843319445848465, -0.03761906549334526, -0.17496420443058014, -0.08564938604831696, -0.15575997531414032, 0.23929844796657562, 0.10749824345111847, -0.08053794503211975, -0.32802239060401917, -0.2374294400215149, -0.23396651446819305, -0.581436038017273, -0.1197071298956871, 0.4302728772163391, 0.13580182194709778, 0.11270032078027725, 0.1951145976781845, 0.05094553902745247, 0.1438799351453781, 0.722032904624939, -0.15383879840373993, 0.2603154182434082, -0.487095445394516, 0.05915207415819168, 0.49499014019966125, 0.3546609580516815, -0.8069767355918884, 0.4270840883255005, 0.2948957085609436, -0.15151524543762207, -0.19789111614227295, -0.31815046072006226, -0.4891332983970642, -0.13657324016094208, -0.1725967526435852, 0.09247264266014099, 0.20101933181285858, -0.23176760971546173, -0.4053184688091278, -0.2004231959581375, 0.033647067844867706, -0.15760289132595062, -0.1912548989057541, -0.16706809401512146, -0.05960113927721977, 0.04044080525636673, 0.36193472146987915, 0.6188953518867493, 0.14320401847362518, -0.2617277503013611, -0.2710641026496887, -0.2445659041404724, 0.06169633939862251, 0.21896934509277344, -0.5866215825080872, 0.5056272745132446, 0.12028950452804565, -0.1994124799966812, -0.33353063464164734, 0.14797550439834595, -0.2511427402496338, -0.37312808632850647, -0.3314993977546692, -0.15800291299819946, -0.05225546285510063, -0.271595299243927, -0.4287621080875397, -0.10216397047042847, 0.009512198157608509, -0.3028597831726074, -0.035436250269412994, -0.03996840491890907, 0.26679086685180664, 0.6453943252563477, 0.6566576957702637, 0.25184565782546997, -0.4027857184410095, -0.39999398589134216, -0.01704588159918785, -0.1595713198184967, -0.17035195231437683, 0.19442155957221985, 0.15501351654529572, -0.8310235142707825, -0.5853044390678406, -0.44152650237083435, -0.2678728997707367, 0.0192855317145586, -0.31943538784980774, -0.4599972665309906, 0.12136657536029816, 0.3403054177761078, 0.4700840413570404, 0.2608188986778259, -0.08126842975616455, 0.18503408133983612, 0.22948430478572845, -0.007878266274929047, 0.013941054232418537, -0.184994176030159, 0.18161270022392273, 0.9381903409957886, 1.2120193243026733, 0.7493095993995667, -0.2266332358121872, -0.7412890791893005, 0.031129140406847, 0.028420880436897278, -0.050889234989881516, -0.0020243104081600904, 0.18988880515098572, -1.4853345155715942, -0.5862181186676025, -0.4279412627220154, -0.4023122787475586, -0.01398225873708725, -0.7399451732635498, -0.23914764821529388, 0.39693301916122437, 0.6129813194274902, 0.7242849469184875, 0.8677114248275757, 0.5815148949623108, 0.5713350772857666, 0.7362586259841919, 0.5272301435470581, 0.7691183090209961, 0.8321526646614075, 0.8613452911376953, 0.9253218173980713, 0.7494935393333435, 0.9631232619285583, -0.07672714442014694, -0.7523484826087952, -0.004804395139217377, 0.0845908597111702, -0.08231230825185776, 0.13953030109405518, -0.7217133641242981, -1.040307641029358, -0.8781327605247498, -0.9803333282470703, -0.8222567439079285, -0.42291194200515747, -0.29148295521736145, -0.0629158541560173, 0.17620457708835602, 0.6195105910301208, 0.46041515469551086, -0.24525530636310577, 0.3987716734409332, 0.7545555830001831, 1.034894347190857, 1.1799358129501343, 1.3716213703155518, 0.9592891335487366, 0.5671519637107849, 0.6660362482070923, 0.7882966995239258, 0.3655163645744324, 0.20677641034126282, -0.5611819624900818, -0.07293903827667236, -0.03199904039502144, -0.06369638442993164, 0.07950577884912491, -0.2480435073375702, -0.6965874433517456, -0.2385461926460266, -0.2005728930234909, -0.47563615441322327, -0.5971730947494507, -0.7495332956314087, 0.3013291358947754, -0.05024384334683418, -0.7659294605255127, -0.4602443277835846, -0.7379076480865479, -0.26882922649383545, 0.7327906489372253, 1.4475473165512085, 0.9092303514480591, 0.5908979177474976, 0.15244559943675995, 0.7548564076423645, 0.4129067063331604, -0.1250358670949936, 0.4561746418476105, 0.37515875697135925, 0.010935491882264614, -0.028643030673265457, -0.009436622262001038, 0.05475538223981857, 0.007925868034362793, 0.4018380045890808, 0.7622193694114685, -0.03188861161470413, 0.0830991119146347, -0.09536904096603394, -0.17856039106845856, 0.08933469653129578, 0.15064546465873718, 0.057495277374982834, -0.26412978768348694, -0.8596356511116028, -0.8364555835723877, -0.4762977957725525, 0.014741601422429085, 0.7461413145065308, 0.26978689432144165, 0.01834586262702942, 0.18384601175785065, 0.8345432877540588, 0.17226243019104004, -0.44621941447257996, 0.10782202333211899, -0.11110176891088486, 0.002245016396045685, 0.06828873604536057, -0.01761053502559662, -0.010912463068962097, -0.05677879601716995, 0.016300439834594727, -0.22076773643493652, -0.4085131883621216, 0.1841558963060379, 0.15251915156841278, 0.16818536818027496, 0.12771834433078766, 0.055341631174087524, 0.3561473488807678, -0.06287474185228348, -0.3995102345943451, -0.4559568464756012, -0.05900620296597481, -0.6364250779151917, -0.7943272590637207, 0.14431601762771606, 0.4490533471107483, 0.8894693851470947, 0.051103558391332626, -0.05529121682047844, -0.3800264894962311, 0.06883341819047928, -0.06481295824050903, -0.08039063215255737, -0.06351304054260254], [0.0848049595952034, 0.0024488046765327454, -0.08201935142278671, 0.020847328007221222, 0.00390026718378067, -0.05015678331255913, -0.08122925460338593, 0.016887664794921875, -0.024929262697696686, 0.007376998662948608, -0.0834839716553688, -0.031895074993371964, -0.12777435779571533, 0.015348388813436031, 0.09791862964630127, -0.06569229811429977, -0.010385274887084961, 0.06204228848218918, 0.07340455800294876, 0.04032563418149948, -0.08499520272016525, 0.038538575172424316, -0.04097176715731621, 0.02450437843799591, -0.055136457085609436, 0.0198233500123024, 0.04695681482553482, -0.06888500601053238, -0.008225247263908386, 0.017980560660362244, 0.004727676510810852, 0.021681025624275208, -0.07155313342809677, -0.06799431145191193, -0.42770814895629883, -0.4905180335044861, -0.157340869307518, 0.009316947311162949, 0.03875022381544113, 0.5951313972473145, 0.2760765850543976, 0.19122686982154846, -0.7770808339118958, -0.5299916863441467, 0.07340474426746368, 0.329393595457077, -1.0944386720657349, -1.0911327600479126, -0.49614545702934265, -0.8799676895141602, -0.6914947628974915, -0.37272408604621887, 0.07470256835222244, -0.07895591109991074, -0.0849950835108757, -0.07682960480451584, -0.03602160885930061, -0.015269562602043152, -0.19311057031154633, 0.22154401242733002, -0.3249130845069885, 0.08818096667528152, 0.73000568151474, 0.048733536154031754, 0.8805543184280396, 0.7181693315505981, 0.7417237162590027, 0.958994448184967, 0.20807987451553345, -0.23208676278591156, -0.07057918608188629, -0.7939468026161194, -0.9948212504386902, -0.5037543773651123, -0.12868055701255798, -0.7531203627586365, -0.8065656423568726, -0.31752219796180725, -0.8420506715774536, -0.6161444783210754, 0.3449983298778534, 0.32974866032600403, 0.06441309303045273, 0.05327295511960983, -0.00438690185546875, 0.053123198449611664, -0.5143387317657471, -0.6201809048652649, -0.5246334075927734, -0.5273637175559998, -0.3224017322063446, -0.6556766033172607, 0.33733561635017395, 0.5859326124191284, 0.3183693289756775, 0.8159379959106445, 0.4709351360797882, 0.4820626378059387, 0.6141568422317505, -0.1300484985113144, -0.01706806570291519, 0.057828228920698166, -0.34152963757514954, -0.7512756586074829, -0.7360884547233582, -0.08942150324583054, -0.528185248374939, -0.5243120193481445, -0.34160876274108887, 0.7114328742027283, -0.10924238711595535, -0.07420414686203003, 0.02232847362756729, 0.07953352481126785, 0.15310317277908325, -0.23760664463043213, -0.709335207939148, -0.39052844047546387, 0.5989960432052612, 0.20556677877902985, 0.23662647604942322, 0.2755182981491089, 0.29040607810020447, 0.12537072598934174, 0.33098074793815613, 0.06226901337504387, 0.24755236506462097, -0.07302123308181763, -0.08441931754350662, 0.1483762413263321, -0.3029521405696869, -0.2963244616985321, -0.4047434329986572, -0.31690624356269836, -0.4021548330783844, -0.36449870467185974, -0.44281116127967834, -0.4336349666118622, 0.1261586844921112, -0.11485753208398819, -0.05390189215540886, 0.020166851580142975, -0.41010627150535583, 0.34057796001434326, -0.05828821286559105, 0.037018783390522, 0.12802353501319885, 0.04226665571331978, 0.11740443110466003, -0.36372891068458557, -0.16009025275707245, -0.2192215919494629, 0.02348146215081215, -0.08717645704746246, -0.0838937982916832, -0.3153425455093384, -0.27360910177230835, -0.10850745439529419, 0.1229349747300148, 0.07220515608787537, -0.20164355635643005, 0.2402952015399933, -0.07484974712133408, -0.4414370357990265, -0.23231972754001617, -0.17620894312858582, -0.3449060022830963, 0.09887522459030151, -0.06120765954256058, 0.08139193803071976, -0.3080243766307831, 0.46437764167785645, -0.16270852088928223, -0.34360650181770325, -0.38204503059387207, -0.48260506987571716, -0.49650809168815613, -0.19355663657188416, -0.10172576457262039, -0.07942329347133636, 0.1163049042224884, 0.18369609117507935, -0.011555563658475876, -0.2851906716823578, -0.2216886430978775, -0.11968685686588287, -0.31799551844596863, -0.3189098834991455, 0.18084464967250824, 0.2156233787536621, 0.49910902976989746, 0.09889014810323715, -0.6749619841575623, -1.1071525812149048, -0.0049226912669837475, -0.07194117456674576, 0.0794096291065216, 0.5926113724708557, -0.04731009528040886, 0.1309569776058197, 0.3514394462108612, -0.27431339025497437, 0.23539720475673676, -0.11447993665933609, 0.27082350850105286, 0.17030037939548492, 0.3415846526622772, 0.3620746433734894, 0.25951555371284485, 0.3492994010448456, -0.19963820278644562, -0.052395548671483994, -0.14374421536922455, -0.23720760643482208, -0.1957707703113556, -0.008486580103635788, -0.017221132293343544, -0.04006746783852577, 0.4161752164363861, 0.13729220628738403, 0.07307033240795135, -0.1340872049331665, -0.7873091697692871, 0.1408856362104416, 0.6106051802635193, 0.8317570686340332, 0.3995528519153595, 0.09923084080219269, 0.21875052154064178, 0.003506218548864126, 0.1638149619102478, 0.19905029237270355, 0.4881467819213867, 0.3606180250644684, 0.5204878449440002, 0.33851009607315063, 0.033768609166145325, 0.07398475706577301, -0.29343438148498535, -0.4226536452770233, 0.07728312909603119, -0.19068527221679688, -0.21171782910823822, -0.37914755940437317, -0.2856283187866211, -0.4347214102745056, 0.0877523198723793, -0.6089662313461304, -0.38628914952278137, -0.28117701411247253, -0.8439208269119263, -0.626030683517456, 0.10484062135219574, 0.598856508731842, 1.3648990392684937, 1.1102986335754395, 0.6804612874984741, 0.8571584224700928, 0.19550146162509918, -0.24200326204299927, 0.024812201038002968, 0.38933584094047546, 0.2615540325641632, -0.042170751839876175, -0.1829930692911148, -0.19317074120044708, -0.64035564661026, -0.7875534296035767, -0.05651743710041046, 0.2546260356903076, 0.3021416962146759, 0.24142986536026, 0.02599925734102726, -0.30321812629699707, -0.34060075879096985, -0.04656543955206871, -0.39696118235588074, -0.8671820163726807, -0.7032368183135986, -0.6540060043334961, 0.15226179361343384, 0.31763556599617004, 1.2467503547668457, 1.1621935367584229, 0.2619388699531555, 0.496460884809494, -0.03258349001407623, -0.13510189950466156, -0.1654946506023407, -0.10633955150842667, -0.2555309534072876, -0.27587297558784485, -0.49108535051345825, -1.0084636211395264, -1.098732352256775, -0.9244911670684814, 0.23712335526943207, 0.7642840147018433, 0.9503981471061707, 0.9075140357017517, 1.3928656578063965, 1.7132941484451294, 2.084160566329956, 2.0679752826690674, 1.0106875896453857, -0.145605206489563, -1.451109766960144, -0.6047253012657166, 0.0016002680640667677, 0.8245192766189575, 0.7559686899185181, 0.5772255063056946, -0.45454978942871094, 0.00020472666074056178, 0.32964056730270386, 0.1082310602068901, 0.25030767917633057, 0.1995210498571396, -0.10493506491184235, -0.2000211924314499, -0.3849855959415436, -0.6507546901702881, -0.8670408725738525, -0.10881050676107407, 0.7327104806900024, 0.9742713570594788, 1.0873291492462158, 1.2135642766952515, 1.7214833498001099, 2.9495630264282227, 4.395293235778809, 4.27030611038208, 2.961293935775757, 0.5789223313331604, -0.8884220123291016, -0.5786868929862976, 0.045950230211019516, 1.2219841480255127, 0.622389018535614, 0.12158219516277313, 0.11354339122772217, -0.06999776512384415, -0.20829971134662628, 0.029638266190886497, 0.03703322634100914, 0.3761885464191437, -0.03926750272512436, -0.5618313550949097, -0.33051759004592896, -0.1552889049053192, -0.31507954001426697, 0.48755910992622375, 0.8975551724433899, 0.9890109300613403, 1.0561394691467285, 1.2285799980163574, 0.5314453840255737, 1.5738641023635864, 2.2968251705169678, 3.082200050354004, 3.422261953353882, 1.384979248046875, 0.058793969452381134, -0.2593289017677307, -0.2549925148487091, 0.9976208806037903, 0.9002446532249451, -0.06736324727535248, 0.01185415219515562, -0.47105079889297485, -0.20366334915161133, 0.05698893964290619, -0.044465500861406326, 0.024060945957899094, -0.4407470226287842, -0.3020744025707245, -0.04533367604017258, -0.05896462872624397, -0.0631580725312233, 0.06704473495483398, 0.11927330493927002, 0.5736638903617859, 1.0046583414077759, 0.5986282229423523, -0.05503556504845619, -0.06685995310544968, 0.2633718252182007, 0.8961275815963745, 2.8326501846313477, 1.5446877479553223, 1.234810709953308, 0.585113525390625, -0.4894101023674011, 0.3450219929218292, 0.8159976601600647, -0.26382195949554443, -0.5230411887168884, 0.29065918922424316, 0.020555099472403526, 0.14859381318092346, 0.1236017569899559, 0.2211390733718872, -0.07424692809581757, 0.3307124376296997, 0.03540537878870964, 0.18971380591392517, 0.23888087272644043, -0.06753456592559814, -0.23878194391727448, 0.3005313575267792, 0.2561573088169098, 0.1499209702014923, 0.01370820589363575, -0.3367871046066284, -0.3691381514072418, -0.1406555324792862, 0.8615442514419556, 0.6208739876747131, 0.4906871020793915, 0.5733402967453003, -0.351540744304657, 0.12103594839572906, -0.6401547789573669, -0.37838661670684814, -0.47546789050102234, 0.6139914393424988, 0.2750251889228821, 0.12800940871238708, 0.1139921247959137, 0.026689333841204643, 0.30692899227142334, 0.14783541858196259, -0.009593185037374496, 0.21314480900764465, 0.18304404616355896, 0.18079981207847595, -0.3355253338813782, -0.09814263135194778, -0.09246315807104111, -0.06184158846735954, 0.07859044522047043, -0.5732024312019348, -0.4508497714996338, -0.253235787153244, 0.5691367387771606, 1.0987764596939087, 0.6408456563949585, 0.8616315126419067, 0.4910438060760498, -0.027035042643547058, 0.0016783010214567184, -0.4984666407108307, -0.4931774437427521, -0.36848920583724976, 0.2874680757522583, 0.3172205686569214, -0.04351164028048515, 0.0860380232334137, 0.470626562833786, 0.5295675992965698, 0.9086626768112183, 0.5965275168418884, 0.24189050495624542, 0.21820446848869324, 0.27371731400489807, 0.16483603417873383, 0.15470564365386963, -0.2956358790397644, 0.06225830316543579, -0.008464407175779343, -0.17120686173439026, -0.3805556893348694, 0.08949724584817886, 1.4566197395324707, 1.5458250045776367, 0.9591171741485596, -0.07686525583267212, -0.4736064374446869, 0.14872637391090393, -0.4715315103530884, -0.33557096123695374, -0.5854894518852234, -0.0428512766957283, -0.09279241412878036, -0.20508649945259094, 0.11235195398330688, 0.45223745703697205, 0.5612452626228333, 0.8120884895324707, 0.5114179849624634, 0.25546887516975403, 0.36614248156547546, 0.38656434416770935, 0.354335755109787, 0.20024153590202332, -0.27203401923179626, -0.03521813452243805, -0.31683531403541565, -0.27681735157966614, 0.007778310216963291, -0.3646675646305084, 1.212706446647644, 0.03768875077366829, 0.7482326626777649, 0.45819082856178284, -0.28752318024635315, 0.45641806721687317, -0.4734900891780853, -0.45147255063056946, -0.38443776965141296, -0.04657072573900223, -0.02260424755513668, -0.20295032858848572, -0.13729600608348846, 0.35207825899124146, 0.36141008138656616, -0.025880277156829834, -0.3245241343975067, -0.015020796097815037, 0.45760512351989746, 0.5865321159362793, 0.09651926904916763, 0.20178745687007904, -0.07821063697338104, -0.3695410490036011, -0.3588479161262512, 0.14055699110031128, 0.19947034120559692, 0.2791179418563843, 0.46089884638786316, 0.08623422682285309, 0.09042297303676605, -0.4386431872844696, 0.5354846119880676, 0.2748526632785797, -0.44070902466773987, 0.09794000536203384, -0.026106903329491615, 0.041504353284835815, -0.309041827917099, -0.34539249539375305, -0.3723449409008026, 0.023867599666118622, -0.15822261571884155, -0.18948283791542053, -0.18856026232242584, 0.20173586905002594, 0.07261152565479279, 0.395563006401062, 0.1760275512933731, -0.1954527497291565, -0.010472126305103302, -0.23931680619716644, -0.1694258153438568, 0.3772762715816498, -0.4736507833003998, 0.2559562027454376, -0.09612558782100677, 0.44299501180648804, -0.485173761844635, -0.009749211370944977, 0.4814246892929077, 0.5552974939346313, -0.045612458139657974, 0.1574702262878418, -0.016254249960184097, 0.01889173313975334, -0.029884682968258858, -0.3468528985977173, -0.12731441855430603, -0.20489557087421417, -0.4535992443561554, -0.035449184477329254, 0.0071698520332574844, -0.05100131407380104, 0.3266201913356781, 0.1894170194864273, -0.28766554594039917, -0.38528692722320557, 0.021737677976489067, -0.15512894093990326, -0.05559687688946724, -0.3885154724121094, -0.17383606731891632, 0.33831456303596497, 0.4837857484817505, 0.08949222415685654, -0.5308974981307983, -0.31697654724121094, 0.39580440521240234, 0.38360047340393066, 0.3421919345855713, 0.17175355553627014, -0.3344184160232544, 0.22973944246768951, -0.27121517062187195, 0.043049026280641556, -0.02308548428118229, 0.00977198127657175, -0.17784947156906128, -0.08656536042690277, -0.375324010848999, -0.32747283577919006, -0.22432439029216766, -0.05933413654565811, -0.34753575921058655, -0.2974238097667694, 0.021306855604052544, -0.0761256068944931, -0.28242620825767517, -0.09720467031002045, 0.37305325269699097, 0.09059563279151917, -0.05275238677859306, -0.09615342319011688, 0.20849454402923584, -0.2878488600254059, -0.19664642214775085, 0.5359958410263062, 0.3591776192188263, -0.03977658599615097, -0.11900847405195236, 0.3540044128894806, 0.2842220962047577, 0.19712112843990326, 0.08534421026706696, 0.06983430683612823, 0.3121893107891083, 0.24746175110340118, -0.39113593101501465, -0.44968706369400024, -0.3699386417865753, -0.3546102046966553, -0.5880595445632935, -0.7902019619941711, -0.6793731451034546, -0.6474668383598328, -0.5178731679916382, 0.20949217677116394, 0.28876861929893494, 0.5356601476669312, -0.05427960306406021, -0.8710174560546875, 0.21148088574409485, 0.040267206728458405, 0.04852216690778732, 0.023437529802322388, -0.313542902469635, -0.6920419335365295, 0.2887718081474304, 0.20828363299369812, -0.059083472937345505, 0.004473576322197914, 0.0026331874541938305, -0.025060953572392464, 0.24059723317623138, -0.20942158997058868, -0.37969958782196045, -0.2765076160430908, -0.2773773670196533, -0.4779945909976959, -0.3971196711063385, -0.3122541308403015, -0.4164862036705017, -0.43487685918807983, -0.30119627714157104, 0.5191144347190857, 0.6040774583816528, 0.37092268466949463, -0.09121646732091904, -1.0945667028427124, -0.009475290775299072, -0.005160830914974213, 0.03855423629283905, 0.47092685103416443, -0.2873619794845581, 0.33655062317848206, 0.455905944108963, 0.46697381138801575, -0.06451897323131561, -0.2412518858909607, 0.10487695038318634, 0.28280097246170044, 0.22449041903018951, 0.3714050054550171, 0.07278015464544296, -0.2183266580104828, 0.11477835476398468, -0.12182145565748215, -0.31942442059516907, 0.11431396007537842, 0.2399175465106964, -0.41849249601364136, -0.44278523325920105, 0.679469108581543, 0.005846479907631874, 0.047016508877277374, 0.8043866157531738, -0.49599239230155945, -0.03767465054988861, -0.0232916921377182, 0.07511400431394577, -0.3073120713233948, -0.41358867287635803, 0.48243385553359985, 0.4095461666584015, 0.2545613944530487, 0.4048473834991455, -0.1834675520658493, -0.12433959543704987, 1.085701823234558, 0.9643083810806274, -0.045608896762132645, -0.3188891112804413, -0.41165924072265625, -0.42397087812423706, 0.009084174409508705, 0.6922001242637634, 0.35376694798469543, 0.22529199719429016, 0.11920200288295746, -0.8450048565864563, -0.7348308563232422, -0.32402732968330383, -0.7690619826316833, 0.1668199747800827, 0.10106376558542252, 0.05035813897848129, 0.002475559711456299, -0.026339825242757797, -0.038516122847795486, 0.023420078679919243, 0.5860150456428528, 1.0280216932296753, 1.2200473546981812, 0.31417128443717957, 0.21206136047840118, 0.47900694608688354, 0.5928388237953186, 0.3804721534252167, 0.5090371370315552, 0.9804620146751404, 0.4712418019771576, -0.36183658242225647, -0.0876222476363182, 0.3162859082221985, 0.2872845530509949, 0.03982873633503914, -0.1780381053686142, -0.42334017157554626, -0.09524306654930115, 0.22297854721546173, 0.2366672307252884, 0.01099147368222475, 0.0354466438293457, -0.053312335163354874, -0.056601569056510925, 0.03922783583402634, 0.017332956194877625, -0.07699988782405853, 0.07430373877286911, 0.16062690317630768, -0.2722865343093872, -0.059043142944574356, -0.08448553830385208, 0.00954540353268385, -0.11220897734165192, -0.09044221043586731, -0.09399779886007309, 0.7324280738830566, 0.9560835361480713, -0.1255214512348175, -0.1358228176832199, 0.7761766910552979, -0.04761359468102455, 0.3139660358428955, -0.1362183690071106, 0.3113110363483429, 0.38196244835853577, 0.46902164816856384, -0.045824285596609116, 0.03283410519361496, -0.04672510176897049, -0.043914660811424255], [-0.03249902278184891, 0.08386457711458206, -0.017141051590442657, 0.03350484371185303, -0.060988493263721466, 0.006739318370819092, -0.016791701316833496, 0.053628407418727875, -0.0005653649568557739, -0.08041906356811523, -0.002666659653186798, 0.007235415279865265, 0.05769294872879982, 0.014686297625303268, -0.046460483223199844, -0.027195503935217857, -0.023317039012908936, 0.03225544095039368, 0.01799783855676651, 0.013130784034729004, -8.408725261688232e-05, -0.015190348029136658, 0.030452705919742584, 0.010791465640068054, -0.05699329078197479, 0.07775174826383591, 0.06383811682462692, 0.021701596677303314, -0.005176670849323273, 0.010092459619045258, -0.02759363129734993, 0.0023518428206443787, 0.06203323230147362, 0.02915729582309723, 0.061937011778354645, 0.03413490206003189, 0.0801171138882637, 0.026409892365336418, -0.3685051202774048, 0.019306978210806847, 0.3504635989665985, 0.35866299271583557, -0.09936179965734482, 0.24348308145999908, 0.2154810130596161, 0.26189589500427246, 0.24167385697364807, -0.024915719404816628, -0.2640288174152374, -0.5349331498146057, 0.08888737857341766, 0.044096920639276505, 0.06140162795782089, 0.05962684005498886, 0.007795907557010651, -0.029702607542276382, 0.04385458678007126, 0.026138223707675934, -0.04967963695526123, 0.5271406769752502, 0.546929121017456, -0.17493626475334167, 0.5163249373435974, 0.43875423073768616, -0.16136446595191956, -1.0296082496643066, -0.9881650805473328, -0.5715911984443665, -0.46389856934547424, -0.6863898038864136, -1.010392427444458, -0.6378383040428162, -0.18916553258895874, -0.17260849475860596, -0.2566785514354706, -0.11640813201665878, -0.2631780505180359, -0.8667401075363159, -0.05519232526421547, -0.041016243398189545, -0.7523362040519714, -0.49296897649765015, 0.03491909056901932, -0.05920356884598732, 0.05425938218832016, 0.08530213683843613, -0.4826039969921112, 0.36603885889053345, 0.6525726318359375, 0.3970886170864105, 0.556786060333252, -0.14480754733085632, -0.4810410141944885, -0.3340250849723816, -0.7246118783950806, -0.2211768627166748, 0.09119065850973129, -0.20508639514446259, 0.14575208723545074, -0.13645638525485992, -0.3251945972442627, -0.0542408749461174, -0.05764603242278099, -0.5238885283470154, -0.5766592025756836, -0.15743082761764526, -0.7104613184928894, -0.5935720801353455, 0.10246334224939346, -0.0027382541447877884, 0.4208250343799591, -0.06341476738452911, 0.081050805747509, 0.20534802973270416, -0.5379507541656494, -0.275970995426178, 0.07605358958244324, 0.7836655974388123, 0.10403358936309814, -0.43249866366386414, -0.7820894122123718, -1.3786711692810059, -1.0388264656066895, -0.6165449023246765, -0.19786202907562256, -0.1935088336467743, -0.26376253366470337, 0.01882445067167282, -0.03597083315253258, -0.18019329011440277, 0.10820481181144714, -0.18748334050178528, -0.4944424331188202, 0.0955217108130455, -0.29420551657676697, -0.1643252670764923, 0.28491029143333435, 0.2854367196559906, 0.8506681323051453, 0.2887989580631256, -0.05620501935482025, 0.06461489945650101, -0.8139102458953857, 0.42424678802490234, 0.46200186014175415, 0.39117929339408875, -0.43100592494010925, -0.3706742525100708, -0.33869612216949463, -0.6808059215545654, -0.6867141127586365, -0.5781142115592957, -0.4016842842102051, -0.21512170135974884, -0.3558422029018402, -0.09623080492019653, -0.21775248646736145, -0.09733232855796814, -0.050707340240478516, 0.034137725830078125, -0.0088429544121027, -0.09952210634946823, -0.02341807633638382, 0.19469842314720154, -0.27339017391204834, 0.016102803871035576, 0.1926342099905014, -0.13857366144657135, 0.060669906437397, -0.1498667597770691, 0.28354737162590027, -0.11522039771080017, 0.24925193190574646, -0.9387387633323669, -0.7335125803947449, -0.6943938732147217, -0.35038048028945923, -0.4862094819545746, -0.32465216517448425, -0.40962153673171997, -0.2295060008764267, -0.048870112746953964, -0.14023104310035706, -0.1558154672384262, -0.16173680126667023, -0.23547187447547913, -0.004933284129947424, -0.01672719232738018, -0.009825879707932472, -0.20865803956985474, -0.203707754611969, 0.21089622378349304, 0.3643541932106018, 0.1664045751094818, 0.30241045355796814, -0.2873952090740204, -0.0371522456407547, 0.5335731506347656, 0.2122836410999298, 0.45135119557380676, -0.6016892194747925, -0.773429274559021, -1.189345121383667, -1.3835711479187012, -1.0296765565872192, -0.6326627135276794, -0.03356777876615524, 0.09284219890832901, 0.33321306109428406, 0.06975165009498596, 0.04360797256231308, 0.12409379333257675, -0.061806291341781616, -0.3973178565502167, -0.0991143137216568, -0.3942641615867615, 0.1693757027387619, -0.19134733080863953, -0.10723196715116501, 0.5859697461128235, 0.562857449054718, 0.7228828072547913, -0.14172524213790894, -0.07871530205011368, 0.5617393255233765, 0.11049801856279373, -0.7057486772537231, 0.1442943960428238, 0.03246299922466278, 0.07044679671525955, -0.015206842683255672, -1.2032514810562134, -0.6055359840393066, -0.05202002823352814, 0.24400262534618378, 0.10094009339809418, 0.1204400435090065, -0.14488454163074493, -0.21256881952285767, -0.08795242756605148, 0.00978506077080965, -0.21592313051223755, 0.13149644434452057, 0.019507814198732376, 0.30545419454574585, 0.34348437190055847, 0.2997850775718689, 0.08334626257419586, 0.2558450698852539, 0.5481337308883667, 0.3743131756782532, 0.6092669367790222, -0.3631153404712677, 0.3243660032749176, -0.73019939661026, 0.02155948057770729, -0.23678001761436462, -0.6258946657180786, -0.2107125222682953, -0.49733811616897583, -0.4306935966014862, -0.39705461263656616, -0.08516019582748413, -0.008975464850664139, 0.1872500777244568, 0.1745559424161911, -0.009574932977557182, -0.19402800500392914, 0.017382096499204636, 0.25866928696632385, -0.08271623402833939, -0.28834763169288635, -0.05174772068858147, -0.1284768134355545, -0.31265154480934143, -0.3125993311405182, -0.11716760694980621, 0.3986569941043854, 0.5932972431182861, -0.531792938709259, -0.3339126706123352, 0.20950379967689514, 0.13218168914318085, -0.17423413693904877, -0.4930170178413391, -0.6174537539482117, -0.2190379798412323, 0.43517234921455383, 0.14959126710891724, -0.20632021129131317, -0.10662403702735901, 0.15441621840000153, 0.5733006000518799, 0.6128295063972473, 0.3841691017150879, 0.02223736047744751, 0.2914124131202698, -0.06022993102669716, -0.25143343210220337, -0.37361302971839905, 0.061509255319833755, 0.021212967112660408, 0.1203155368566513, 0.21856267750263214, 0.6667792797088623, 0.223976731300354, 0.37524956464767456, -0.7250925898551941, -0.28637200593948364, 0.19746370613574982, 0.07714159041643143, 0.07917948812246323, -0.4228708744049072, -0.7552080154418945, 0.04413498938083649, 0.2710758447647095, -0.16966238617897034, -0.7396953105926514, -0.45007702708244324, 0.006432050373405218, 0.34669914841651917, 1.0577656030654907, 0.5427248477935791, 0.17545689642429352, -0.0788496732711792, 0.11051735281944275, -0.05538836866617203, -0.11069785803556442, -0.17860254645347595, 0.2905050218105316, 0.465013712644577, 0.40659910440444946, 0.6258792281150818, 0.6464628577232361, 1.3345741033554077, -0.3553072512149811, -0.10264001786708832, 0.22477999329566956, -0.189976304769516, 0.19830170273780823, 0.13483485579490662, 0.0022169731091707945, -0.06432522088289261, 0.31104329228401184, -0.5513842105865479, -0.619123101234436, -0.35170435905456543, -0.22115333378314972, 0.2198389768600464, 0.7417729496955872, 0.8210232257843018, 0.33183786273002625, -0.2492111325263977, -0.2615170180797577, -0.1295774132013321, -0.27589377760887146, -0.5676394104957581, -0.623369574546814, -0.3271130621433258, -0.09871505200862885, 0.0136719960719347, 0.10562575608491898, 1.1534912586212158, -0.6708492636680603, 0.09729041904211044, 0.35348308086395264, -0.2964869439601898, -0.07896342873573303, 0.2879325747489929, -0.03814711049199104, -0.6606984734535217, -0.570203959941864, -0.5223239064216614, -0.4365595579147339, -0.5518540143966675, -0.2538483440876007, 0.5273386836051941, 0.536531388759613, 0.2715820074081421, -0.17532242834568024, -0.36673298478126526, -0.12135092169046402, 0.05322397127747536, -0.26391488313674927, -0.6017929911613464, -0.21318624913692474, -0.015623770654201508, 0.4570011794567108, -0.2443203330039978, -0.6602494120597839, 0.12239019572734833, -0.5627331137657166, 0.5464314818382263, 0.18790903687477112, -0.28174683451652527, -0.4309837818145752, 0.010671358555555344, 0.18552453815937042, -1.1761821508407593, -0.7390243411064148, -0.684621274471283, -0.32468998432159424, -0.2863248884677887, -0.11143822968006134, 0.5104599595069885, 0.35642024874687195, -0.1422736644744873, -0.3440333604812622, -0.5435978174209595, -0.24731610715389252, -0.19905498623847961, -0.07622752338647842, -0.27791744470596313, 0.010097699239850044, -0.3573044538497925, 0.18368852138519287, 0.2162470668554306, -1.2494386434555054, -0.9641352295875549, -0.3926587700843811, 0.3780354857444763, 0.3702933192253113, 0.889257550239563, -0.627763032913208, 0.7445340156555176, 0.4774313271045685, -0.2013358175754547, -0.24820709228515625, -0.5465251803398132, -0.824684202671051, -0.904734194278717, -0.5825627446174622, 0.214202880859375, -0.13503429293632507, -0.28522029519081116, 0.01882586069405079, -0.2929062247276306, -0.0518958680331707, 0.22781488299369812, 0.24519096314907074, -0.2009650021791458, -0.7272688150405884, -0.4257087707519531, 0.4010075330734253, 0.6539100408554077, -1.199442982673645, 0.06084289401769638, -0.5314881801605225, -0.39159485697746277, 0.03785262256860733, 0.3059929609298706, 0.5284855961799622, 0.39643314480781555, 0.7537535429000854, 0.31293514370918274, -0.4026704430580139, -0.6846156716346741, -1.3010749816894531, -1.4993952512741089, -1.2981634140014648, -0.6267145872116089, -0.7396743297576904, -0.3669842779636383, 0.2958003580570221, -0.08055645227432251, 0.22236444056034088, 0.1779571771621704, 0.040046509355306625, 0.041406821459531784, -0.4214324653148651, -0.22667530179023743, -0.09711167216300964, -0.06573779881000519, -0.5315613746643066, -0.90681391954422, 0.38589394092559814, -0.07579862326383591, 0.0943833440542221, -0.3578656315803528, 0.547609269618988, 0.007017937954515219, 0.5469249486923218, 0.4865848422050476, 0.24637079238891602, -0.2230181097984314, -0.6766368746757507, -1.0224339962005615, -1.2055883407592773, -1.1355937719345093, -0.9717661738395691, -0.44726330041885376, 0.2856690287590027, 0.497494101524353, 0.5051976442337036, 0.002937010023742914, -0.4812242388725281, -0.554894745349884, -0.5669167041778564, -0.5739181637763977, -0.17353451251983643, -0.3155243992805481, -0.9406476616859436, -0.1536792814731598, 0.39532211422920227, 0.318464457988739, -0.04319404810667038, -0.047577496618032455, 0.3637383282184601, 0.2757778465747833, 0.468120276927948, 0.37956172227859497, 0.9309678077697754, 0.8004602193832397, 0.29131102561950684, 0.08222363889217377, -0.2822704017162323, -0.5299098491668701, -0.45577219128608704, -0.05075367912650108, 0.4596443474292755, 0.7931317687034607, 0.4981354773044586, -0.3357837498188019, -0.5076296329498291, -0.8534951210021973, -0.30286791920661926, -0.16636225581169128, 0.22532621026039124, -0.5205439925193787, -0.3312816917896271, -0.3351908028125763, -0.4701293408870697, -0.23894627392292023, 0.17813622951507568, 0.1495136022567749, 0.5133156776428223, 0.0478646382689476, 0.4952948987483978, 0.09278561919927597, 0.34235289692878723, 0.6401652097702026, 0.42565542459487915, 0.26886123418807983, 0.016800902783870697, 0.014295091852545738, 0.07968199998140335, 0.234441339969635, 0.29168078303337097, 0.44926950335502625, 0.1856549084186554, 0.03598521277308464, -0.528078019618988, -0.8640575408935547, -1.0081720352172852, -0.6234933733940125, -0.27364298701286316, -0.5685135126113892, -0.21143151819705963, -0.3470619022846222, -0.3148314356803894, 0.05356229096651077, 0.3685488700866699, 0.037710320204496384, 0.023744570091366768, 0.2351013571023941, 0.760052502155304, 0.328702837228775, 0.3014649748802185, 0.2683869004249573, 0.3019610047340393, 0.2588590979576111, 0.35887157917022705, 0.2963496446609497, 0.21131645143032074, 0.000644574174657464, -0.06430985033512115, -0.2369665503501892, -0.12005320191383362, -0.4207374155521393, -0.9058749675750732, -0.7921850681304932, -0.6116989254951477, -0.34124788641929626, -1.4105224609375, -1.3220758438110352, -0.4352295696735382, 0.10400517284870148, 0.32263532280921936, -0.04819590970873833, -0.40155985951423645, -0.030218109488487244, 0.10142571479082108, 0.07746252417564392, 0.01047224085777998, 0.11605600267648697, 0.12013299763202667, -0.032968901097774506, -0.08374609798192978, 0.07104072719812393, 0.3662196099758148, 0.17269384860992432, 0.041120294481515884, -0.04109590873122215, -0.5085196495056152, -0.5315763354301453, -0.1596895009279251, -0.7121084332466125, -1.3837769031524658, -1.0538369417190552, -0.6953692436218262, -0.7330752611160278, -1.229899287223816, -1.1158653497695923, -0.42037123441696167, 0.496461421251297, 0.007334533613175154, -0.03665605187416077, -0.0964457169175148, 0.1404007524251938, -0.002635347191244364, -0.2359428107738495, -0.3880636394023895, 0.17079727351665497, 0.07960440963506699, 0.08744408935308456, -0.1540617197751999, -0.052991095930337906, 0.1307775378227234, -0.15262088179588318, 0.19714438915252686, 0.09815856069326401, -0.2623598277568817, -0.5300279259681702, -0.8304051160812378, -1.1678295135498047, -1.3759933710098267, -1.673580288887024, -0.8334882259368896, -0.44308143854141235, -1.0572909116744995, -0.6832621097564697, -0.5461976528167725, -0.18402881920337677, 0.08622976392507553, -0.04247679561376572, -0.05486108362674713, 0.3680359721183777, 0.35111019015312195, 0.24339406192302704, -0.46815282106399536, 0.05686310678720474, 0.5505945682525635, 0.4290284514427185, -0.1445571333169937, 0.20975878834724426, 0.20625843107700348, -0.3021261394023895, 0.015004592016339302, -0.12988509237766266, -0.13517498970031738, -0.703245997428894, -1.333296537399292, -1.240081548690796, -1.8158353567123413, -1.7109233140945435, -1.0905817747116089, -0.469350129365921, -0.806438684463501, -0.1477971076965332, 0.15792766213417053, -0.7639978528022766, -0.01705806702375412, -0.06917579472064972, -0.011129558086395264, -0.38567695021629333, 0.08728010952472687, -0.2729840576648712, -0.4976571798324585, -0.4919823706150055, -0.24609968066215515, -0.524543821811676, -0.24215170741081238, -0.5276174545288086, -0.44537267088890076, 0.0226865466684103, 0.09202740341424942, -0.634955108165741, -0.6882374882698059, -0.7312414646148682, -0.8400022983551025, -0.9036344885826111, -1.0341219902038574, -0.8682153820991516, -0.9283749461174011, -0.09083907306194305, -0.6980270147323608, -0.3230959177017212, -0.7521817088127136, -0.4699257016181946, -0.011834830045700073, -0.07465840131044388, 0.04778755456209183, 0.4329521059989929, -0.3863377571105957, 0.22568365931510925, -0.06289812922477722, 0.17369695007801056, -0.3334603011608124, -0.5026221871376038, -0.44653457403182983, -0.5716503858566284, -0.5087941884994507, -0.41416680812835693, -0.4577817916870117, -0.3668113350868225, 0.17946742475032806, -0.027051523327827454, -0.5858113169670105, -0.9183627963066101, -1.5380040407180786, -1.2215160131454468, -0.9997220635414124, -0.3203878700733185, -0.6119577884674072, -0.5705140233039856, -0.1000322550535202, 0.015654131770133972, -0.02754540741443634, 0.08239791542291641, 0.08166304975748062, -0.05577659606933594, 0.31481561064720154, 0.5123526453971863, -0.15803368389606476, -0.7067230343818665, -1.1751855611801147, -1.153681993484497, -0.8061558604240417, -0.7821763753890991, -0.45644107460975647, -0.5232555866241455, -0.6865074038505554, 0.0559493713080883, 0.24834567308425903, -0.7265177369117737, -1.0368176698684692, -0.6942386031150818, -0.7115475535392761, -0.5310416221618652, -0.491613507270813, -0.14783993363380432, -0.26973673701286316, -0.06848589330911636, -0.2370721995830536, -0.021680042147636414, -0.053825460374355316, 0.03999439626932144, 0.06700970977544785, -0.011112958192825317, 0.042632095515728, -0.2850867807865143, -0.5534148216247559, -0.9580993056297302, -0.9782469868659973, -1.4776681661605835, -1.5510241985321045, -0.670095682144165, -0.6948918700218201, -0.8327646851539612, -0.741385281085968, -0.48066189885139465, -0.1567317396402359, 0.04838256910443306, -0.5899271368980408, -0.7867626547813416, -0.5778876543045044, 0.08150297403335571, -0.18231700360774994, -0.5385890603065491, -0.27923956513404846, 0.05715145915746689, 0.0015351548790931702, -0.03723122179508209, -0.08548489212989807], [0.027364924550056458, 0.04786752909421921, 0.045508839190006256, -0.03915353864431381, 0.020299836993217468, 0.00205366313457489, -0.04940660297870636, -0.0833498165011406, -0.07214034348726273, 0.01587779074907303, -0.004544086754322052, -0.04070908576250076, 0.1385212242603302, -0.2585277557373047, -0.27090978622436523, -0.03444831073284149, -0.011456966400146484, 0.04838099330663681, 0.05002947896718979, -0.062063418328762054, -0.08545764535665512, -0.054824523627758026, -0.0026940926909446716, 0.021946780383586884, 0.025938093662261963, -0.08278463780879974, -0.05640557408332825, 0.07098238915205002, 0.020447954535484314, -0.039812568575143814, 0.024380825459957123, 0.014744892716407776, -0.012533760629594326, 0.030769044533371925, -0.16088618338108063, 0.25417470932006836, 0.25284111499786377, 0.5443891882896423, 0.1824951320886612, -0.3919506371021271, -0.0961812436580658, -0.19535377621650696, 0.23550565540790558, -0.37167099118232727, 